%YAML:1.0
---
opencv_ml_svm:
   format: 3
   svmType: C_SVC
   kernel:
      type: LINEAR
   C: 6.2659204055284592e-02
   term_criteria: { epsilon:1.1920928955078125e-07, iterations:1000 }
   var_count: 85
   class_count: 2
   class_labels: !!opencv-matrix
      rows: 2
      cols: 1
      dt: i
      data: [ 0, 1 ]
   sv_total: 1
   support_vectors:
      - [ 4.32283044e-01, -5.57521544e-02, -1.65518522e-02,
          -5.55250570e-02, -1.35673046e-01, -1.21831141e-01,
          -8.45681801e-02, 3.53935242e-01, 2.14749977e-01,
          -1.74317122e-01, -8.59394372e-02, -2.28885129e-01,
          -2.24765047e-01, -9.41490382e-02, -3.17838073e-01,
          5.43842688e-02, 1.81937173e-01, -2.20929474e-01,
          -1.95123509e-01, -1.66995496e-01, -1.89672589e-01,
          -1.44096151e-01, -1.42247960e-01, 2.87893474e-01,
          2.55884141e-01, -1.66666046e-01, -1.57814011e-01,
          -1.85303047e-01, -1.71341583e-01, -5.57918511e-02,
          -1.04118638e-01, 1.21893100e-01, 2.65607297e-01,
          -2.21536666e-01, -1.94361970e-01, -1.00645930e-01,
          -2.54410654e-01, -1.43953338e-01, -1.42725736e-01,
          2.64836609e-01, 1.58214077e-01, -3.90503113e-03,
          -5.34218252e-02, -1.91606551e-01, -1.35161564e-01,
          -1.06657431e-01, -1.57302544e-01, 1.89424157e-01,
          6.23074956e-02, -1.96105942e-01, -1.74601033e-01,
          -7.78065175e-02, -1.89995896e-02, -5.43375984e-02,
          -1.68199137e-01, 7.52371028e-02, 5.43099284e-01,
          -2.09073871e-02, -1.39107434e-02, -1.07584588e-01,
          -4.44626585e-02, 2.08662972e-02, -6.48687780e-03,
          6.97997391e-01, 1.04240924e-01, -9.67253223e-02,
          -1.44104585e-01, 1.47833745e-03, 1.25564737e-02,
          -1.76309034e-01, -1.40225530e-01, 4.08550054e-02,
          4.95949462e-02, -1.35009080e-01, -1.60045728e-01,
          3.85581255e-02, 9.70983952e-02, -9.34757516e-02,
          -2.42334083e-02, 1.49637133e-01, -3.90592441e-02,
          -6.04992397e-02, -2.04478726e-02, 9.79031087e-04,
          -2.97568347e-02 ]
   uncompressed_sv_total: 1998
   uncompressed_support_vectors:
      - [ 1.88341498e-01, 3.58597159e-01, 1.45432189e-01, 2.45603651e-01,
          2.34485626e-01, 2.09363028e-01, 1.92687511e-02, 9.47536342e-03,
          1.03132918e-01, 1.22097760e-01, 1.89049169e-01, 1.78921849e-01,
          8.77502710e-02, 5.08831814e-02, 4.04527597e-02, 3.76309566e-02,
          1.40359905e-02, 2.07978711e-02, 2.89487801e-02, 8.16340093e-03,
          9.60664451e-03, 1.49356555e-02, 6.07944652e-03, 2.88018137e-02,
          1.93453506e-02, 2.61401296e-01, 3.23046297e-01, 1.57575548e-01,
          1.66610360e-01, 1.38949767e-01, 1.73437521e-02, 1.05550438e-02,
          2.46617175e-03, 9.09669232e-03, 4.50691879e-02, 3.19384187e-01,
          3.71618718e-01, 3.26662302e-01, 1.54579788e-01, 8.59609842e-02,
          2.34145205e-03, 1.94771681e-03, 1.89393316e-03, 4.84563485e-02,
          2.25503266e-01, 2.40768850e-01, 2.01268867e-01, 8.97279754e-02,
          4.09046421e-04, 6.52659219e-04, 6.41274324e-04, 4.51898552e-04,
          3.36755911e-04, 7.86944060e-04, 1.20872562e-03, 4.19857875e-02,
          1.08160893e-03, 6.38503232e-04, 7.52370455e-04, 5.13723702e-04,
          5.96285681e-04, 5.23967261e-04, 6.45091699e-04, 1.15687260e-03,
          1.93042338e-01, 1.89751714e-01, 1.45620525e-01, 2.67069563e-02,
          7.88951293e-02, 1.29433513e-01, 8.25256109e-02, 1.56950131e-02,
          3.96300852e-03, 1.03700913e-01, 2.91138291e-01, 1.32884413e-01,
          6.95454422e-04, 5.89816773e-04, 5.60988206e-04, 1.12491194e-02,
          1.47780672e-01, 6.76370263e-02, 2.72372980e-02, 1.08958207e-01,
          8.79032984e-02 ]
      - [ 1.87978983e-01, 2.81480759e-01, 3.98364663e-01, 4.27393258e-01,
          3.85580271e-01, 2.62014478e-01, 1.82606503e-01, 8.54782239e-02,
          2.83555716e-01, 5.28055429e-01, 6.23449326e-01, 6.50830925e-01,
          5.74293256e-01, 3.59487534e-01, 2.65712202e-01, 1.33046329e-01,
          1.01116315e-01, 4.97976422e-01, 6.44690752e-01, 5.79289019e-01,
          4.39178735e-01, 3.03536475e-01, 2.39801899e-01, 1.24995857e-01,
          8.79908875e-02, 6.90968573e-01, 4.79749382e-01, 1.55668398e-02,
          2.38386303e-01, 1.71638906e-01, 4.09888089e-01, 2.31217772e-01,
          4.21309024e-01, 8.82989019e-02, 1.01620972e-01, 1.72640607e-02,
          8.08822215e-02, 1.52807198e-02, 4.48081456e-03, 5.48373275e-02,
          4.32073712e-01, 3.49311769e-01, 1.35798961e-01, 5.80428004e-01,
          1.44077837e-01, 2.02175766e-01, 2.76872307e-01, 1.73642680e-01,
          5.29226840e-01, 7.51415789e-01, 7.15317667e-01, 3.11784923e-01,
          1.00875415e-01, 3.49271774e-01, 2.08926708e-01, 2.82383338e-02,
          4.69057381e-01, 4.25805360e-01, 4.25884366e-01, 1.43752396e-01,
          1.55532911e-01, 1.99827597e-01, 2.67767459e-02, 2.82627922e-02,
          3.20267737e-01, 5.25009573e-01, 3.95343900e-01, 1.66710809e-01,
          3.44513059e-01, 4.29823995e-01, 2.88185120e-01, 2.51475900e-01,
          3.22748363e-01, 2.08777994e-01, 1.10604137e-01, 1.27458289e-01,
          5.43876350e-01, 3.99184823e-01, 2.01376930e-01, 7.30511397e-02,
          4.04903591e-01, 2.75428921e-01, 3.68646890e-01, 1.28122628e-01,
          2.94275522e-01 ]
      - [ 2.37157419e-02, 1.01856273e-02, 1.34261167e-02, 1.83754526e-02,
          4.98795975e-03, 6.06590416e-03, 6.70402311e-03, 5.47762774e-03,
          1.60346851e-02, 6.48665009e-03, 6.51643705e-03, 7.07427971e-03,
          1.58471987e-03, 2.07782071e-03, 1.55435735e-03, 2.37211259e-03,
          3.37381959e-02, 3.44386026e-02, 1.96510479e-02, 1.43466974e-02,
          2.62879077e-02, 4.14676726e-01, 2.98819374e-02, 6.36034063e-04,
          2.83074409e-01, 5.83339036e-01, 5.21057487e-01, 3.22598904e-01,
          8.51173475e-02, 4.91024181e-02, 1.81264244e-02, 5.56572166e-04,
          2.16571474e-03, 7.27358982e-02, 1.53238311e-01, 1.32228762e-01,
          3.47191915e-02, 1.44542055e-02, 3.96661693e-04, 1.06661420e-04,
          3.28650209e-03, 2.28580553e-03, 5.10993239e-04, 2.92598474e-04,
          1.35499686e-02, 8.30139685e-03, 2.20871344e-02, 1.90524235e-02,
          2.03881562e-02, 9.55137461e-02, 1.19390793e-01, 1.19074419e-01,
          1.04492486e-01, 7.12948591e-02, 4.82631437e-02, 2.76106745e-02,
          4.04681154e-02, 1.07392885e-01, 1.20612368e-01, 1.15666911e-01,
          1.13801450e-01, 6.52282909e-02, 4.66725491e-02, 2.32538152e-02,
          1.41056767e-02, 1.13480724e-02, 3.67910112e-03, 4.02702997e-03,
          2.33647555e-01, 2.19413549e-01, 1.43796101e-01, 1.23002417e-02,
          2.01184805e-02, 7.15676695e-02, 1.77561920e-02, 1.04107205e-02,
          6.59407228e-02, 1.18686125e-01, 8.87042731e-02, 3.64500470e-02,
          1.19628713e-01, 4.09506187e-02, 6.90782517e-02, 3.83303091e-02,
          6.69969693e-02 ]
      - [ 4.55442846e-01, 2.23077893e-01, 2.03569949e-01, 2.25377083e-01,
          2.28708848e-01, 2.11398989e-01, 1.51283562e-01, 8.86141360e-02,
          3.92644405e-01, 2.68988431e-01, 2.49087915e-01, 2.47866362e-01,
          2.31529757e-01, 1.71310186e-01, 1.09172501e-01, 2.59338856e-01,
          3.38351995e-01, 2.54377902e-01, 3.34078595e-02, 3.08923841e-01,
          3.08973253e-01, 2.00379327e-01, 6.41895533e-01, 3.95110101e-01,
          3.81374657e-01, 1.78266436e-01, 1.22535028e-01, 3.21788713e-02,
          5.15951440e-02, 1.46159813e-01, 1.93124145e-01, 1.20916471e-01,
          5.14896393e-01, 5.62455952e-01, 4.60557640e-01, 3.27083290e-01,
          1.16512835e-01, 1.12929657e-01, 1.86122328e-01, 2.29939625e-01,
          5.14571428e-01, 4.40151095e-01, 1.85247466e-01, 2.38245558e-02,
          8.33821371e-02, 3.26090790e-02, 7.11936131e-02, 2.29186401e-01,
          3.60051304e-01, 7.73664266e-02, 7.68567324e-02, 1.81156434e-02,
          1.89906042e-02, 1.91932134e-02, 1.11613488e-02, 5.32796904e-02,
          3.96354198e-02, 7.54629821e-02, 3.12901731e-03, 1.03261473e-03,
          2.80807326e-05, 1.08097829e-05, 1.60830114e-02, 1.44252488e-02,
          3.35038364e-01, 2.31475323e-01, 2.10736945e-01, 1.52102262e-01,
          2.88092762e-01, 1.24261402e-01, 1.76776886e-01, 3.37761581e-01,
          5.08018732e-01, 2.49178246e-01, 8.63584280e-02, 1.79110482e-01,
          1.38129041e-01, 2.47835014e-02, 9.55567695e-03, 2.37373244e-02,
          2.44716942e-01, 2.19344422e-01, 2.30027378e-01, 7.46904686e-02,
          1.92194805e-01 ]
      - [ 2.18621358e-01, 1.89850420e-01, 1.58873826e-01, 1.44602194e-01,
          1.34184420e-01, 1.26961946e-01, 1.16146691e-01, 7.47274011e-02,
          1.33341044e-01, 3.28717470e-01, 2.00418159e-01, 2.51307011e-01,
          2.57119268e-01, 3.10157299e-01, 9.97569114e-02, 2.38843322e-01,
          2.34909788e-01, 2.10631594e-01, 4.58630621e-01, 5.91292493e-02,
          7.97596201e-02, 1.07648015e-01, 2.12777972e-01, 1.24760337e-01,
          7.25730360e-02, 9.97477621e-02, 3.42683643e-02, 4.51171026e-02,
          1.71824798e-01, 2.47754335e-01, 2.62194455e-01, 2.02391699e-01,
          2.09432580e-02, 8.20413157e-02, 4.87749614e-02, 2.87576355e-02,
          3.58936600e-02, 1.09332219e-01, 2.20008940e-01, 2.25048214e-01,
          1.82285644e-02, 4.30082306e-02, 2.24111211e-02, 1.96676664e-02,
          1.72906257e-02, 3.32501978e-02, 9.74449739e-02, 1.18319117e-01,
          1.14212092e-03, 1.34651456e-02, 9.25966073e-03, 1.62329292e-03,
          1.46827672e-03, 6.46156631e-03, 5.85372280e-03, 3.41471769e-02,
          3.28814727e-04, 2.54471106e-05, 1.97044374e-05, 2.09713153e-06,
          2.56262370e-04, 3.36467754e-03, 1.00850696e-02, 2.64428686e-02,
          2.17632562e-01, 1.88800305e-01, 2.07105726e-01, 1.32368580e-01,
          1.54465556e-01, 1.49286330e-01, 1.51746690e-01, 2.00531110e-01,
          4.10553440e-02, 2.99028456e-02, 4.89416756e-02, 1.65205300e-01,
          3.74038215e-03, 2.72618863e-03, 2.88769579e-03, 1.91322099e-02,
          1.77546188e-01, 1.72938034e-01, 1.93561912e-02, 5.90417199e-02,
          1.07220531e-01 ]
      - [ 7.12239044e-03, 6.88220235e-03, 1.64087676e-02, 8.35986882e-02,
          4.23445879e-03, 3.32419225e-03, 7.12896232e-03, 1.62508655e-02,
          4.77628037e-03, 5.74027142e-03, 8.04263540e-03, 2.16960330e-02,
          5.02926297e-02, 5.74938720e-03, 2.58315657e-03, 4.59244847e-03,
          1.60590222e-03, 6.12766808e-03, 7.87736755e-03, 3.51944156e-02,
          8.35812613e-02, 1.79338366e-01, 2.78200880e-02, 1.07638659e-02,
          1.36156718e-03, 5.38071990e-03, 5.02662174e-03, 2.71801054e-02,
          2.09093727e-02, 1.83469057e-01, 1.61045175e-02, 3.92366108e-03,
          1.42566662e-03, 2.19389517e-03, 2.68072868e-03, 7.85882678e-03,
          5.79655776e-03, 1.40289376e-02, 3.55659485e-01, 3.22809559e-03,
          1.97414514e-02, 1.87109094e-02, 2.18236982e-03, 1.71592720e-02,
          2.19480284e-02, 9.25945863e-03, 1.01537090e-02, 4.88117104e-03,
          4.18275371e-02, 5.24532460e-02, 8.43130946e-02, 9.98444483e-02,
          9.50827748e-02, 8.70313421e-02, 5.59720621e-02, 3.54600288e-02,
          3.38493474e-02, 6.32745922e-02, 8.53554606e-02, 1.13107413e-01,
          1.04020134e-01, 9.96490419e-02, 6.69246837e-02, 5.54344542e-02,
          6.13028603e-03, 3.24365310e-02, 1.59001667e-02, 7.63885863e-03,
          3.61896446e-03, 1.88196283e-02, 1.16824515e-01, 1.46530326e-02,
          1.05179809e-02, 7.47029949e-03, 1.27582457e-02, 9.34806168e-02,
          4.78511788e-02, 9.56551060e-02, 9.64458212e-02, 5.34478091e-02,
          1.52513515e-02, 3.87541428e-02, 4.03736383e-02, 6.40331209e-02,
          3.96030620e-02 ]
      - [ 4.01003584e-02, 2.02308558e-02, 1.67112388e-02, 1.60213392e-02,
          1.59705039e-02, 1.56530049e-02, 7.99459405e-03, 5.84521284e-03,
          3.30182970e-01, 5.22094071e-01, 7.01095939e-01, 5.56305587e-01,
          1.82796299e-01, 1.97609072e-03, 4.33850015e-04, 1.20346807e-02,
          7.37179294e-02, 1.46093443e-02, 2.15462223e-01, 9.31823775e-02,
          2.51816073e-03, 2.01729010e-03, 8.76183249e-03, 2.47738361e-02,
          1.97679959e-02, 6.45438861e-03, 3.52086872e-03, 2.26298720e-03,
          2.97263055e-03, 6.27681892e-03, 1.81528984e-03, 1.41714595e-03,
          4.60783578e-02, 5.42505868e-02, 6.08428009e-03, 5.82748279e-03,
          5.55850053e-03, 4.84988606e-03, 3.13866287e-02, 5.20657264e-02,
          6.35654777e-02, 6.07664213e-02, 7.15404227e-02, 5.98144671e-03,
          1.25827594e-02, 1.06626652e-01, 8.21260735e-02, 4.40121517e-02,
          8.85145068e-02, 6.79840297e-02, 6.83387741e-02, 6.34669289e-02,
          8.82803947e-02, 9.69739556e-02, 7.68826827e-02, 7.12115467e-02,
          8.64281207e-02, 8.61839205e-02, 9.49267372e-02, 8.70843381e-02,
          7.59410188e-02, 1.09882891e-01, 7.25331903e-02, 4.12546694e-02,
          2.28152066e-01, 3.22533548e-01, 5.40989749e-02, 6.57708477e-03,
          2.86374148e-02, 7.86071122e-02, 3.44622508e-03, 9.19202529e-03,
          5.61652109e-02, 2.23584082e-02, 3.24044488e-02, 5.23976460e-02,
          8.22776407e-02, 7.84541965e-02, 9.27695632e-02, 6.54705241e-02,
          1.64482534e-01, 1.83285791e-02, 5.98138645e-02, 6.07605428e-02,
          7.58463740e-02 ]
      - [ 1.96119063e-02, 1.05040828e-02, 7.24408869e-03, 3.21574450e-01,
          2.62173533e-01, 9.52192768e-02, 2.02952504e-01, 1.69415846e-01,
          2.25103870e-02, 1.86838564e-02, 2.76100077e-02, 1.14275683e-02,
          9.39030852e-03, 3.98717523e-02, 2.62515694e-01, 1.97482005e-01,
          3.34769860e-02, 4.13637087e-02, 1.07364217e-02, 1.43267021e-01,
          2.65682843e-02, 1.69427767e-02, 2.18975358e-02, 9.44731608e-02,
          1.96559370e-01, 9.65784937e-02, 1.66376561e-01, 6.32019877e-01,
          6.45628050e-02, 8.20579194e-03, 7.29796290e-03, 1.22725768e-02,
          3.06405306e-01, 3.23755413e-01, 4.63173278e-02, 7.38955140e-01,
          3.91045839e-01, 1.28722358e-02, 1.85408331e-02, 1.28413029e-02,
          3.59516621e-01, 2.82816827e-01, 2.43668243e-01, 3.63001853e-01,
          1.65384561e-01, 1.67347193e-02, 1.73829570e-02, 6.17849082e-03,
          2.47999862e-01, 3.01162392e-01, 3.31833392e-01, 7.50233054e-01,
          6.75649285e-01, 8.25639665e-02, 2.35949233e-02, 1.33134844e-02,
          2.20840022e-01, 2.56755888e-01, 3.23879004e-01, 3.05682987e-01,
          5.60167909e-01, 4.95673746e-01, 1.06818348e-01, 1.17873065e-02,
          1.78275574e-02, 9.19640288e-02, 1.01663716e-01, 2.08091497e-01,
          9.19946432e-02, 2.38099962e-01, 2.90699154e-02, 3.39853093e-02,
          3.18123519e-01, 3.47985625e-01, 1.46509349e-01, 1.37358960e-02,
          2.56689548e-01, 4.27907109e-01, 4.53513741e-01, 3.88785154e-02,
          1.09971546e-01, 9.32026058e-02, 3.37676466e-01, 1.63159370e-01,
          1.76002502e-01 ]
      - [ 2.82377191e-03, 9.59481671e-03, 3.60586215e-03, 6.02776418e-03,
          2.38614623e-03, 2.81716269e-02, 1.18715568e-02, 8.28420296e-02,
          2.47934945e-02, 4.02042791e-02, 2.37335302e-02, 2.05787309e-02,
          2.85909735e-02, 8.12953860e-02, 1.03512101e-01, 8.41694549e-02,
          6.98225126e-02, 7.14407489e-02, 9.94413942e-02, 9.91171300e-02,
          1.23874106e-01, 1.42426297e-01, 1.90610871e-01, 1.23751655e-01,
          1.58181459e-01, 1.86243325e-01, 1.66749418e-01, 1.97152257e-01,
          1.57839403e-01, 1.73297778e-01, 2.32358411e-01, 2.12890059e-01,
          2.23118097e-01, 1.75262451e-01, 1.53071836e-01, 2.45654225e-01,
          1.79353103e-01, 1.22917838e-01, 2.05363125e-01, 1.91282287e-01,
          2.09066302e-01, 2.08155856e-01, 1.82073593e-01, 2.53848970e-01,
          2.35633954e-01, 1.60954893e-01, 1.85443893e-01, 2.01916635e-01,
          1.84132740e-01, 2.05745578e-01, 1.90872937e-01, 1.94549963e-01,
          2.03064188e-01, 1.54729173e-01, 1.59960672e-01, 1.40719891e-01,
          1.45575270e-01, 1.58590838e-01, 1.56488195e-01, 1.32640645e-01,
          1.10676184e-01, 1.17171973e-01, 1.08404309e-01, 9.47795063e-02,
          1.93540901e-02, 1.34864720e-02, 3.51110324e-02, 7.05987811e-02,
          1.21422015e-01, 1.40615046e-01, 1.49359390e-01, 1.89902753e-01,
          2.03900680e-01, 2.08662152e-01, 1.74714953e-01, 1.96001485e-01,
          1.73511118e-01, 1.68637931e-01, 1.46410376e-01, 1.25966102e-01,
          7.37194046e-02, 1.11242987e-01, 1.88677981e-01, 1.60773218e-01,
          1.33603394e-01 ]
      - [ 8.16239603e-03, 6.51564030e-03, 5.42628346e-03, 8.12706538e-03,
          6.98987674e-03, 2.10918754e-01, 2.63315439e-01, 3.27853799e-01,
          1.31924860e-02, 7.19534839e-03, 5.41163422e-03, 6.21339353e-03,
          6.37370953e-03, 1.16458945e-01, 6.47879243e-01, 4.60478514e-02,
          2.40424536e-02, 1.59683730e-02, 1.32296598e-02, 4.93649673e-03,
          2.48970580e-03, 2.73386412e-03, 5.91350675e-01, 1.14589669e-02,
          2.33046170e-02, 1.88628118e-02, 1.90948658e-02, 1.07912542e-02,
          4.26298659e-03, 2.23387009e-03, 5.23174226e-01, 7.75810704e-02,
          2.44170334e-02, 1.92498527e-02, 2.08174884e-02, 4.96675819e-03,
          7.61143584e-03, 2.31316790e-01, 4.16188627e-01, 4.06939209e-01,
          2.30921358e-02, 1.81428902e-02, 2.32339688e-02, 2.12513078e-02,
          7.87429512e-03, 1.66070350e-02, 3.40900198e-02, 1.90776661e-02,
          2.24000886e-02, 2.56168190e-02, 1.87676214e-02, 1.58329997e-02,
          1.55826602e-02, 1.80897675e-02, 2.06049997e-02, 1.06254471e-02,
          2.25971714e-02, 2.51835976e-02, 2.49561053e-02, 1.79068577e-02,
          1.65981259e-02, 1.35766566e-02, 8.86380766e-03, 1.11379530e-02,
          8.76646768e-03, 6.29459415e-03, 8.51853192e-02, 3.21274072e-01,
          2.05445644e-02, 1.20130694e-02, 2.93010660e-03, 3.00891250e-01,
          2.12254785e-02, 1.75673813e-02, 6.58523887e-02, 2.19073892e-01,
          2.39494182e-02, 1.93658974e-02, 1.59618035e-02, 1.28080510e-02,
          1.19046737e-02, 1.77570194e-01, 2.05270443e-02, 7.84240365e-02,
          7.21064880e-02 ]
      - [ 7.09243596e-01, 6.75527930e-01, 7.63990283e-01, 2.31054693e-01,
          5.05387843e-01, 5.45735955e-01, 4.19042796e-01, 4.36680734e-01,
          4.30436134e-01, 4.93131816e-01, 3.12521696e-01, 5.44930808e-02,
          1.15546271e-01, 2.61662245e-01, 8.73546153e-02, 3.67556214e-02,
          3.12652022e-01, 3.11184376e-01, 2.95150936e-01, 2.98756920e-02,
          1.40960254e-02, 3.75896692e-01, 2.78043374e-02, 5.26142865e-03,
          5.31212389e-02, 2.92636901e-02, 2.85115577e-02, 1.00305252e-01,
          1.32146478e-01, 5.90812191e-02, 5.61674405e-03, 4.31594551e-02,
          4.85192984e-03, 4.07157466e-03, 4.98780832e-02, 3.06691620e-02,
          9.53765213e-02, 1.79477245e-01, 6.12095324e-03, 2.26593688e-02,
          3.29612475e-03, 4.61733993e-03, 5.07764407e-02, 4.40519527e-02,
          2.58127376e-02, 4.37694676e-02, 1.47634447e-02, 5.44217005e-02,
          2.63784174e-02, 4.26950231e-02, 3.89988199e-02, 1.97075546e-01,
          1.31237209e-02, 1.66125178e-01, 1.13224715e-01, 5.07236943e-02,
          4.91842106e-02, 7.46248513e-02, 6.43273592e-02, 1.42625391e-01,
          1.11837104e-01, 1.11695677e-01, 6.65157139e-02, 6.48063347e-02,
          5.77084899e-01, 3.40514928e-01, 3.57083082e-01, 2.44958431e-01,
          1.76555321e-01, 1.13460861e-01, 1.45305097e-01, 2.04604901e-02,
          4.20924230e-03, 4.38439101e-02, 8.61089975e-02, 2.44913660e-02,
          4.82206270e-02, 1.10756777e-01, 1.00695424e-01, 7.38176182e-02,
          3.01903993e-01, 1.91951767e-01, 5.17576411e-02, 7.12783486e-02,
          1.54222935e-01 ]
      - [ 6.17334992e-02, 5.20020053e-02, 3.02309375e-02, 1.43344969e-01,
          3.77853721e-01, 1.77546725e-01, 2.19322089e-02, 1.10863606e-02,
          7.00162053e-02, 3.49978842e-02, 2.50153486e-02, 1.36051267e-01,
          3.35976213e-01, 3.93283144e-02, 4.09621838e-03, 4.19305190e-02,
          1.59519985e-01, 1.62474111e-01, 7.16723353e-02, 1.36225849e-01,
          5.97792789e-02, 3.96687239e-02, 1.04431631e-02, 1.19259888e-02,
          3.63850109e-02, 5.46343103e-02, 6.87909797e-02, 1.68430522e-01,
          2.09198549e-01, 4.13546246e-03, 7.66785536e-03, 2.12801136e-02,
          6.82723671e-02, 1.10837817e-01, 2.80889142e-02, 2.27821842e-01,
          9.83054712e-02, 2.42581218e-02, 1.56969316e-02, 5.66277727e-02,
          9.31953415e-02, 9.53621715e-02, 1.51935322e-02, 1.81139052e-01,
          1.35175332e-01, 8.41592327e-02, 1.14211440e-01, 9.12833884e-02,
          1.82394221e-01, 1.69389933e-01, 1.55940084e-02, 1.85598545e-02,
          1.69492409e-01, 1.34348214e-01, 9.62906182e-02, 4.77522537e-02,
          1.18364617e-01, 1.22081786e-01, 1.15217835e-01, 1.08191349e-01,
          1.07416309e-01, 7.48815686e-02, 5.95141463e-02, 6.75920472e-02,
          5.46873957e-02, 8.36606324e-02, 2.32676238e-01, 1.97613277e-02,
          1.03253350e-01, 1.11279920e-01, 7.81955048e-02, 1.28292805e-02,
          9.19169188e-02, 1.13060832e-01, 8.54745358e-02, 6.94548860e-02,
          1.48057640e-01, 6.43907636e-02, 1.21534631e-01, 6.77872673e-02,
          8.82203281e-02, 8.58655870e-02, 1.04356542e-01, 8.60628262e-02,
          9.11263153e-02 ]
      - [ 2.45647244e-02, 5.25124371e-02, 1.89732641e-01, 1.77503914e-01,
          2.42671818e-01, 1.52580291e-01, 2.10664421e-02, 1.19104730e-02,
          5.25012970e-01, 2.54485369e-01, 4.07576144e-01, 9.59307924e-02,
          1.17487840e-01, 2.79170334e-01, 2.38164276e-01, 7.51180500e-02,
          6.51078522e-01, 5.57443500e-01, 5.52792788e-01, 6.37726247e-01,
          1.21198192e-01, 2.03168690e-02, 4.23588783e-01, 2.63175189e-01,
          8.45904708e-01, 5.88413298e-01, 6.73391342e-01, 3.95149946e-01,
          3.36350977e-01, 1.00444064e-01, 9.08932090e-02, 2.06182599e-01,
          5.49538016e-01, 2.21024215e-01, 5.04763365e-01, 3.74161601e-01,
          9.23781171e-02, 9.29671228e-02, 2.46799648e-01, 2.06717193e-01,
          3.74033093e-01, 5.46238780e-01, 6.36796713e-01, 6.67518795e-01,
          2.26405740e-01, 5.07259488e-01, 3.42560232e-01, 2.35401496e-01,
          7.78591156e-01, 4.55764890e-01, 8.47018838e-01, 8.01489234e-01,
          8.48070085e-01, 2.99930871e-01, 4.07345355e-01, 4.58452463e-01,
          4.26126301e-01, 4.47640091e-01, 9.29956585e-02, 2.94209793e-02,
          5.56768030e-02, 1.90433227e-02, 1.22020721e-01, 6.29631132e-02,
          2.14143872e-01, 2.17685878e-01, 1.97977573e-01, 8.65648091e-02,
          6.60709977e-01, 5.64765096e-01, 1.44577533e-01, 2.45959952e-01,
          4.22708541e-01, 5.45810103e-01, 2.29752615e-01, 2.57869631e-01,
          5.27030647e-01, 4.42731172e-01, 3.05680275e-01, 2.62695402e-01,
          4.14326221e-01, 1.68769971e-01, 4.84570086e-01, 2.63999492e-01,
          3.32916439e-01 ]
      - [ 1.40656829e-01, 1.18431769e-01, 1.28715321e-01, 2.15337187e-01,
          2.24428236e-01, 2.11912140e-01, 2.19045430e-01, 1.75400555e-01,
          3.58201265e-01, 1.06166348e-01, 1.06761254e-01, 1.12849660e-01,
          8.40023905e-02, 1.17039971e-01, 2.65668005e-01, 2.21657529e-01,
          2.93601096e-01, 3.64985734e-01, 4.46305752e-01, 8.41822505e-01,
          8.65172088e-01, 3.02089900e-01, 3.53051633e-01, 3.03794205e-01,
          7.62838840e-01, 7.37686992e-01, 1.92907497e-01, 4.43247676e-01,
          5.11274815e-01, 3.73535812e-01, 3.64469230e-01, 3.01171064e-01,
          3.17342758e-01, 1.86220080e-01, 9.03653026e-01, 6.45327210e-01,
          4.20090616e-01, 6.26229346e-01, 5.16673028e-01, 2.09395111e-01,
          6.18642390e-01, 3.91775489e-01, 7.48290598e-01, 1.61319792e-01,
          3.12287658e-01, 3.60215932e-01, 2.54221976e-01, 3.99246067e-01,
          1.61034651e-02, 1.51976561e-02, 7.91902691e-02, 1.81038707e-01,
          3.13527107e-01, 2.15382099e-01, 1.95734859e-01, 1.32869363e-01,
          1.98982526e-02, 5.09451479e-02, 6.08794838e-02, 4.35256548e-02,
          1.63342692e-02, 2.58856490e-02, 4.35131788e-02, 3.78348865e-02,
          1.80864066e-01, 1.40915856e-01, 1.59345686e-01, 2.20442876e-01,
          5.39778173e-01, 4.81070846e-01, 5.13018131e-01, 3.30621541e-01,
          3.78495187e-01, 6.14647627e-01, 4.29705888e-01, 3.44884038e-01,
          2.55361311e-02, 9.11585316e-02, 1.42782286e-01, 1.02488071e-01,
          3.35657239e-01, 3.05857062e-01, 2.77459383e-01, 2.54965067e-01,
          2.93484688e-01 ]
      - [ 2.77021676e-02, 2.81197727e-02, 1.00183152e-02, 1.81438643e-02,
          1.63986422e-02, 9.32830852e-03, 7.65835517e-04, 2.30282734e-04,
          1.58224721e-02, 1.02613028e-02, 1.07338000e-02, 3.36992089e-03,
          6.80197682e-03, 1.16841951e-02, 3.81178892e-04, 3.63179483e-04,
          1.96261797e-02, 1.57130975e-02, 1.38327563e-02, 1.14394994e-02,
          6.17796229e-03, 8.21288861e-03, 2.71327183e-10, 1.48066436e-04,
          1.36168413e-02, 2.11395510e-02, 6.53313752e-03, 1.29269874e-02,
          1.05844317e-02, 1.16473455e-02, 2.52468325e-02, 8.34118924e-04,
          6.23025835e-01, 4.91381735e-01, 1.16136745e-01, 3.09289657e-02,
          4.97217253e-02, 2.26642471e-02, 2.03741044e-02, 2.13919088e-01,
          9.42118466e-01, 4.65202093e-01, 3.22393179e-01, 3.34127814e-01,
          1.70195639e-01, 2.62806341e-02, 3.24838579e-01, 2.25660011e-01,
          7.97414303e-01, 7.07263291e-01, 4.82673287e-01, 4.32112992e-01,
          2.66758919e-01, 2.92086005e-01, 3.66279572e-01, 1.94313407e-01,
          8.98077965e-01, 5.63269019e-01, 3.15654516e-01, 3.81904781e-01,
          4.32061076e-01, 1.75598100e-01, 3.15759480e-01, 1.06130175e-01,
          2.04764288e-02, 1.05664749e-02, 1.10532809e-02, 4.35119175e-04,
          1.75239183e-02, 1.11830952e-02, 9.15565714e-03, 6.55725459e-03,
          6.30432010e-01, 2.00896680e-01, 6.72155619e-02, 1.96197942e-01,
          7.41506100e-01, 4.03086424e-01, 2.91626036e-01, 2.45620668e-01,
          1.49374790e-02, 6.80032792e-03, 4.93980289e-01, 2.00165048e-01,
          1.78970784e-01 ]
      - [ 1.08877327e-02, 9.28820856e-03, 5.06834360e-03, 8.35504790e-04,
          3.16159130e-04, 2.40723998e-03, 4.84097609e-03, 1.16864927e-02,
          4.27707285e-03, 3.59278615e-03, 1.37121230e-03, 3.13995313e-03,
          2.45020352e-02, 6.05380982e-02, 1.43674448e-01, 1.88386869e-02,
          2.91621848e-03, 7.05863675e-03, 1.62686463e-02, 3.07976976e-02,
          7.45860264e-02, 1.67858973e-01, 2.37961322e-01, 2.87392009e-02,
          1.26995951e-01, 2.79164195e-01, 5.10123253e-01, 6.32472038e-01,
          8.29578638e-01, 7.84482777e-01, 2.31309280e-01, 3.56787562e-01,
          8.68468955e-02, 6.80208132e-02, 2.07013376e-02, 2.75063217e-02,
          5.76722845e-02, 8.30391124e-02, 2.05105945e-01, 1.15604267e-01,
          3.56178015e-01, 3.35933000e-01, 5.70080392e-02, 9.09390450e-02,
          9.26477835e-02, 7.89841935e-02, 1.41838267e-01, 1.69767007e-01,
          2.06043869e-01, 3.25155020e-01, 3.28087717e-01, 2.86320657e-01,
          7.46719465e-02, 6.94716498e-02, 6.51018545e-02, 1.58271104e-01,
          5.55911362e-02, 1.85014829e-01, 2.06242844e-01, 1.81554064e-01,
          4.38678823e-02, 9.07067806e-02, 8.80461633e-02, 6.32025748e-02,
          7.01144990e-03, 2.60375347e-03, 2.19408832e-02, 4.47601527e-02,
          1.04033753e-01, 2.97415406e-01, 4.64126587e-01, 2.13699341e-01,
          2.11744666e-01, 4.90386859e-02, 7.80858472e-02, 1.58078879e-01,
          1.92951202e-01, 2.50551313e-01, 6.96795657e-02, 9.36554223e-02,
          1.02766089e-01, 1.86131746e-01, 1.76071465e-01, 9.98749286e-02,
          1.41211063e-01 ]
      - [ 1.47509417e-02, 1.96553078e-02, 2.23709628e-01, 4.30782884e-01,
          2.64296651e-01, 1.33452058e-01, 1.09023795e-01, 1.49607614e-01,
          7.01536611e-02, 7.58386180e-02, 1.81852192e-01, 1.86558217e-01,
          2.31000349e-01, 1.66261509e-01, 1.28672048e-01, 1.03709929e-01,
          8.65293145e-02, 6.92680553e-02, 8.38220865e-02, 9.47165787e-02,
          1.19947217e-01, 1.84215620e-01, 1.61251217e-01, 1.24993496e-01,
          7.23758563e-02, 9.97896567e-02, 7.48212412e-02, 7.37623572e-02,
          5.52259013e-02, 2.07612589e-01, 1.58991739e-01, 1.27140209e-01,
          3.82352471e-02, 7.03382418e-02, 3.89532484e-02, 1.39832452e-01,
          1.11011997e-01, 1.67565987e-01, 1.95203722e-01, 1.45711109e-01,
          2.36755729e-01, 9.06732157e-02, 1.01271711e-01, 6.63796812e-02,
          6.34878650e-02, 5.46789020e-02, 3.71025987e-02, 1.48887187e-01,
          1.11948036e-01, 5.64570501e-02, 5.12774698e-02, 9.29505900e-02,
          7.90871158e-02, 6.43493831e-02, 4.35460433e-02, 4.45501991e-02,
          7.28548467e-02, 5.63849695e-02, 6.32893443e-02, 7.74702430e-02,
          8.96600708e-02, 6.98477030e-02, 3.80347520e-02, 3.60395871e-02,
          4.50996310e-02, 2.55725741e-01, 1.98752642e-01, 1.22753352e-01,
          8.19907188e-02, 8.17805678e-02, 1.41750336e-01, 1.43094167e-01,
          1.09000608e-01, 8.66092741e-02, 9.91861820e-02, 1.31726161e-01,
          7.44112283e-02, 7.12469071e-02, 7.57360682e-02, 4.05426472e-02,
          1.16149157e-01, 1.51587620e-01, 8.53170007e-02, 8.67977589e-02,
          1.09962896e-01 ]
      - [ 2.98242688e-01, 4.88534927e-01, 4.35587823e-01, 3.88829291e-01,
          3.34830046e-01, 2.88468122e-01, 2.26184472e-01, 1.76323757e-01,
          3.36570561e-01, 4.47340339e-01, 4.89868909e-01, 3.60286772e-01,
          2.51686931e-01, 2.14312732e-01, 1.65489912e-01, 1.42115250e-01,
          9.01695341e-02, 2.88969070e-01, 4.45795923e-01, 5.24996631e-02,
          1.64999887e-01, 1.92958593e-01, 1.14707820e-01, 1.03904940e-01,
          6.64619505e-02, 3.65973823e-02, 4.00137484e-01, 3.04141473e-02,
          1.37384742e-01, 1.34695038e-01, 1.18187368e-01, 1.00772001e-01,
          8.47908631e-02, 1.99600279e-01, 1.49202242e-01, 7.04930276e-02,
          1.29244804e-01, 1.40776917e-01, 1.20957822e-01, 8.93375799e-02,
          1.85191333e-01, 1.56473860e-01, 1.30315214e-01, 1.22767195e-01,
          9.98903736e-02, 1.33657083e-01, 1.08202778e-01, 5.98726459e-02,
          1.14446998e-01, 1.10028028e-01, 9.24875215e-02, 5.81129938e-02,
          4.80315760e-02, 3.11805420e-02, 1.70600787e-02, 7.49978144e-03,
          6.80704415e-02, 6.10253960e-02, 4.41449881e-02, 3.60074192e-02,
          2.86944490e-02, 1.72008686e-02, 9.34595708e-03, 3.34150088e-03,
          3.92672151e-01, 4.18643177e-01, 2.72324443e-01, 1.77528352e-01,
          1.20549478e-01, 2.32211813e-01, 1.57509565e-01, 1.09393030e-01,
          1.56514078e-01, 1.18194416e-01, 1.25892296e-01, 9.45927128e-02,
          8.83927196e-02, 5.76882325e-02, 3.12768593e-02, 9.31182876e-03,
          2.91019142e-01, 1.79188848e-01, 1.05197370e-01, 6.52684197e-02,
          1.60168439e-01 ]
      - [ 3.80312987e-02, 1.95399195e-01, 3.04257005e-01, 3.43514323e-01,
          1.13118820e-01, 1.12547405e-01, 1.19443141e-01, 1.10008307e-01,
          3.22170854e-02, 1.25638843e-01, 2.68662065e-01, 2.66306430e-01,
          2.49491706e-01, 2.10255429e-01, 1.81721747e-01, 1.47084624e-01,
          8.77521466e-03, 7.67705962e-02, 1.03231318e-01, 1.16616234e-01,
          2.81160772e-01, 2.08421141e-01, 1.71317235e-01, 1.12250187e-01,
          3.49170305e-02, 4.27255556e-02, 4.19151969e-02, 7.18332082e-02,
          4.98458594e-02, 1.48486748e-01, 1.00459613e-01, 3.93650644e-02,
          4.54245089e-03, 1.69635434e-02, 3.42250131e-02, 2.95891874e-02,
          3.62454653e-02, 4.03269790e-02, 5.02112582e-02, 1.47822529e-01,
          5.82909351e-03, 7.24938279e-03, 2.86030099e-02, 1.35443099e-02,
          5.79557009e-03, 2.38555260e-02, 5.11651114e-03, 5.60967997e-03,
          1.17114652e-02, 2.31081378e-02, 1.55644566e-02, 1.26875425e-02,
          8.44646432e-03, 4.96644154e-03, 4.87372605e-03, 3.51434760e-02,
          2.03330088e-02, 1.62142869e-02, 2.07653828e-02, 1.87147316e-02,
          1.16534783e-02, 4.82565500e-02, 1.73905473e-02, 2.99422983e-02,
          9.78216082e-02, 2.95684963e-01, 1.71353340e-01, 1.39564455e-01,
          4.07970995e-02, 8.33989978e-02, 1.71978623e-01, 1.05848022e-01,
          8.64611752e-03, 2.64903791e-02, 2.65558846e-02, 5.21899909e-02,
          1.78417247e-02, 1.69330277e-02, 1.83307342e-02, 2.18375120e-02,
          1.29425675e-01, 1.47186115e-01, 1.74778141e-02, 2.97285300e-02,
          8.09545368e-02 ]
      - [ 3.05370754e-03, 5.11592925e-02, 1.02637209e-01, 1.07486323e-01,
          1.24647930e-01, 1.11619309e-01, 7.52608776e-02, 2.27720402e-02,
          2.19708718e-02, 3.93326581e-02, 1.13509260e-02, 2.59545669e-02,
          6.57613128e-02, 9.59178805e-02, 7.53441304e-02, 6.85625803e-03,
          1.44995213e-03, 9.54837538e-03, 4.89703082e-02, 9.28513408e-02,
          1.32411063e-01, 5.07000042e-03, 1.53247584e-02, 7.13706687e-02,
          1.65480927e-01, 3.03686112e-02, 1.03485286e-01, 3.77365172e-01,
          8.80975649e-03, 9.37313065e-02, 1.48383260e-01, 2.51669824e-01,
          2.27544367e-01, 1.83731675e-01, 5.47597371e-02, 3.72142553e-01,
          7.80188382e-01, 9.90490675e-01, 8.91067922e-01, 1.51717544e-01,
          1.33209795e-01, 1.55219018e-01, 3.47017497e-02, 5.42113334e-02,
          5.29197603e-03, 7.36507308e-03, 1.01109296e-01, 5.52068762e-02,
          9.46174958e-04, 3.95965902e-03, 2.51012016e-03, 1.08405501e-01,
          1.54842079e-01, 1.74523383e-01, 1.81949750e-01, 2.81735659e-01,
          9.50007141e-03, 5.14091551e-03, 1.21767689e-02, 2.08567083e-03,
          1.46990627e-01, 6.36476427e-02, 2.69537419e-01, 2.73998767e-01,
          2.88791321e-02, 6.18572608e-02, 9.94866043e-02, 4.50583287e-02,
          5.17119654e-02, 1.55668020e-01, 6.00055307e-02, 1.21687129e-01,
          1.74926206e-01, 1.28953844e-01, 4.45834011e-01, 2.99775392e-01,
          4.88670543e-03, 3.12945172e-02, 1.35000929e-01, 2.51805395e-01,
          7.45290965e-02, 8.15593973e-02, 8.50153193e-02, 2.83103943e-01,
          1.31051943e-01 ]
      - [ 1.98487565e-02, 6.22108467e-02, 2.76375450e-02, 3.80376786e-01,
          1.12257585e-01, 3.20891708e-01, 9.84264612e-02, 2.03643693e-03,
          1.65435821e-02, 2.73520648e-02, 4.72031564e-01, 7.88279831e-01,
          9.71930753e-03, 9.30608995e-03, 4.81036166e-03, 3.26396450e-02,
          3.99833545e-02, 3.91647629e-02, 1.84035227e-02, 4.74860370e-02,
          5.76576078e-03, 4.99588437e-02, 1.06190192e-02, 6.65003061e-02,
          2.41861511e-02, 5.23596257e-02, 5.08378483e-02, 7.19895363e-02,
          2.55566388e-02, 6.08657189e-02, 7.51535445e-02, 5.87300919e-02,
          7.44094327e-02, 8.42905641e-02, 3.38290296e-02, 4.97389212e-02,
          8.40698257e-02, 1.15740798e-01, 5.33212461e-02, 9.05481651e-02,
          3.70998569e-02, 7.57289603e-02, 2.38310024e-02, 1.33861929e-01,
          9.42777321e-02, 7.94323981e-02, 9.58268046e-02, 9.23639685e-02,
          2.23067719e-02, 4.90621701e-02, 8.37806687e-02, 7.85914287e-02,
          4.91090938e-02, 4.41033952e-02, 3.06611806e-02, 2.57723052e-02,
          4.64513386e-03, 3.73786613e-02, 2.19039880e-02, 1.53562101e-02,
          3.23038697e-02, 2.07969323e-02, 3.35505158e-02, 1.11167673e-02,
          3.14888135e-02, 4.17081416e-01, 1.13043673e-01, 3.44782248e-02,
          3.89234722e-02, 4.71792370e-02, 3.55367400e-02, 5.27507439e-02,
          6.78822026e-02, 6.03152215e-02, 9.33801904e-02, 8.30150470e-02,
          2.83481833e-02, 4.99080755e-02, 3.65783200e-02, 2.52751913e-02,
          1.33668229e-01, 5.89523464e-02, 5.16134202e-02, 5.95621876e-02,
          7.59490430e-02 ]
      - [ 2.36517906e-01, 2.60375947e-01, 2.17690527e-01, 1.82051644e-01,
          1.34813190e-01, 9.59186703e-02, 1.04490735e-01, 9.47772190e-02,
          8.22079182e-01, 8.50680888e-01, 7.29740500e-01, 1.29192714e-02,
          5.82711458e-01, 4.28057313e-01, 5.23814082e-01, 3.87146801e-01,
          3.47937137e-01, 3.42847973e-01, 9.03876200e-02, 1.04998901e-01,
          8.34806077e-03, 2.08774842e-02, 1.11720726e-01, 2.49985814e-01,
          5.74456677e-02, 1.73265949e-01, 5.07802963e-01, 4.53356117e-01,
          1.78581715e-01, 1.83701292e-01, 1.66274711e-01, 1.74130708e-01,
          6.66794628e-02, 5.00521883e-02, 1.24533534e-01, 7.15671405e-02,
          2.67985184e-03, 1.17205083e-01, 9.16254893e-02, 7.09918737e-02,
          1.99161857e-01, 2.44861454e-01, 2.28204533e-01, 1.00270912e-01,
          8.27446654e-02, 1.12842768e-01, 2.12493584e-01, 7.38833025e-02,
          1.81915209e-01, 1.53945297e-01, 3.71141553e-01, 1.95044130e-01,
          2.27340207e-01, 3.58955055e-01, 1.17262095e-01, 1.60005331e-01,
          8.14469606e-02, 5.95006309e-02, 2.07719177e-01, 2.80772030e-01,
          2.66672999e-01, 2.74222314e-01, 1.24503553e-01, 9.88833681e-02,
          5.42413473e-01, 2.85600513e-01, 3.10375154e-01, 2.77557224e-01,
          2.30374172e-01, 2.89136410e-01, 9.78771374e-02, 1.75527990e-01,
          1.40188739e-01, 1.31144032e-01, 7.88680911e-02, 1.12248555e-01,
          1.19202018e-01, 2.63669252e-01, 2.81797647e-01, 1.25163585e-01,
          3.36881161e-01, 2.15334371e-01, 1.63551003e-01, 1.49519473e-01,
          2.16321498e-01 ]
      - [ 7.59664131e-03, 1.32383918e-02, 1.40317790e-02, 8.93027484e-02,
          6.01531327e-01, 7.53556669e-01, 6.95347846e-01, 6.04466677e-01,
          4.29581106e-02, 7.33542908e-03, 8.29496142e-03, 3.01088784e-02,
          6.66884035e-02, 2.06230849e-01, 2.60457098e-01, 4.13805068e-01,
          5.95193803e-01, 5.45279145e-01, 4.02099401e-01, 3.07485849e-01,
          9.47701633e-02, 2.99682528e-01, 2.80661881e-01, 2.14807227e-01,
          1.20854326e-01, 5.87190241e-02, 2.74433881e-01, 1.91926658e-01,
          1.17451169e-01, 8.91440958e-02, 2.43446678e-01, 1.68987796e-01,
          1.06054042e-02, 5.27722295e-03, 5.90319149e-02, 7.72964507e-02,
          4.49581407e-02, 6.84498623e-02, 8.22437704e-02, 4.21590768e-02,
          1.41381413e-01, 6.70964494e-02, 5.70538491e-02, 8.84600654e-02,
          7.18843937e-02, 9.01218057e-02, 1.32588804e-01, 4.73475531e-02,
          1.51469305e-01, 1.06334820e-01, 9.80588347e-02, 5.85085899e-02,
          7.46798813e-02, 7.11573884e-02, 1.03061363e-01, 8.81108716e-02,
          1.40278324e-01, 1.35033637e-01, 1.17770113e-01, 1.29528359e-01,
          4.50370461e-02, 1.78023264e-01, 1.08394749e-01, 1.07716747e-01,
          1.77821442e-02, 3.54345925e-02, 4.07001823e-01, 4.93519127e-01,
          3.30011576e-01, 2.93986440e-01, 1.50261998e-01, 2.26975903e-01,
          5.60901240e-02, 7.04605728e-02, 6.88535497e-02, 7.60848001e-02,
          1.33279026e-01, 1.00966468e-01, 9.22243968e-02, 1.01820931e-01,
          1.69303685e-01, 3.19439709e-01, 9.01990533e-02, 8.47459137e-02,
          1.65922076e-01 ]
      - [ 5.20454288e-01, 6.32697344e-01, 8.28269601e-01, 8.99919271e-01,
          9.17818189e-01, 9.03091192e-01, 8.53199005e-01, 7.70587564e-01,
          5.29791534e-01, 6.25875592e-01, 8.34482312e-01, 9.59093809e-01,
          9.85493839e-01, 9.61551905e-01, 9.30150270e-01, 8.53254735e-01,
          1.70775592e-01, 2.95503318e-01, 2.92622417e-01, 3.37214589e-01,
          3.99937928e-01, 9.23952937e-01, 9.50467587e-01, 8.76134098e-01,
          8.99558607e-03, 3.91854951e-03, 5.69773698e-03, 5.83006553e-02,
          3.83288525e-02, 3.09119821e-02, 1.45875692e-01, 4.14287806e-01,
          4.82536927e-02, 5.04498780e-02, 5.55058643e-02, 3.41173932e-02,
          5.88724092e-02, 2.48433053e-02, 2.27987226e-02, 1.12995580e-02,
          5.22620454e-02, 6.22781254e-02, 6.83037192e-02, 6.56507835e-02,
          6.60544336e-02, 7.49444738e-02, 6.16711751e-02, 4.69801351e-02,
          4.08404842e-02, 5.19155227e-02, 5.63289076e-02, 6.00477904e-02,
          6.58598840e-02, 6.39261752e-02, 5.73123880e-02, 4.59159389e-02,
          2.06249394e-02, 3.19535621e-02, 3.81318294e-02, 4.37750667e-02,
          4.64600623e-02, 4.48902696e-02, 3.85221019e-02, 3.04773003e-02,
          5.77204704e-01, 8.80441248e-01, 9.41988766e-01, 8.51797938e-01,
          1.19798265e-01, 1.73458859e-01, 3.48282933e-01, 5.96691310e-01,
          5.33109345e-02, 5.58944419e-02, 5.61786518e-02, 3.56873982e-02,
          3.63336243e-02, 4.95708995e-02, 5.52840978e-02, 4.30569313e-02,
          4.37725753e-01, 6.84690297e-01, 4.87774760e-02, 4.75517698e-02,
          3.04686308e-01 ]
      - [ 1.52135761e-02, 1.20854080e-02, 5.99788651e-02, 3.98064442e-02,
          4.11950946e-02, 7.71290362e-02, 1.14402361e-02, 7.09797293e-02,
          7.75191411e-02, 5.26257008e-02, 3.95879932e-02, 8.39329287e-02,
          7.19535351e-02, 1.09339990e-01, 1.45975113e-01, 1.66641727e-01,
          3.30834329e-01, 4.35566485e-01, 4.33179319e-01, 7.98533857e-02,
          1.14463352e-01, 2.41508167e-02, 4.54041176e-02, 1.31391495e-01,
          1.47015959e-01, 1.70168266e-01, 2.11199984e-01, 2.97564596e-01,
          3.22122693e-01, 3.23118031e-01, 1.07087404e-01, 1.96748357e-02,
          1.70334359e-03, 3.10341385e-03, 9.87756625e-03, 2.64796503e-02,
          4.06719334e-02, 7.89696127e-02, 1.40334189e-01, 1.72153458e-01,
          2.62883194e-02, 1.83189690e-01, 1.96248844e-01, 1.77713960e-01,
          2.41825998e-01, 8.64528236e-04, 2.45131087e-03, 2.64400281e-02,
          4.56612110e-02, 1.46202862e-01, 1.70428663e-01, 1.81266308e-01,
          1.67500362e-01, 3.84332752e-03, 8.30641249e-04, 1.88888036e-04,
          4.29132581e-02, 4.36242111e-02, 3.21682617e-02, 3.20098959e-02,
          2.51011606e-02, 1.06751891e-02, 3.57908220e-03, 1.33431423e-03,
          3.93609554e-02, 5.58265597e-02, 7.49044120e-02, 9.87592041e-02,
          2.70896256e-01, 2.55449325e-01, 1.95963725e-01, 7.58894682e-02,
          5.35711907e-02, 1.02580003e-01, 9.05830190e-02, 8.53447467e-02,
          6.96003884e-02, 1.03968285e-01, 5.17800078e-02, 1.48323143e-03,
          1.55383274e-01, 1.11379206e-01, 8.24299678e-02, 5.72977513e-02,
          1.01622552e-01 ]
      - [ 1.63952768e-01, 1.81737483e-01, 4.67281677e-02, 5.11183664e-02,
          4.65454794e-02, 3.48823518e-02, 3.47351208e-02, 6.30244687e-02,
          1.20530948e-02, 1.12789506e-02, 2.49871939e-01, 2.09010273e-01,
          3.05093139e-01, 8.32835734e-02, 1.32058993e-01, 1.02237448e-01,
          1.69973075e-02, 2.31635012e-02, 1.93628855e-02, 9.25145075e-02,
          1.20729327e-01, 8.48946750e-01, 8.24995413e-02, 1.52049214e-01,
          4.03401144e-02, 3.77117954e-02, 3.86104919e-02, 1.21388854e-02,
          4.99332091e-03, 3.86859849e-02, 2.29977667e-02, 2.40173773e-03,
          4.60897759e-02, 6.74632145e-03, 3.87286069e-03, 6.23113709e-03,
          1.41387694e-02, 2.60542780e-02, 2.56024185e-03, 3.82125676e-02,
          2.53992267e-02, 3.26479524e-02, 6.89050257e-02, 1.95378792e-02,
          4.36199531e-02, 3.08578201e-02, 5.56679256e-02, 6.04917444e-02,
          4.47883829e-02, 5.41262776e-02, 6.19298555e-02, 5.32096177e-02,
          2.16082688e-02, 6.29798463e-03, 4.50716726e-02, 5.13571836e-02,
          3.03529240e-02, 4.18886691e-02, 3.18166167e-02, 3.13067436e-02,
          1.55597124e-02, 3.71507220e-02, 4.13273424e-02, 2.45521069e-02,
          9.22555774e-02, 1.39182180e-01, 1.17451139e-01, 8.30140114e-02,
          2.95531787e-02, 4.06566933e-02, 2.53338844e-01, 6.49870634e-02,
          2.77208202e-02, 2.46367268e-02, 2.86677033e-02, 3.92331183e-02,
          4.27890643e-02, 4.45657074e-02, 2.01541707e-02, 4.05770764e-02,
          7.54119083e-02, 1.29697770e-01, 3.49280797e-02, 3.21580172e-02,
          6.80489466e-02 ]
      - [ 5.93168382e-03, 3.05021014e-02, 3.35099161e-01, 1.38578221e-01,
          1.58674747e-01, 1.71042100e-01, 3.75285983e-01, 1.63897589e-01,
          2.42994982e-03, 4.00526673e-02, 1.66091144e-01, 3.93937439e-01,
          3.48527700e-01, 4.07792777e-01, 2.86480278e-01, 8.31852667e-03,
          4.49154479e-03, 3.35971825e-03, 2.79859364e-01, 1.55759200e-01,
          4.44720894e-01, 4.38384712e-01, 3.35866213e-01, 1.03351008e-02,
          6.20308612e-03, 4.70661465e-03, 4.71702777e-03, 4.29254383e-01,
          2.15897247e-01, 4.18466866e-01, 2.38807023e-01, 1.83937252e-02,
          9.99087188e-03, 9.32814088e-03, 8.18725489e-03, 1.24422889e-02,
          6.18124306e-01, 9.43924412e-02, 2.27968305e-01, 8.49752724e-02,
          9.99811105e-03, 1.27212377e-02, 1.09672816e-02, 1.51486257e-02,
          3.51337641e-02, 4.83142436e-02, 1.58821359e-01, 9.41281468e-02,
          1.08633600e-02, 9.54852812e-03, 1.36368191e-02, 1.82038695e-02,
          3.02789081e-02, 5.04454188e-02, 5.59512526e-02, 8.28373432e-02,
          8.67069606e-03, 8.98199808e-03, 5.83975064e-03, 1.49232652e-02,
          4.10693958e-02, 5.40426597e-02, 8.54821876e-02, 9.02145207e-02,
          1.97291002e-02, 2.58426487e-01, 2.71509349e-01, 2.08495587e-01,
          4.69024107e-03, 2.17397496e-01, 3.79367411e-01, 1.50850505e-01,
          1.05095906e-02, 1.16863623e-02, 1.98991179e-01, 1.41473264e-01,
          9.51614603e-03, 1.31509267e-02, 4.39590961e-02, 7.86213279e-02,
          1.25060827e-01, 2.52555728e-01, 1.12157566e-02, 1.15761220e-01,
          1.26148373e-01 ]
      - [ 2.37364843e-02, 9.38499868e-02, 1.44768860e-02, 5.20480284e-03,
          5.06820157e-03, 7.43013900e-03, 1.32552087e-02, 1.01059629e-02,
          7.90043548e-02, 5.80125749e-02, 1.59842730e-01, 7.69897327e-02,
          4.29477617e-02, 6.74371794e-02, 3.58309373e-02, 2.73613259e-03,
          1.79339796e-01, 5.12071624e-02, 1.40937179e-01, 6.38498291e-02,
          8.17004815e-02, 7.50963762e-02, 2.26450078e-02, 2.53256271e-03,
          4.19846892e-01, 4.67727520e-03, 5.68454154e-03, 1.08387936e-02,
          1.33078042e-02, 3.83576378e-02, 6.32784218e-02, 2.74345954e-03,
          2.94668347e-01, 2.81757206e-01, 1.66820496e-01, 9.48979706e-02,
          2.45718397e-02, 3.82154375e-01, 4.67143863e-01, 3.15153569e-01,
          2.24744126e-01, 2.34130397e-01, 2.38391355e-01, 8.50974202e-01,
          6.10932767e-01, 1.44799933e-01, 4.13265705e-01, 2.51688153e-01,
          7.32943043e-02, 1.18299924e-01, 8.36990595e-01, 4.79387373e-01,
          9.30628896e-01, 4.98865217e-01, 2.27111038e-02, 2.67951757e-01,
          5.69923073e-02, 1.84631199e-01, 5.60262859e-01, 8.72353554e-01,
          5.38251817e-01, 3.49953659e-02, 1.80119723e-01, 1.56673193e-01,
          6.36508465e-02, 6.41285405e-02, 3.07208207e-02, 1.54820606e-02,
          1.63767785e-01, 5.53275868e-02, 5.21155745e-02, 2.27998625e-02,
          2.58825034e-01, 3.37770998e-01, 2.90614724e-01, 3.61812800e-01,
          1.08304434e-01, 6.87248588e-01, 5.00685334e-01, 1.56863943e-01,
          8.67186934e-02, 3.02795805e-02, 3.48037243e-01, 3.27494204e-01,
          1.98132426e-01 ]
      - [ 2.58364482e-04, 7.53996253e-04, 3.53977690e-03, 3.58129963e-02,
          6.72002211e-02, 8.68519396e-02, 8.47974271e-02, 3.64946216e-01,
          3.26161310e-02, 1.58707821e-03, 7.64845405e-03, 4.76663522e-02,
          9.96422172e-02, 1.36443123e-01, 8.94023895e-01, 6.98675811e-01,
          2.88582261e-04, 2.51398771e-03, 9.53532476e-03, 3.89836952e-02,
          7.24476814e-01, 9.64530051e-01, 8.95084918e-01, 7.43572414e-01,
          1.96899404e-04, 2.07829755e-03, 2.32789308e-01, 1.00316879e-06,
          5.34533849e-03, 8.88522089e-01, 6.81840062e-01, 4.09354828e-03,
          1.49242129e-04, 3.49841011e-03, 7.23710358e-02, 3.05015564e-01,
          4.65370622e-03, 4.37496277e-03, 7.93365017e-03, 7.15923915e-03,
          1.44672301e-02, 1.31141499e-01, 1.30504921e-01, 1.68833788e-02,
          1.68278981e-02, 2.88708359e-02, 2.57656071e-02, 2.37224214e-02,
          1.75015051e-02, 3.28848660e-02, 3.12007293e-02, 3.01417913e-02,
          3.24374661e-02, 3.36049460e-02, 2.60981806e-02, 2.88557969e-02,
          1.16973724e-02, 2.16221698e-02, 2.87569761e-02, 3.22035849e-02,
          3.25197577e-02, 3.21485549e-02, 2.84740794e-02, 2.30614487e-02,
          8.80389288e-03, 2.36668959e-02, 9.75343734e-02, 5.10610819e-01,
          1.26944168e-03, 7.03273341e-02, 6.45718575e-01, 5.81147790e-01,
          3.73140946e-02, 1.31193727e-01, 1.36818513e-02, 1.61452293e-02,
          2.09264793e-02, 3.05757709e-02, 3.26776803e-02, 2.66223755e-02,
          2.60168910e-02, 4.58752900e-01, 5.50025143e-02, 2.22817846e-02,
          1.40513524e-01 ]
      - [ 2.60309363e-03, 2.08601907e-01, 5.82295418e-01, 8.29740882e-01,
          8.15768301e-01, 7.40541995e-01, 5.01974404e-01, 1.42993790e-03,
          3.29239428e-01, 1.10035583e-01, 6.92553492e-03, 8.47265571e-02,
          4.79011685e-02, 2.87663549e-01, 3.74854589e-03, 5.54145547e-03,
          1.14768287e-02, 3.02467823e-01, 4.86145705e-01, 1.45242326e-02,
          1.47362705e-02, 7.86195882e-03, 1.31980171e-02, 1.42469099e-02,
          6.01701289e-02, 3.48977111e-02, 6.03945777e-02, 2.66954340e-02,
          2.62036324e-02, 2.47819740e-02, 1.51140215e-02, 2.23584101e-02,
          2.22296175e-02, 3.07138022e-02, 3.13419960e-02, 3.07614934e-02,
          2.77821552e-02, 2.61077471e-02, 2.67812368e-02, 2.91012451e-02,
          3.00315581e-02, 3.19660008e-02, 3.43586132e-02, 3.08138914e-02,
          2.63759419e-02, 2.57428549e-02, 3.14565524e-02, 2.84792259e-02,
          3.46075818e-02, 3.59634571e-02, 3.40668075e-02, 3.49165089e-02,
          3.00463215e-02, 3.33842114e-02, 3.06845009e-02, 2.71952339e-02,
          3.28153111e-02, 3.32002155e-02, 3.34681496e-02, 3.19123380e-02,
          3.19031924e-02, 2.89525501e-02, 2.61959434e-02, 2.23942026e-02,
          1.62620008e-01, 3.75922114e-01, 4.72968757e-01, 1.28173575e-01,
          1.02253117e-01, 1.46939993e-01, 1.83959585e-02, 1.62293389e-02,
          2.87352446e-02, 3.18189971e-02, 2.65021734e-02, 2.89545655e-02,
          3.41466404e-02, 3.35909501e-02, 3.10715698e-02, 2.66174693e-02,
          1.96933821e-01, 1.58941910e-01, 3.20729613e-02, 2.82864440e-02,
          1.04058787e-01 ]
      - [ 5.43431938e-02, 1.55532649e-02, 1.91237754e-03, 9.33963992e-03,
          3.80743220e-02, 7.86325261e-02, 1.36450589e-01, 1.35045618e-01,
          6.15496039e-02, 4.44065314e-03, 9.97205265e-03, 4.63705994e-02,
          9.92204994e-02, 2.57421792e-01, 3.89298677e-01, 2.90526569e-01,
          2.38474254e-02, 5.82528487e-03, 5.02676554e-02, 1.25863522e-01,
          3.94549370e-01, 6.34611666e-01, 8.32612693e-01, 5.22827029e-01,
          3.46408077e-02, 2.13441011e-02, 1.28560454e-01, 3.81120384e-01,
          7.09882259e-01, 1.48775131e-01, 1.36203468e-01, 1.44251641e-02,
          8.88916384e-03, 2.77617807e-03, 3.97122860e-01, 6.13027751e-01,
          4.64613110e-01, 8.47601146e-02, 4.91543615e-04, 1.09870017e-01,
          8.21833313e-02, 4.73941071e-03, 1.33707630e-03, 7.25834072e-02,
          9.96204689e-02, 9.56654374e-04, 6.92719221e-02, 2.05019444e-01,
          5.75078763e-02, 3.38093452e-02, 1.46783544e-02, 1.14762327e-02,
          1.00049078e-02, 1.45502970e-01, 1.59838825e-01, 2.41913170e-01,
          5.70502356e-02, 9.99171138e-02, 1.11192457e-01, 8.12675282e-02,
          1.00962892e-01, 2.04973191e-01, 3.68569493e-01, 2.95299560e-01,
          3.39716785e-02, 1.68986674e-02, 1.18337288e-01, 2.37830356e-01,
          2.14144047e-02, 1.71452999e-01, 4.71954584e-01, 3.76517087e-01,
          2.46470217e-02, 2.71017790e-01, 1.62487581e-01, 9.61632282e-02,
          6.20711446e-02, 5.46536446e-02, 1.15360990e-01, 2.66405255e-01,
          6.09344393e-02, 3.01159829e-01, 1.03097402e-01, 1.60104275e-01,
          1.56323999e-01 ]
      - [ 6.19536033e-03, 3.10448837e-02, 3.43459457e-01, 5.03355086e-01,
          5.45404553e-01, 3.29365313e-01, 9.71045122e-02, 2.09794849e-01,
          2.25399318e-03, 1.84713141e-03, 3.18718195e-01, 5.38475335e-01,
          5.40304363e-01, 5.12471437e-01, 1.02501243e-01, 7.16630667e-02,
          5.86355478e-03, 1.07227534e-03, 1.11214072e-02, 4.03766394e-01,
          4.98613179e-01, 5.04346132e-01, 8.94571394e-02, 2.23036669e-02,
          1.05630560e-02, 3.78397387e-03, 1.13598129e-03, 1.48762083e-02,
          6.61776215e-02, 7.87158832e-02, 4.36836071e-02, 1.66075188e-04,
          3.84818539e-02, 2.23913603e-02, 1.02779372e-02, 5.00736618e-03,
          1.03854912e-03, 9.09792259e-04, 4.60194796e-03, 3.42911109e-03,
          3.60731259e-02, 2.88183130e-02, 3.44047397e-02, 4.20669541e-02,
          1.31517537e-02, 2.84507163e-02, 2.23698802e-02, 1.56426311e-01,
          7.95761645e-02, 8.10117647e-02, 8.73132572e-02, 1.08811319e-01,
          3.80071215e-02, 8.18782896e-02, 1.51293159e-01, 1.54098764e-01,
          9.64681432e-02, 1.18580312e-01, 9.52184498e-02, 1.18309557e-01,
          8.60834494e-02, 7.96859190e-02, 1.90639749e-01, 1.66448072e-01,
          1.03353430e-02, 4.26002026e-01, 4.81886417e-01, 1.20265916e-01,
          5.32071479e-03, 1.07724994e-01, 2.86963195e-01, 3.89026217e-02,
          3.14411633e-02, 2.29392499e-02, 1.08877029e-02, 4.67068106e-02,
          9.39090997e-02, 1.02413148e-01, 7.14136958e-02, 1.65619925e-01,
          1.37345776e-01, 2.32004553e-01, 6.26756698e-02, 7.36570358e-02,
          1.26420751e-01 ]
      - [ 1.22158825e-02, 2.02144794e-02, 5.62737733e-02, 7.54600614e-02,
          7.44207501e-02, 6.59883022e-02, 5.04614078e-02, 2.80881934e-02,
          2.25004777e-02, 5.71240447e-02, 1.16062880e-01, 1.38159662e-01,
          1.62351876e-01, 1.49037063e-01, 1.21091127e-01, 6.92308992e-02,
          3.51304673e-02, 5.90370484e-02, 5.14728054e-02, 3.18008065e-02,
          5.16318679e-02, 2.15606689e-02, 1.23443708e-01, 7.13276416e-02,
          9.26961452e-02, 5.10086678e-02, 4.90183868e-02, 1.96375057e-01,
          3.08663584e-02, 2.20356099e-02, 7.64644518e-02, 8.60755444e-02,
          6.02264181e-02, 6.35408163e-02, 7.63496906e-02, 4.77635115e-02,
          1.09460413e-01, 1.08865067e-01, 9.88256708e-02, 2.25733947e-02,
          2.47374803e-01, 1.08226538e-01, 1.21100128e-01, 3.19939643e-01,
          3.03221464e-01, 5.55526093e-02, 1.13832220e-01, 1.77853465e-01,
          8.39199424e-01, 9.06260908e-01, 9.41032648e-01, 1.60139889e-01,
          1.55654093e-02, 5.18396199e-02, 3.37313831e-01, 4.81631756e-01,
          6.49795890e-01, 6.80609703e-01, 6.58772349e-01, 6.49293363e-01,
          6.24403715e-01, 5.36222935e-01, 4.26608205e-01, 2.80124784e-01,
          2.80137211e-02, 9.64890942e-02, 1.12949498e-01, 6.72179013e-02,
          5.94680831e-02, 8.21667612e-02, 3.15236263e-02, 8.93278345e-02,
          1.19842142e-01, 1.41288251e-01, 1.44274890e-01, 1.03271186e-01,
          7.68966436e-01, 6.02309585e-01, 3.07007909e-01, 3.81419629e-01,
          6.65344149e-02, 7.52547160e-02, 4.08101588e-01, 2.33993411e-01,
          1.95971042e-01 ]
      - [ 1.79806724e-02, 3.63366455e-02, 7.02599958e-02, 9.22413170e-02,
          9.63898227e-02, 8.72953013e-02, 7.08888620e-02, 4.35521640e-02,
          2.77517196e-02, 6.31634817e-02, 1.09358437e-01, 1.29750431e-01,
          1.29772142e-01, 1.38108820e-01, 1.12093791e-01, 6.53016865e-02,
          4.31397036e-02, 8.00787956e-02, 1.41278625e-01, 1.44335091e-01,
          1.77632764e-01, 1.72313005e-01, 1.34855226e-01, 9.96340960e-02,
          4.65343595e-02, 7.48028085e-02, 3.07660773e-02, 2.78052017e-02,
          7.47977495e-02, 1.00098997e-01, 1.49155512e-01, 1.00159682e-01,
          6.39737770e-02, 9.14346725e-02, 9.38442349e-03, 9.26460605e-03,
          2.13622488e-02, 3.23991813e-02, 1.19874746e-01, 1.57852564e-02,
          8.58705863e-02, 4.99195606e-02, 5.99751920e-02, 1.94085330e-01,
          2.64048837e-02, 2.82777250e-02, 1.20352127e-01, 1.18416488e-01,
          7.10551739e-02, 4.99479882e-02, 4.13045399e-02, 2.85900887e-02,
          9.69112143e-02, 1.04924120e-01, 8.29997137e-02, 5.25740534e-02,
          5.80613017e-02, 6.27509132e-02, 9.07155648e-02, 4.79748584e-02,
          1.06776059e-01, 1.10340536e-01, 9.59383547e-02, 5.26776314e-02,
          3.63081321e-02, 1.00402541e-01, 1.12891518e-01, 7.29591250e-02,
          6.11389205e-02, 8.60462487e-02, 1.31210625e-01, 1.20951124e-01,
          7.27996528e-02, 6.81773871e-02, 2.71110088e-02, 9.36071575e-02,
          6.04538471e-02, 5.21462634e-02, 1.04737982e-01, 7.10474402e-02,
          7.09739625e-02, 1.09503098e-01, 6.33942857e-02, 7.41259009e-02,
          7.94993043e-02 ]
      - [ 1.27819330e-01, 1.37607038e-01, 1.44812942e-01, 1.30792812e-01,
          1.03490494e-01, 1.32648006e-01, 2.94877985e-03, 1.35310382e-01,
          2.06983522e-01, 2.03872964e-01, 1.63456574e-01, 1.53883740e-01,
          4.39494222e-01, 4.24834266e-02, 1.73582256e-01, 2.28404135e-01,
          2.05485165e-01, 1.89015895e-01, 2.40977436e-01, 1.15187392e-01,
          1.81069613e-01, 1.28649920e-01, 2.69088566e-01, 2.75668710e-01,
          4.19059657e-02, 5.91177568e-02, 2.22446963e-01, 1.16937310e-01,
          2.24660188e-01, 1.36436045e-01, 2.12002635e-01, 2.66076773e-01,
          1.20197199e-02, 5.55725861e-03, 1.39414161e-01, 1.88131273e-01,
          1.10104471e-01, 5.02903797e-02, 2.78976560e-01, 2.84025520e-01,
          1.12478610e-03, 5.71823854e-04, 3.77336028e-03, 3.82279754e-02,
          1.99498981e-02, 3.88651877e-03, 6.01402577e-03, 2.83309747e-03,
          3.11860032e-02, 3.92288938e-02, 5.17055579e-02, 5.97206205e-02,
          5.91308214e-02, 2.51073781e-02, 2.30984315e-02, 2.55544465e-02,
          1.50786731e-02, 2.21728124e-02, 2.75319666e-02, 3.53979543e-02,
          2.59413067e-02, 1.24310404e-02, 1.26178907e-02, 1.25433058e-02,
          1.69070721e-01, 1.48236513e-01, 1.79529041e-01, 1.35061383e-01,
          1.23881198e-01, 1.73887283e-01, 1.67703941e-01, 2.55709171e-01,
          4.81839711e-03, 9.23866928e-02, 4.60578166e-02, 1.42962307e-01,
          2.69165970e-02, 4.35890257e-02, 3.06526367e-02, 1.84535198e-02,
          1.53768927e-01, 1.84500888e-01, 4.19276766e-02, 5.95315732e-02,
          1.09932266e-01 ]
      - [ 1.28931150e-01, 1.41449675e-01, 9.20772403e-02, 1.07031785e-01,
          1.38768241e-01, 1.15518168e-01, 1.67137653e-01, 1.45892724e-01,
          1.15184247e-01, 1.18971244e-01, 1.16452485e-01, 1.22546338e-01,
          1.86381906e-01, 1.09745108e-01, 1.47351295e-01, 1.61201403e-01,
          8.42550993e-02, 1.45183370e-01, 1.58614323e-01, 2.78991982e-02,
          2.07635313e-01, 1.76194802e-01, 5.68270721e-02, 1.68604776e-01,
          6.37619421e-02, 8.97467285e-02, 2.10316688e-01, 4.20343876e-02,
          9.87862647e-02, 1.88846216e-01, 2.08195746e-01, 1.45847023e-01,
          6.12408780e-02, 9.44585279e-02, 5.43051735e-02, 3.92653830e-02,
          4.86036167e-02, 1.62337676e-01, 1.53705463e-01, 6.24618493e-02,
          1.78306475e-02, 1.16426393e-01, 1.08503938e-01, 3.43332700e-02,
          4.57995497e-02, 3.68286856e-02, 9.22323912e-02, 3.23036276e-02,
          3.06150727e-02, 2.22002752e-02, 8.09153169e-02, 5.93877099e-02,
          1.23796493e-01, 7.27515072e-02, 7.49462098e-02, 3.57419513e-02,
          3.26723084e-02, 2.44726874e-02, 3.14495713e-02, 3.00983191e-02,
          5.60759865e-02, 3.50271128e-02, 3.32441367e-02, 1.68444850e-02,
          1.26134083e-01, 1.09526962e-01, 1.37603357e-01, 1.55395761e-01,
          9.57367867e-02, 1.09716147e-01, 1.67865649e-01, 1.44868657e-01,
          7.24891126e-02, 5.91019429e-02, 7.33923838e-02, 8.51758346e-02,
          2.74900869e-02, 5.04627302e-02, 7.19127730e-02, 4.01941948e-02,
          1.10278495e-01, 1.51433364e-01, 5.23859635e-02, 6.76687956e-02,
          9.54416543e-02 ]
      - [ 4.51626070e-02, 4.49717827e-02, 7.87846893e-02, 2.12520540e-01,
          1.72733769e-01, 2.16597065e-01, 1.89010859e-01, 1.59103677e-01,
          4.40355539e-02, 4.34713885e-02, 6.88218549e-02, 6.58608824e-02,
          1.72327667e-01, 1.77810922e-01, 1.58418730e-01, 9.25628394e-02,
          3.98495048e-02, 4.38719168e-02, 4.00348231e-02, 1.75052993e-02,
          1.72891870e-01, 1.72366679e-01, 1.27333120e-01, 3.20722461e-02,
          1.01916708e-01, 3.71989571e-02, 5.51945679e-02, 5.37716374e-02,
          5.22864945e-02, 1.53000936e-01, 8.70737657e-02, 2.94183344e-02,
          3.04635186e-02, 2.33283173e-02, 5.11267111e-02, 5.71779795e-02,
          3.82640921e-02, 1.01943702e-01, 4.08063494e-02, 2.04208679e-02,
          1.25921398e-01, 7.39445984e-02, 2.42398202e-01, 2.12378949e-01,
          6.79699481e-02, 2.96769086e-02, 6.74106851e-02, 3.99463288e-02,
          5.69368489e-02, 4.37181816e-02, 5.48153818e-02, 5.26554957e-02,
          4.90541346e-02, 4.97930087e-02, 4.03348617e-02, 2.95837373e-02,
          3.31349261e-02, 4.34660241e-02, 4.90900800e-02, 5.75997122e-02,
          3.56081799e-02, 3.46222930e-02, 3.26931402e-02, 1.41012138e-02,
          4.44103330e-02, 1.06496990e-01, 1.84867352e-01, 1.49774030e-01,
          5.57092726e-02, 4.16265801e-02, 1.37636498e-01, 6.89743608e-02,
          6.34144545e-02, 1.40770465e-01, 5.94636649e-02, 4.21460606e-02,
          4.43139970e-02, 5.35401665e-02, 4.22694050e-02, 2.91782394e-02,
          6.20607957e-02, 1.35313064e-01, 7.55097717e-02, 4.32643443e-02,
          7.90369958e-02 ]
      - [ 1.06375732e-01, 1.41078100e-01, 1.65633425e-01, 1.77362904e-01,
          2.02654764e-01, 1.98887974e-01, 1.69761971e-01, 1.17173210e-01,
          1.10596620e-01, 1.44226417e-01, 1.69341713e-01, 2.03241050e-01,
          2.40787655e-01, 2.38096848e-01, 2.03002959e-01, 1.47043452e-01,
          8.67602676e-02, 1.11886948e-01, 1.59400150e-01, 2.04812422e-01,
          6.83339655e-01, 2.47617811e-01, 1.91767782e-01, 1.21257067e-01,
          5.46927005e-02, 8.12523961e-02, 1.13869809e-01, 2.02680808e-02,
          1.81303360e-02, 1.49040341e-01, 8.18880573e-02, 5.74967079e-02,
          1.62655730e-02, 1.99257433e-02, 2.61349622e-02, 8.94931797e-03,
          3.06771118e-02, 6.83335075e-03, 1.81156378e-02, 1.53726181e-02,
          2.40561645e-02, 3.23124081e-02, 2.00486812e-03, 7.99526833e-03,
          3.65897194e-02, 1.18753407e-02, 1.37195154e-03, 1.17022498e-02,
          2.32027676e-02, 2.58236658e-02, 2.19987296e-02, 5.32918163e-02,
          5.87997772e-02, 5.22163101e-02, 1.77668463e-02, 1.56632606e-02,
          2.35920809e-02, 3.60865593e-02, 4.39839736e-02, 4.94786054e-02,
          5.63680902e-02, 4.94871326e-02, 2.93138903e-02, 1.45210410e-02,
          1.25569224e-01, 1.78894773e-01, 2.20106810e-01, 1.59245402e-01,
          8.36480781e-02, 1.24587618e-01, 2.74532020e-01, 1.13102399e-01,
          2.31399722e-02, 1.12711042e-02, 2.14938801e-02, 1.16406139e-02,
          2.71762684e-02, 4.21882793e-02, 5.42178266e-02, 1.93162598e-02,
          1.28174916e-01, 1.91746652e-01, 2.59439051e-02, 2.66671441e-02,
          9.31331515e-02 ]
      - [ 8.89295945e-04, 5.83579898e-01, 8.89014900e-01, 8.64972889e-01,
          8.73755753e-01, 7.82877326e-01, 6.77813053e-01, 4.12310883e-02,
          6.65408978e-03, 1.96766093e-01, 3.86525631e-01, 3.94306332e-01,
          1.77855760e-01, 5.09102754e-02, 6.12511896e-02, 5.61409891e-02,
          5.71336560e-02, 8.02103058e-02, 2.66013235e-01, 2.84382224e-01,
          7.20658386e-03, 3.53548676e-02, 8.07616413e-02, 1.01703390e-01,
          3.48450422e-01, 9.28060636e-02, 3.54463160e-02, 4.92848381e-02,
          7.27180094e-02, 8.91128704e-02, 1.55832052e-01, 2.57505208e-01,
          3.87635976e-01, 1.90235212e-01, 1.42861307e-01, 6.46157265e-02,
          7.87529424e-02, 6.50770366e-02, 2.96188295e-02, 2.31553882e-01,
          3.77847105e-01, 3.27696770e-01, 5.13791293e-02, 1.19799385e-02,
          4.87079211e-02, 3.67862359e-02, 3.05988520e-01, 2.86417007e-01,
          4.29961056e-01, 3.03105742e-01, 2.27159053e-01, 4.17246204e-03,
          1.77060608e-02, 5.82876801e-02, 9.67379808e-02, 1.07600421e-01,
          3.39461952e-01, 1.32615849e-01, 2.25979015e-02, 2.05989759e-02,
          2.92285383e-02, 3.12850848e-02, 2.62316857e-02, 2.43471842e-02,
          1.96972340e-01, 6.33704960e-01, 4.71349776e-01, 2.09109068e-01,
          1.44650102e-01, 1.58781648e-01, 5.10980859e-02, 1.48950577e-01,
          3.20853770e-01, 6.77090287e-02, 5.73310331e-02, 2.13394552e-01,
          3.01286131e-01, 6.86320961e-02, 3.41268405e-02, 6.37293160e-02,
          2.83527255e-01, 2.20126882e-01, 1.89620256e-01, 9.21454355e-02,
          1.96354955e-01 ]
      - [ 8.72867461e-03, 7.89627247e-03, 5.96573669e-03, 5.19913295e-03,
          7.07455771e-03, 2.02317489e-03, 8.68548639e-03, 9.15399380e-03,
          8.81779008e-03, 7.23098032e-03, 7.70115852e-03, 1.24644814e-02,
          4.31747325e-02, 3.91766895e-03, 9.67663340e-03, 1.06904935e-02,
          2.64443434e-03, 4.06292873e-03, 2.00579409e-02, 4.64368612e-02,
          3.47106829e-02, 2.23278720e-03, 7.76612433e-04, 6.30506314e-04,
          9.45896003e-03, 1.59919113e-02, 3.82502973e-02, 1.00279301e-01,
          3.75835598e-02, 4.49426845e-02, 1.54555356e-02, 3.10004056e-02,
          4.41449098e-02, 3.55471447e-02, 1.42187208e-01, 9.01018679e-01,
          8.20011646e-02, 3.51692699e-02, 1.36164958e-02, 1.81190353e-02,
          1.28651515e-01, 1.79942131e-01, 1.33987516e-01, 1.42978936e-01,
          1.43062845e-01, 1.39404610e-01, 1.39153704e-01, 1.27042532e-01,
          1.45222738e-01, 1.58835679e-01, 1.66360289e-01, 1.75254300e-01,
          1.28009751e-01, 1.02326192e-01, 1.25118122e-01, 7.94142708e-02,
          1.33984968e-01, 1.44102022e-01, 1.41319603e-01, 1.42616287e-01,
          1.24579586e-01, 6.74451813e-02, 9.37262625e-02, 6.41933382e-02,
          8.16842914e-03, 7.83262774e-03, 1.40475333e-02, 9.55165178e-03,
          8.03955831e-03, 5.12560979e-02, 2.98674274e-02, 1.19657647e-02,
          9.70714241e-02, 3.30043077e-01, 9.99094695e-02, 7.44829401e-02,
          1.45536363e-01, 1.56387627e-01, 1.05590180e-01, 9.06130001e-02,
          1.88241787e-02, 1.63580943e-02, 1.82259619e-01, 9.26488936e-02,
          7.75226951e-02 ]
      - [ 7.38839507e-02, 2.21060291e-02, 1.66292954e-02, 1.05409762e-02,
          6.94261212e-03, 3.91736813e-03, 5.24176564e-03, 5.39634749e-03,
          3.17235082e-01, 3.76772195e-01, 3.11508536e-01, 9.48586240e-02,
          2.20912993e-02, 1.08917188e-02, 2.47197412e-03, 3.62198357e-03,
          5.65726578e-01, 8.63253832e-01, 7.88589478e-01, 1.33076794e-02,
          5.84045984e-03, 1.37176542e-02, 1.16825728e-02, 1.36354845e-03,
          2.42603257e-01, 3.08649391e-01, 7.66246796e-01, 5.06939040e-03,
          5.91687206e-03, 5.53934090e-03, 2.25595664e-02, 1.07267953e-03,
          1.17006063e-01, 1.74312234e-01, 1.76868781e-01, 4.93456386e-02,
          1.07270489e-02, 1.40901953e-02, 6.46127015e-03, 1.15128560e-03,
          1.73201784e-03, 9.00349929e-04, 2.20438046e-03, 5.44474134e-03,
          6.03264896e-03, 5.89735946e-03, 4.16465383e-03, 2.07203329e-02,
          2.03242507e-02, 1.71680022e-02, 1.14778541e-02, 5.69711886e-02,
          5.34989797e-02, 3.65057699e-02, 6.01218566e-02, 3.75707820e-02,
          3.80754210e-02, 6.44546226e-02, 7.95442313e-02, 6.29282743e-02,
          6.26518503e-02, 7.38289878e-02, 7.37684295e-02, 3.67905460e-02,
          1.97499305e-01, 1.08384356e-01, 1.09607503e-02, 4.18301765e-03,
          4.95058268e-01, 3.93303335e-01, 7.75358127e-03, 9.16959159e-03,
          7.34876692e-02, 5.84658831e-02, 9.18681268e-03, 8.12438503e-03,
          3.50055769e-02, 5.27303852e-02, 5.66213951e-02, 5.20629063e-02,
          2.98561335e-01, 8.01673532e-03, 5.49223796e-02, 3.14988717e-02,
          9.82498303e-02 ]
      - [ 2.35889684e-02, 1.53641522e-01, 3.79077867e-02, 4.02740613e-02,
          5.09492420e-02, 7.05484971e-02, 8.37984830e-02, 4.10200357e-02,
          3.46500203e-02, 4.39381361e-01, 3.91359329e-02, 3.45408261e-01,
          3.32331449e-01, 2.97582269e-01, 2.32854068e-01, 7.85402507e-02,
          3.47859710e-02, 3.04883897e-01, 3.19380760e-02, 2.83856928e-01,
          3.38546634e-01, 7.44129002e-01, 4.06534135e-01, 5.12917936e-02,
          2.80382186e-02, 3.57675776e-02, 3.85494530e-02, 1.02043778e-01,
          4.74748880e-01, 4.72564638e-01, 2.90374130e-01, 5.10993600e-02,
          2.50803173e-01, 3.00989188e-02, 1.47616237e-01, 2.62040198e-02,
          3.28759551e-01, 1.47442311e-01, 1.90827429e-01, 1.59219459e-01,
          6.80036187e-01, 2.69361436e-02, 8.98067877e-02, 1.10478085e-02,
          2.88508423e-02, 1.46136303e-02, 1.74281448e-01, 1.28848135e-01,
          8.91123950e-01, 2.75736570e-01, 3.76076341e-01, 1.16444558e-01,
          1.96017474e-02, 3.56016331e-03, 3.31939936e-01, 1.78926721e-01,
          5.80076456e-01, 6.08806372e-01, 5.11215448e-01, 3.48658800e-01,
          9.34571028e-02, 2.92482913e-01, 2.66332328e-01, 9.01170820e-02,
          1.62815467e-01, 1.15681514e-01, 1.87852859e-01, 1.09053209e-01,
          1.00868918e-01, 1.14097059e-01, 5.07497311e-01, 1.99824855e-01,
          2.46968597e-01, 6.86687157e-02, 1.29916579e-01, 1.63294122e-01,
          5.88935852e-01, 3.38098794e-01, 1.02275483e-01, 2.16829017e-01,
          1.23365737e-01, 2.51057059e-01, 3.10667992e-01, 1.53078794e-01,
          2.09542394e-01 ]
      - [ 5.64285042e-03, 3.83799477e-03, 1.16171397e-03, 4.90834820e-04,
          7.68704806e-04, 2.22592778e-03, 5.98184939e-04, 1.71520829e-03,
          8.27821158e-03, 2.15279334e-03, 6.79419339e-02, 6.19230792e-04,
          7.84937001e-04, 3.47277634e-02, 2.04941141e-03, 9.25349444e-03,
          1.10253356e-02, 4.54494804e-02, 2.72981942e-01, 1.06782407e-01,
          8.48625845e-04, 5.75725287e-02, 2.92527053e-04, 1.28019303e-02,
          3.17281932e-02, 6.78854361e-02, 4.06314790e-01, 3.18843126e-01,
          8.48904699e-02, 4.55269066e-04, 5.50983520e-03, 5.34216501e-03,
          1.24367476e-02, 3.25554907e-01, 3.31563875e-02, 5.74298343e-03,
          2.68943608e-03, 3.19930017e-01, 1.27413776e-02, 3.10734045e-02,
          3.82569842e-02, 8.09177756e-02, 2.29809329e-01, 2.37759054e-01,
          5.12188137e-01, 9.56019834e-02, 2.65566856e-02, 2.91002207e-02,
          5.38986266e-01, 6.09653831e-01, 5.29359341e-01, 8.73146534e-01,
          9.20768976e-01, 1.88679844e-01, 4.29999828e-01, 1.83233038e-01,
          2.22393945e-01, 3.01098526e-01, 2.27237508e-01, 1.94607094e-01,
          1.87700555e-01, 4.17479843e-01, 2.97224671e-01, 1.82574898e-01,
          4.97796247e-03, 1.75534282e-02, 9.62683372e-03, 3.40407481e-03,
          3.90221104e-02, 2.76230574e-01, 3.59417237e-02, 5.98661462e-03,
          1.14291601e-01, 1.26616940e-01, 2.32602388e-01, 2.48679221e-02,
          4.18033183e-01, 4.56087619e-01, 4.28657293e-01, 2.73258090e-01,
          8.44460204e-02, 1.37398122e-02, 2.78757334e-01, 2.39846423e-01,
          1.54197395e-01 ]
      - [ 2.39070132e-02, 6.08136505e-02, 5.96732199e-02, 1.04104020e-01,
          4.35265720e-01, 4.48444992e-01, 1.63522184e-01, 2.33034089e-01,
          1.06435858e-01, 7.07399845e-02, 4.43822980e-01, 5.39679348e-01,
          5.26502967e-01, 5.05916893e-01, 1.65537536e-01, 3.90977770e-01,
          2.77834125e-02, 2.83787344e-02, 2.90445238e-02, 3.81003767e-02,
          7.09763318e-02, 3.85322511e-01, 1.27809003e-01, 2.87306070e-01,
          1.40438788e-02, 1.81462876e-02, 1.50948614e-02, 2.20153891e-02,
          6.64073154e-02, 3.72368842e-01, 2.12039307e-01, 2.33035043e-01,
          1.81369986e-02, 1.51805254e-02, 1.41616054e-02, 1.60390101e-02,
          1.14858141e-02, 9.33480822e-03, 2.95421630e-01, 5.42377472e-01,
          1.69693250e-02, 1.46351336e-02, 2.00915188e-02, 2.49732882e-02,
          9.92693380e-03, 7.90709816e-03, 1.03482306e-01, 6.22974217e-01,
          9.70256403e-02, 1.54568776e-02, 1.70289688e-02, 2.18279976e-02,
          1.09881656e-02, 9.21793841e-03, 1.23379249e-02, 4.78122592e-01,
          3.94883789e-02, 5.74973635e-02, 1.77515410e-02, 1.58637948e-02,
          1.56573653e-02, 8.25343654e-03, 1.27543630e-02, 2.46563554e-02,
          6.54741228e-02, 2.86819875e-01, 4.79032636e-01, 2.38267899e-01,
          2.20880806e-02, 2.60637887e-02, 2.23768741e-01, 2.15047345e-01,
          1.62304956e-02, 1.88163556e-02, 9.66366380e-03, 3.91063899e-01,
          5.23670651e-02, 1.81180760e-02, 1.10292267e-02, 1.31967813e-01,
          1.00111470e-01, 2.89029151e-01, 2.63829995e-02, 1.35931149e-01,
          1.37863696e-01 ]
      - [ 2.36322396e-02, 1.67688895e-02, 1.68812890e-02, 1.37067959e-02,
          1.30613949e-02, 8.35744385e-03, 7.37084541e-03, 8.49623326e-03,
          5.50643057e-02, 1.29309576e-02, 7.20989471e-03, 4.90872748e-02,
          4.36605373e-03, 4.81147878e-03, 6.14012172e-03, 6.40067738e-03,
          1.08540384e-03, 4.61454922e-03, 1.88526623e-02, 3.30614597e-01,
          4.16732766e-03, 4.62787645e-03, 5.37403300e-03, 4.16929321e-03,
          2.85958312e-03, 1.09180016e-02, 1.53832212e-01, 4.93229866e-01,
          2.44907942e-03, 3.75986076e-03, 3.91328335e-03, 5.14371600e-03,
          9.40332003e-03, 4.16705877e-01, 3.90526295e-01, 4.77136970e-01,
          2.83502974e-02, 2.22986192e-03, 2.08506011e-03, 3.43497610e-03,
          8.89269039e-02, 3.97743285e-01, 4.32612717e-01, 1.24485210e-01,
          2.02947808e-03, 1.97913125e-03, 2.35107206e-02, 1.18638687e-02,
          1.36696100e-01, 3.74442875e-01, 3.25562835e-01, 1.99590057e-01,
          1.72004756e-03, 1.61238131e-03, 1.36702927e-03, 1.42497686e-03,
          1.71752334e-01, 2.45909348e-01, 2.14853406e-01, 8.00725014e-04,
          1.08210067e-03, 9.93231894e-04, 7.68221682e-04, 5.23226510e-04,
          2.70990990e-02, 2.17213146e-02, 7.64909294e-03, 7.10196979e-03,
          4.86938469e-03, 2.49132335e-01, 3.75103601e-03, 4.65008151e-03,
          2.28194848e-01, 3.56190324e-01, 8.64719227e-03, 1.02236569e-02,
          2.32200161e-01, 1.85201764e-01, 1.35194033e-03, 1.02086354e-03,
          7.57055357e-02, 5.78804500e-03, 2.50446767e-01, 5.31091308e-03,
          8.43128189e-02 ]
      - [ 2.79612560e-03, 5.25841117e-03, 8.03817250e-03, 2.12462479e-03,
          2.22761743e-02, 6.12184731e-03, 6.53691031e-03, 3.02139856e-02,
          9.53236129e-03, 7.13012815e-02, 1.42014638e-01, 7.00324997e-02,
          1.37127534e-01, 3.74180883e-01, 3.93199891e-01, 2.79066265e-01,
          1.70632839e-01, 3.05133164e-01, 2.73480326e-01, 1.86538160e-01,
          5.64128637e-01, 7.25723028e-01, 8.45396399e-01, 6.37149036e-01,
          1.06292665e-01, 8.30049068e-02, 9.33221579e-02, 1.60630077e-01,
          5.96312881e-01, 5.89927256e-01, 7.87231863e-01, 6.26586556e-01,
          1.47049174e-01, 5.15735865e-01, 7.44637728e-01, 7.40720749e-01,
          7.25470543e-01, 5.80476940e-01, 7.55660087e-02, 5.51466942e-01,
          9.65206623e-02, 1.35797590e-01, 4.78496492e-01, 6.36670291e-01,
          4.05325800e-01, 7.66175389e-01, 8.83957148e-01, 6.26780570e-01,
          2.87854532e-03, 8.76457803e-03, 2.72823721e-02, 1.42898429e-02,
          3.24626267e-02, 4.39112902e-01, 5.95922112e-01, 3.56994212e-01,
          3.63408439e-02, 7.56811947e-02, 9.53409821e-02, 4.23789620e-02,
          5.61492192e-03, 1.85262749e-03, 5.58531785e-04, 5.59668406e-04,
          2.22220458e-02, 5.55524826e-02, 1.34926617e-01, 1.77254260e-01,
          1.66265890e-01, 1.78492695e-01, 6.19022965e-01, 7.24090934e-01,
          2.23775834e-01, 6.50131345e-01, 6.19362175e-01, 5.34442663e-01,
          3.09162904e-02, 4.48230393e-02, 1.19760774e-01, 2.38508642e-01,
          1.05633274e-01, 4.13823694e-01, 2.37411633e-01, 3.78018558e-01,
          2.83721805e-01 ]
      - [ 9.16820243e-02, 1.00159794e-01, 1.01408824e-01, 8.23041350e-02,
          1.44401163e-01, 1.30287468e-01, 2.42696777e-01, 3.28714073e-01,
          1.18890092e-01, 6.73001483e-02, 3.26275349e-01, 4.32668984e-01,
          4.32231784e-01, 6.56116843e-01, 5.39178014e-01, 6.73196971e-01,
          1.05512112e-01, 2.05519781e-01, 4.52403635e-01, 7.02737093e-01,
          7.69854069e-01, 7.72391200e-01, 7.52539992e-01, 7.52275765e-01,
          9.21138525e-02, 1.57618284e-01, 1.74609810e-01, 4.46225882e-01,
          5.47200263e-01, 4.84967172e-01, 5.71386337e-01, 5.74389875e-01,
          5.25869280e-02, 6.59935176e-02, 7.56628513e-02, 5.01868308e-01,
          6.06570959e-01, 4.33079809e-01, 6.40586257e-01, 6.63536489e-01,
          6.98670698e-03, 1.48367565e-02, 2.18229834e-02, 1.65877156e-02,
          1.69806965e-02, 1.76567715e-02, 1.82567209e-01, 3.21271569e-01,
          4.09614574e-03, 4.32965718e-03, 5.57208760e-03, 5.50611364e-03,
          8.44820589e-03, 4.36888728e-03, 3.16220755e-03, 1.27705904e-02,
          1.46078812e-02, 3.44617665e-02, 3.43528725e-02, 1.21443495e-02,
          5.69283552e-02, 4.96057123e-02, 2.81595290e-02, 5.20573324e-03,
          9.45080072e-02, 2.35664323e-01, 3.40759307e-01, 4.45946455e-01,
          1.40191004e-01, 4.43994105e-01, 6.43603206e-01, 6.62648022e-01,
          3.51009779e-02, 1.53985471e-01, 2.68572062e-01, 4.51990366e-01,
          1.43738631e-02, 1.43938558e-02, 2.98377909e-02, 1.23245148e-02,
          2.28589356e-01, 5.23239255e-01, 5.44635430e-02, 1.90681189e-01,
          2.49243349e-01 ]
      - [ 2.48995498e-02, 3.16278152e-02, 1.75049920e-02, 5.54475524e-02,
          3.37912887e-02, 2.90965792e-02, 1.96172953e-01, 4.38415110e-01,
          3.46332416e-02, 7.65470415e-02, 8.58869255e-02, 9.75679979e-02,
          1.38654754e-01, 1.18656568e-01, 1.53967246e-01, 1.28806084e-01,
          2.96001136e-02, 1.00213006e-01, 1.08383268e-01, 1.47408888e-01,
          1.05320334e-01, 1.20037086e-01, 1.60839930e-01, 1.84277624e-01,
          4.81783003e-02, 1.01811945e-01, 1.22398794e-01, 1.39942244e-01,
          5.54143190e-02, 1.27814710e-01, 1.31470740e-01, 5.10776937e-02,
          6.11224696e-02, 9.11012813e-02, 1.06184542e-01, 3.59770469e-02,
          7.72363171e-02, 1.43371075e-01, 1.64489120e-01, 5.85218817e-02,
          5.09667471e-02, 4.13880721e-02, 1.32525280e-01, 1.27462372e-01,
          9.42996070e-02, 1.49058476e-01, 1.99458808e-01, 1.19053423e-01,
          2.57037710e-02, 8.00378621e-02, 1.21048570e-01, 1.22712426e-01,
          1.46196216e-01, 1.26508817e-01, 1.20400451e-01, 3.36446792e-01,
          3.61610092e-02, 7.66374767e-02, 9.89365876e-02, 1.55046478e-01,
          2.49349549e-01, 1.90083846e-01, 2.12804720e-01, 1.34501338e-01,
          4.19269130e-02, 6.41018674e-02, 8.00497979e-02, 2.29340345e-01,
          6.99508414e-02, 1.29533291e-01, 1.02146611e-01, 1.31916493e-01,
          6.11446425e-02, 1.00537315e-01, 1.15991369e-01, 1.35380805e-01,
          5.46350293e-02, 1.24436021e-01, 1.78034604e-01, 2.01038331e-01,
          7.63782263e-02, 1.35863304e-01, 8.51882547e-02, 1.57611281e-01,
          1.13760270e-01 ]
      - [ 5.35742901e-02, 5.79956025e-02, 3.74873951e-02, 5.14729042e-03,
          8.96352436e-03, 5.81053877e-03, 4.45762556e-03, 6.73332345e-03,
          6.03246987e-02, 6.31296560e-02, 2.40052342e-02, 5.53131521e-01,
          2.22730599e-02, 7.28504313e-03, 6.70332275e-03, 1.42187765e-02,
          4.85685319e-02, 2.96848584e-02, 4.23660018e-02, 7.79109359e-01,
          7.47391433e-02, 9.89108440e-03, 6.61982875e-03, 6.33504614e-03,
          3.03768031e-02, 1.78013109e-02, 9.15941596e-03, 1.81977987e-01,
          4.47588749e-02, 7.30090914e-03, 8.11595935e-03, 6.04639202e-03,
          4.26639356e-02, 8.23016614e-02, 5.04872063e-03, 7.63150752e-02,
          5.26577495e-02, 7.22524002e-02, 7.71737285e-03, 8.91616754e-03,
          9.28519573e-03, 8.86534154e-02, 8.26500729e-02, 8.86972621e-02,
          9.01310742e-02, 9.40978229e-02, 8.61885399e-02, 1.88760348e-02,
          6.26884401e-02, 9.19078887e-02, 7.88466856e-02, 7.51806647e-02,
          7.08245635e-02, 8.91355574e-02, 8.15038681e-02, 6.94633871e-02,
          3.91757302e-02, 5.64549267e-02, 5.99259920e-02, 5.68819158e-02,
          5.61688170e-02, 5.23901246e-02, 4.40483801e-02, 2.76569724e-02,
          5.87560609e-02, 1.54942855e-01, 1.10830422e-02, 8.02826229e-03,
          3.16078775e-02, 2.53153205e-01, 3.41725051e-02, 6.77930657e-03,
          5.57260513e-02, 6.31777793e-02, 7.72847608e-02, 3.04245278e-02,
          6.25567436e-02, 6.77088127e-02, 6.71297684e-02, 5.56681529e-02,
          1.24614999e-01, 1.50157791e-02, 6.22923449e-02, 5.76267987e-02,
          6.48874789e-02 ]
      - [ 1.57060064e-02, 2.05103606e-02, 2.12401692e-02, 1.16283000e-02,
          1.27322311e-02, 2.06990764e-02, 1.74768250e-02, 1.19295167e-02,
          4.33904752e-02, 4.47687134e-02, 4.07196023e-02, 3.78924459e-02,
          4.09999825e-02, 3.14990431e-02, 2.80179363e-02, 1.49117373e-02,
          5.52603491e-02, 5.34125157e-02, 5.78366034e-02, 4.93167080e-02,
          3.41921970e-02, 1.24256887e-01, 4.82274257e-02, 4.44535688e-02,
          1.63774192e-02, 4.44950834e-02, 5.02106696e-02, 1.31122798e-01,
          7.28753507e-02, 6.82800636e-02, 1.31110266e-01, 9.77612361e-02,
          1.13459155e-01, 3.83035019e-02, 2.76887059e-01, 6.94058537e-01,
          9.82356310e-01, 9.01445627e-01, 4.72154766e-01, 6.04962297e-02,
          2.74619699e-01, 4.56424981e-01, 4.12584811e-01, 8.08083564e-02,
          2.16311552e-02, 7.77956545e-02, 3.92078683e-02, 3.90390903e-02,
          2.89813150e-02, 6.08308613e-03, 5.54131903e-03, 2.34947186e-02,
          5.91679476e-02, 8.03295821e-02, 7.78966174e-02, 9.64690745e-02,
          6.69163391e-02, 7.81667680e-02, 9.41625014e-02, 1.02201320e-01,
          1.24075346e-01, 1.19326353e-01, 1.34282261e-01, 1.14552140e-01,
          3.10938898e-02, 2.78701298e-02, 2.64825821e-02, 1.80840045e-02,
          4.23863381e-02, 7.21216947e-02, 7.49011263e-02, 8.03881213e-02,
          2.20701844e-01, 3.66084695e-01, 4.95807171e-01, 1.52724490e-01,
          4.50368747e-02, 5.63499629e-02, 9.57248062e-02, 1.05800025e-01,
          4.33680117e-02, 4.99639586e-02, 1.72043324e-01, 2.12514132e-01,
          1.19472355e-01 ]
      - [ 6.04259491e-01, 6.66502357e-01, 8.71627212e-01, 8.86641979e-01,
          8.87524366e-01, 8.52596104e-01, 7.98233509e-01, 7.15721846e-01,
          6.53727353e-02, 1.13790385e-01, 1.34625599e-01, 8.81573558e-01,
          1.55054867e-01, 4.60521765e-02, 1.74477510e-02, 5.76104643e-03,
          8.16871319e-03, 1.26414774e-02, 1.15703598e-01, 1.49067845e-02,
          2.08235998e-02, 5.39890639e-02, 5.14980778e-02, 6.50122613e-02,
          1.00368354e-02, 2.25726385e-02, 2.61995792e-02, 2.08322424e-02,
          1.91941857e-01, 6.18500821e-03, 5.88865504e-02, 2.34829970e-02,
          8.54635052e-03, 5.99987879e-02, 7.78413489e-02, 8.35880861e-02,
          4.97011282e-03, 4.09120135e-02, 3.67250927e-02, 1.52447298e-01,
          8.69440008e-03, 9.01830792e-02, 1.14807174e-01, 4.20964435e-02,
          4.93219495e-03, 3.12378425e-02, 7.94910342e-02, 1.10732727e-01,
          8.93470421e-02, 3.59478183e-02, 8.72805640e-02, 9.20950621e-03,
          2.62073018e-02, 2.57821474e-02, 4.60601076e-02, 3.58710624e-02,
          1.31602073e-02, 2.09151134e-02, 1.15956455e-01, 5.82355037e-02,
          6.12452067e-02, 2.37034708e-02, 1.45660909e-02, 1.04059968e-02,
          3.62481236e-01, 6.93617105e-01, 4.85306859e-01, 3.84291023e-01,
          1.33549161e-02, 4.44105491e-02, 6.82348758e-02, 4.97199707e-02,
          4.18556556e-02, 7.95832574e-02, 2.05130409e-02, 9.48490351e-02,
          3.98425460e-02, 6.76705092e-02, 3.42345312e-02, 2.67258156e-02,
          2.78465956e-01, 2.46888191e-01, 5.72379939e-02, 4.40806039e-02,
          1.56668186e-01 ]
      - [ 7.07519874e-02, 2.53963232e-01, 8.67114440e-02, 4.40032333e-02,
          6.03666380e-02, 6.71669990e-02, 3.28902304e-02, 1.18294107e-02,
          2.96772961e-02, 4.27347481e-01, 3.48105013e-01, 1.03345113e-02,
          5.51473871e-02, 3.77373770e-02, 4.73526530e-02, 2.61442177e-02,
          3.21222991e-02, 1.74189303e-02, 1.60678886e-02, 8.84732325e-03,
          3.73251438e-02, 8.63058958e-03, 3.08922697e-02, 4.60997522e-02,
          3.96745764e-02, 5.14520705e-02, 3.09189186e-02, 6.16549626e-02,
          7.43950307e-02, 6.34880438e-02, 5.94333038e-02, 5.50770722e-02,
          2.12637745e-02, 2.83974912e-02, 5.21691069e-02, 2.04944815e-02,
          7.94350207e-02, 1.83598250e-02, 1.27041219e-02, 1.40554123e-02,
          2.65412182e-02, 3.24709304e-02, 2.25658156e-02, 2.41389219e-02,
          2.95942016e-02, 3.65631133e-02, 2.02632155e-02, 6.35024812e-03,
          1.77378915e-02, 1.61731523e-02, 1.91364307e-02, 2.10939664e-02,
          3.09900884e-02, 9.59108490e-03, 7.55013572e-03, 3.53644928e-03,
          1.37609681e-02, 1.22581851e-02, 2.37995181e-02, 2.19358634e-02,
          1.11951148e-02, 9.11124330e-03, 5.54962410e-03, 4.34732018e-03,
          1.95435002e-01, 1.22288555e-01, 5.51045984e-02, 2.95541286e-02,
          3.51669677e-02, 2.93722730e-02, 4.59597036e-02, 4.78755981e-02,
          2.71683522e-02, 2.98420805e-02, 4.09880392e-02, 1.33432504e-02,
          1.49825495e-02, 2.14914456e-02, 1.52218835e-02, 5.24588255e-03,
          9.55657065e-02, 4.46235053e-02, 2.33711079e-02, 1.86997633e-02,
          4.55650240e-02 ]
      - [ 2.67545469e-02, 1.57535244e-02, 3.99684198e-02, 5.31922542e-02,
          6.63280562e-02, 7.30504245e-02, 7.06090331e-02, 6.39269352e-02,
          5.02036586e-02, 2.06883490e-01, 4.73873973e-01, 1.95726678e-01,
          7.49131069e-02, 8.06141719e-02, 7.11674467e-02, 6.10597879e-02,
          3.20660695e-02, 6.18807077e-02, 2.74580382e-02, 2.02527810e-02,
          2.50235684e-02, 4.22733724e-02, 3.04265711e-02, 1.53600220e-02,
          1.93719082e-02, 2.04156600e-02, 2.78494786e-02, 2.61558685e-02,
          2.78058592e-02, 2.46816278e-02, 3.34134474e-02, 3.16073671e-02,
          2.24110913e-02, 2.98051666e-02, 3.36770043e-02, 2.60493048e-02,
          3.38980183e-02, 2.99746320e-02, 2.20983084e-02, 1.84291676e-02,
          1.86125804e-02, 2.06725225e-02, 1.97838154e-02, 2.73889266e-02,
          3.28994915e-02, 3.42852473e-02, 3.27274315e-02, 1.59058329e-02,
          2.13805512e-02, 1.29696894e-02, 1.46622509e-02, 1.38008632e-02,
          2.35954542e-02, 8.69768485e-03, 1.90508496e-02, 7.09573785e-03,
          1.50053976e-02, 2.41817031e-02, 2.77965833e-02, 2.66272277e-02,
          2.15010550e-02, 1.56024843e-02, 8.95067956e-03, 1.49272960e-02,
          7.48988092e-02, 1.90690339e-01, 7.37264454e-02, 6.66908026e-02,
          3.34335864e-02, 2.54290421e-02, 2.99461056e-02, 2.77018528e-02,
          2.28753407e-02, 2.67247632e-02, 3.27643454e-02, 2.22901870e-02,
          1.83843356e-02, 2.07217317e-02, 1.73491705e-02, 1.25061404e-02,
          8.11129436e-02, 4.95163016e-02, 2.21765433e-02, 2.12274604e-02,
          4.35083136e-02 ]
      - [ 5.42186975e-01, 5.08781195e-01, 4.23857659e-01, 4.70324665e-01,
          4.98360693e-01, 4.10978526e-01, 3.46788257e-01, 2.32910141e-01,
          4.07800317e-01, 4.16767657e-01, 4.18850213e-01, 3.81203175e-01,
          2.45343521e-01, 3.35507452e-01, 3.00137192e-01, 8.80210921e-02,
          6.19534135e-01, 5.72518647e-01, 4.92581844e-01, 4.52232182e-01,
          4.06478196e-01, 3.76752466e-01, 3.29557270e-01, 2.29212210e-01,
          5.83015919e-01, 5.56173921e-01, 3.08710754e-01, 2.23194093e-01,
          2.08960503e-01, 2.24696591e-01, 1.14733413e-01, 1.69333428e-01,
          4.08036947e-01, 4.14152771e-01, 3.71738046e-01, 3.47809136e-01,
          2.61306077e-01, 1.66137978e-01, 7.29496107e-02, 6.11873865e-02,
          1.86650530e-01, 1.64767310e-01, 1.04422852e-01, 7.30648190e-02,
          6.99330121e-02, 6.27001002e-02, 4.87476699e-02, 3.49494852e-02,
          6.59523830e-02, 5.81564680e-02, 5.17689362e-02, 5.72185814e-02,
          5.36550730e-02, 3.36604826e-02, 3.61136496e-02, 2.10695546e-02,
          2.74479147e-02, 2.29293797e-02, 2.57843435e-02, 2.26633977e-02,
          2.14001313e-02, 2.13625655e-02, 2.22927723e-02, 1.33706015e-02,
          4.68884051e-01, 4.23558921e-01, 3.72547567e-01, 2.41964176e-01,
          5.82810640e-01, 3.69179726e-01, 3.04221958e-01, 2.10709065e-01,
          2.93401867e-01, 2.24258706e-01, 1.40019283e-01, 5.44585399e-02,
          4.36215363e-02, 3.93588133e-02, 3.25195640e-02, 2.32116450e-02,
          4.61108327e-01, 2.82360703e-01, 1.50160223e-01, 6.25522584e-02,
          2.39045367e-01 ]
      - [ 6.78538287e-04, 5.47813252e-03, 9.35434084e-03, 2.30727475e-02,
          1.42828384e-02, 1.77796204e-02, 6.09407993e-03, 9.70242918e-03,
          1.79398153e-03, 1.20652036e-03, 7.72973697e-04, 1.20555831e-03,
          6.17340161e-03, 6.81404257e-04, 6.74200070e-04, 7.96411070e-04,
          8.25114455e-03, 1.02100093e-02, 2.66233254e-02, 1.95031524e-01,
          1.72294959e-01, 1.12153500e-01, 1.20458648e-01, 3.95473093e-02,
          6.95432629e-03, 7.77377980e-03, 5.38177229e-03, 2.08065156e-02,
          7.86508992e-03, 3.13543854e-03, 1.63902401e-03, 1.07010826e-03,
          7.76538765e-03, 5.96156809e-03, 1.59124583e-02, 2.56027840e-03,
          1.55317364e-03, 5.56966232e-04, 1.13409013e-03, 2.23362981e-03,
          2.12332979e-02, 9.90916602e-03, 1.82245318e-02, 2.78954934e-02,
          8.69594701e-03, 1.58920176e-02, 1.52691430e-03, 5.85515099e-03,
          5.45834042e-02, 6.98329583e-02, 8.74156654e-02, 4.63941321e-02,
          3.93978693e-02, 6.97665066e-02, 5.38463145e-02, 4.85435873e-02,
          4.35097590e-02, 7.75352493e-02, 1.03097491e-01, 4.14172858e-02,
          8.88347030e-02, 7.68196359e-02, 5.26683778e-02, 2.44708732e-02,
          2.28929310e-03, 8.60140566e-03, 9.72931646e-03, 4.31677978e-03,
          8.29731487e-03, 6.19607866e-02, 7.38622472e-02, 4.06787731e-02,
          1.12173557e-02, 1.61481909e-02, 6.67452626e-03, 2.68744631e-03,
          6.13653436e-02, 6.95811510e-02, 6.87046796e-02, 4.48822901e-02,
          2.02872008e-02, 3.21467780e-02, 3.95780094e-02, 3.07372361e-02,
          3.06873061e-02 ]
      - [ 2.87680756e-02, 1.93670213e-01, 2.32889503e-01, 2.63018906e-01,
          2.56151646e-01, 1.71951383e-01, 1.25701129e-01, 5.89601919e-02,
          4.35809232e-02, 2.79407829e-01, 3.25556338e-01, 3.16937894e-01,
          2.98085451e-01, 1.85619950e-01, 1.41100422e-01, 9.42118615e-02,
          4.39395867e-02, 3.27754766e-01, 3.85386229e-01, 3.73953134e-01,
          3.09726477e-01, 2.11096019e-01, 1.59749091e-01, 8.98526907e-02,
          7.82730407e-04, 2.88936496e-01, 3.52505744e-01, 5.94063569e-03,
          2.40161747e-01, 2.48479530e-01, 1.86088204e-01, 1.15907751e-01,
          7.20737055e-02, 1.85563806e-02, 3.53866406e-02, 2.75543667e-02,
          6.90790415e-02, 1.83469489e-01, 1.43856212e-01, 2.43090525e-01,
          2.18244895e-01, 7.38980412e-01, 4.38273810e-02, 1.87411606e-02,
          4.75209430e-02, 2.12139487e-02, 2.72797942e-02, 5.46689868e-01,
          3.50870341e-01, 9.70269203e-01, 2.80870795e-01, 2.34733611e-01,
          2.05503672e-01, 1.17909551e-01, 1.46745648e-02, 4.16703343e-01,
          5.52750945e-01, 8.41556609e-01, 6.66467190e-01, 9.05515313e-01,
          7.33999610e-01, 6.12199664e-01, 4.74727005e-01, 3.65655214e-01,
          1.36356771e-01, 2.84600675e-01, 2.27952108e-01, 1.04993403e-01,
          1.65353388e-01, 2.79446423e-01, 2.52365947e-01, 1.37899429e-01,
          2.61963844e-01, 3.13773863e-02, 8.03208500e-02, 2.40229100e-01,
          6.78861797e-01, 5.21896720e-01, 4.17403132e-01, 3.17940027e-01,
          2.16439322e-01, 1.80802733e-01, 3.73524934e-01, 2.63973266e-01,
          2.58685052e-01 ]
      - [ 4.04381245e-01, 3.74873132e-01, 3.40987474e-01, 2.18352616e-01,
          2.18134224e-01, 4.35738176e-01, 2.87506819e-01, 2.28315592e-01,
          4.71543223e-01, 4.17310387e-01, 3.26881975e-01, 2.56050855e-01,
          2.29132578e-01, 6.52284697e-02, 3.46594378e-02, 1.16392590e-01,
          2.69954503e-01, 3.28535363e-02, 2.63085607e-02, 2.66687013e-02,
          1.45485569e-02, 5.77513035e-03, 2.04207078e-02, 4.73750941e-02,
          9.59057361e-03, 3.50940339e-02, 1.68218277e-02, 1.61417574e-02,
          2.19279658e-02, 1.48915369e-02, 1.07507333e-02, 1.02772852e-02,
          4.60188717e-01, 4.06820267e-01, 3.06903899e-01, 6.77086692e-03,
          2.57773641e-02, 2.68646218e-02, 3.75960693e-02, 3.45140621e-02,
          2.71440864e-01, 1.95358291e-01, 4.90950257e-01, 6.86993226e-02,
          7.07348809e-02, 2.68227369e-01, 2.65521526e-01, 2.10062921e-01,
          4.82402116e-01, 1.68140039e-01, 4.91378635e-01, 7.88120776e-02,
          4.03186791e-02, 3.57162148e-01, 3.49059999e-01, 2.59800255e-01,
          1.04307130e-01, 1.49709746e-01, 8.13317373e-02, 7.89344460e-02,
          1.89104035e-01, 3.54003102e-01, 1.97790876e-01, 1.05423763e-01,
          4.17026997e-01, 2.85568237e-01, 2.37058356e-01, 1.66718617e-01,
          8.68731588e-02, 2.14852132e-02, 1.42857973e-02, 2.22059544e-02,
          3.33452046e-01, 2.18331084e-01, 9.79010612e-02, 1.36923641e-01,
          2.26139754e-01, 1.82614222e-01, 2.35146999e-01, 2.28018716e-01,
          2.02738404e-01, 1.10067181e-01, 2.40134269e-01, 1.74497604e-01,
          1.81859374e-01 ]
      - [ 7.80018717e-02, 3.10261935e-01, 8.51586223e-01, 6.79585218e-01,
          5.81146359e-01, 4.41827059e-01, 3.31705421e-01, 2.39193156e-01,
          2.33704671e-01, 5.36984086e-01, 7.65218198e-01, 5.28069913e-01,
          3.64796042e-01, 2.74871796e-01, 1.85250252e-01, 1.25136510e-01,
          3.43519181e-01, 4.65186954e-01, 6.91758811e-01, 3.71701360e-01,
          3.22884262e-01, 2.70503044e-01, 1.83100745e-01, 9.79542583e-02,
          3.93176645e-01, 4.33019012e-01, 4.69640404e-01, 3.13756704e-01,
          2.73410350e-01, 2.42507562e-01, 1.08481400e-01, 8.30213875e-02,
          8.09736401e-02, 3.96384418e-01, 4.91353869e-01, 3.01520854e-01,
          2.25066274e-01, 1.33156359e-01, 6.44171536e-02, 7.57267475e-02,
          1.48335947e-02, 2.16025487e-02, 1.30244931e-02, 2.01934017e-02,
          7.98525736e-02, 6.10870980e-02, 7.87315369e-02, 4.21837606e-02,
          4.62008566e-02, 2.69979537e-02, 6.53480068e-02, 8.95441547e-02,
          2.23334413e-02, 2.06543356e-02, 4.15073894e-02, 5.52817658e-02,
          1.86913282e-01, 1.61565378e-01, 1.46983817e-01, 1.53070688e-01,
          6.86502531e-02, 2.46513914e-02, 3.42986770e-02, 2.82403901e-02,
          2.89738148e-01, 7.06114888e-01, 4.15660322e-01, 2.20321327e-01,
          4.08725470e-01, 4.61714298e-01, 2.77326316e-01, 1.18139446e-01,
          1.28448546e-01, 2.06523150e-01, 1.24790579e-01, 6.52647987e-02,
          1.05419368e-01, 1.13736667e-01, 3.40723544e-02, 3.98320556e-02,
          4.66573209e-01, 2.57861853e-01, 1.38531938e-01, 6.59899414e-02,
          2.32239246e-01 ]
      - [ 3.52259190e-03, 4.00793040e-03, 1.58688072e-02, 8.40255469e-02,
          6.97563440e-02, 9.49670374e-02, 1.26195565e-01, 9.04505849e-02,
          6.36613835e-03, 6.72585890e-03, 6.30111946e-03, 4.65521216e-03,
          2.35330360e-03, 1.19463848e-02, 8.89624506e-02, 6.49713576e-02,
          6.59094425e-03, 8.88652354e-03, 7.49193551e-03, 5.51026734e-03,
          2.12136726e-03, 3.23297194e-04, 4.85014374e-04, 4.33989451e-04,
          3.23459923e-01, 4.21227217e-01, 6.02724850e-01, 7.46834636e-01,
          3.18275243e-01, 1.95079332e-03, 1.80012971e-01, 3.03498060e-01,
          3.69000509e-02, 3.16260345e-02, 2.70253010e-02, 4.82635060e-03,
          3.85648198e-03, 2.73404643e-03, 5.39236665e-02, 5.51470459e-01,
          8.53215531e-03, 1.05638765e-02, 1.28591470e-02, 1.24968532e-02,
          8.72356631e-03, 6.05229242e-03, 1.83451008e-02, 5.43879196e-02,
          4.66696434e-02, 1.06146932e-01, 1.11232549e-01, 8.20954740e-02,
          7.32581988e-02, 3.44188035e-01, 9.57218647e-01, 6.13011777e-01,
          2.89447270e-02, 6.72316402e-02, 3.79597470e-02, 3.49258035e-02,
          1.94131434e-02, 1.58774108e-01, 7.46169806e-01, 2.05396488e-01,
          5.15562994e-03, 2.77126711e-02, 4.47557680e-02, 9.26449895e-02,
          1.90041155e-01, 3.40640426e-01, 8.06676745e-02, 1.21107504e-01,
          2.19055302e-02, 1.43019129e-02, 5.34159690e-03, 1.69531792e-01,
          6.22482374e-02, 6.65533990e-02, 1.48908377e-01, 6.30449176e-01,
          1.40887469e-01, 8.47939849e-02, 4.12522703e-02, 2.38557726e-01,
          1.26372874e-01 ]
      - [ 5.86615701e-04, 1.60953845e-03, 1.49875268e-01, 1.83689017e-02,
          4.72488664e-02, 7.00208694e-02, 1.01140551e-01, 6.02853931e-02,
          9.22733843e-02, 3.20581384e-02, 1.12230197e-01, 8.85017440e-02,
          8.58231336e-02, 1.67520344e-01, 1.10556759e-01, 1.29899979e-01,
          1.23361945e-01, 1.74017131e-01, 8.81888270e-02, 9.92937833e-02,
          1.64386034e-01, 2.15561986e-01, 1.12547055e-01, 8.92414078e-02,
          2.26968303e-01, 1.88901037e-01, 3.81528318e-01, 3.59204829e-01,
          1.92959145e-01, 1.38354823e-01, 7.39213303e-02, 1.13326281e-01,
          7.91852102e-02, 3.39702517e-01, 2.26815373e-01, 1.52741909e-01,
          6.18839338e-02, 1.66941658e-01, 1.50867119e-01, 5.88996485e-02,
          1.53390735e-01, 1.66307211e-01, 9.62190330e-02, 1.36707172e-01,
          1.02545016e-01, 1.86234370e-01, 9.35557857e-02, 4.35166024e-02,
          1.55450761e-01, 2.74228811e-01, 5.93084320e-02, 2.67348718e-02,
          4.94682938e-02, 4.74018566e-02, 1.89513210e-02, 8.60123709e-02,
          1.52831867e-01, 2.47602351e-02, 7.25399017e-01, 1.08028494e-01,
          9.04211327e-02, 3.85292739e-01, 1.32539228e-01, 1.06390364e-01,
          3.16319205e-02, 9.22440290e-02, 9.26533043e-02, 1.00470670e-01,
          1.78312093e-01, 2.32053936e-01, 1.77815497e-01, 9.72590148e-02,
          1.84646428e-01, 1.53120875e-01, 1.29401252e-01, 8.67097899e-02,
          1.51817918e-01, 2.29867697e-01, 1.43146008e-01, 8.59733224e-02,
          1.33560494e-01, 1.17049620e-01, 1.79863229e-01, 1.11307591e-01,
          1.35445237e-01 ]
      - [ 4.12261672e-02, 4.91236597e-02, 1.24067448e-01, 1.05431534e-01,
          4.69705686e-02, 1.07096680e-01, 8.43502134e-02, 5.56113422e-02,
          3.97293940e-02, 1.82444006e-01, 1.18765220e-01, 5.88133894e-02,
          6.40398115e-02, 1.37121171e-01, 1.72232315e-01, 8.02204981e-02,
          8.66915509e-02, 7.74234533e-02, 2.11418107e-01, 1.75225064e-01,
          1.80843443e-01, 9.38547924e-02, 1.91123217e-01, 1.41267553e-01,
          8.24497640e-02, 1.44946471e-01, 3.04169506e-01, 2.08618402e-01,
          1.87200710e-01, 1.13172770e-01, 2.02160433e-01, 1.61096931e-01,
          1.17774315e-01, 1.05878532e-01, 2.30840594e-01, 3.05973798e-01,
          1.29149944e-01, 8.80635679e-02, 5.61361685e-02, 5.23618832e-02,
          4.71855909e-01, 4.11021441e-01, 2.30577990e-01, 1.24260530e-01,
          8.55776817e-02, 6.29994124e-02, 7.32489973e-02, 4.77885194e-02,
          4.90946710e-01, 2.00461924e-01, 1.86874419e-01, 1.33300602e-01,
          9.78767723e-02, 8.50782841e-02, 1.08224437e-01, 4.98003140e-02,
          1.72066748e-01, 1.92764819e-01, 1.36033028e-01, 1.10551290e-01,
          1.54519111e-01, 9.78327766e-02, 1.39449224e-01, 6.40638471e-02,
          7.81308040e-02, 1.01769403e-01, 8.88070613e-02, 9.81035903e-02,
          9.78778154e-02, 2.24857777e-01, 1.43767923e-01, 1.73912033e-01,
          2.76632547e-01, 2.22913235e-01, 9.14476514e-02, 5.73838912e-02,
          2.64060050e-01, 1.41689837e-01, 1.08826734e-01, 9.03844535e-02,
          1.25658959e-01, 1.26147658e-01, 2.26323918e-01, 8.70106816e-02,
          1.41285300e-01 ]
