%YAML:1.0
---
opencv_ml_svm:
   format: 3
   svmType: C_SVC
   kernel:
      type: LINEAR
   C: 1.0000000000000000e-04
   term_criteria: { epsilon:1.1920928955078125e-07, iterations:1000 }
   var_count: 21
   class_count: 2
   class_labels: !!opencv-matrix
      rows: 2
      cols: 1
      dt: i
      data: [ 0, 1 ]
   sv_total: 1
   support_vectors:
      - [ -4.47340381e-06, -1.80414481e-05, -1.93626656e-05,
          1.45133408e-05, 1.38095138e-05, -4.20765318e-05,
          -2.95008704e-05, -1.04050268e-05, 4.59390958e-06,
          -3.31473384e-05, -9.18830847e-06, 5.97219696e-06,
          2.04540756e-05, -1.39244394e-05, -1.42981717e-05,
          1.79416038e-05, -1.26955165e-05, -1.11888021e-05,
          -5.50600998e-06, 1.06873195e-07, -7.32087801e-06 ]
   uncompressed_sv_total: 2000
   uncompressed_support_vectors:
      - [ 3.88541222e-02, 1.26154587e-01, 2.45636940e-01, 1.28023267e-01,
          5.54309964e-01, 1.08054886e-02, 3.61810923e-01, 8.19837272e-01,
          5.01919352e-03, 1.86292257e-03, 4.14661840e-02, 1.00333309e-02,
          1.25992449e-03, 2.16694060e-03, 4.27788356e-04, 2.28016335e-03,
          1.82531044e-01, 3.88827085e-01, 2.57724547e-03, 1.35518676e-02,
          1.46871820e-01 ]
      - [ 4.49363798e-01, 5.79746783e-01, 4.39914644e-01, 1.63741469e-01,
          5.55481464e-02, 4.04288560e-01, 2.34870061e-01, 2.86694348e-01,
          2.17201009e-01, 2.59169132e-01, 3.17738876e-02, 1.23613596e-01,
          3.94031525e-01, 3.87386650e-01, 2.64245808e-01, 3.02574579e-02,
          3.72236818e-01, 2.81305134e-01, 3.14447075e-01, 1.12472691e-01,
          2.70115405e-01 ]
      - [ 3.14675868e-02, 1.94913894e-02, 1.32971510e-01, 2.17532337e-01,
          5.07589579e-01, 4.46478948e-02, 3.67324390e-02, 1.77096799e-01,
          2.16591820e-01, 1.30145758e-01, 1.05716676e-01, 9.46485102e-02,
          1.45160198e-01, 2.34460205e-01, 2.14327559e-01, 3.82351577e-02,
          1.50799111e-01, 1.41083270e-01, 1.81589484e-01, 1.13231979e-01,
          1.46675959e-01 ]
      - [ 1.28151895e-02, 9.09758545e-03, 4.47745295e-03, 4.87676542e-03,
          1.09716192e-01, 2.46596456e-01, 4.77539971e-02, 1.26757415e-03,
          2.33440264e-03, 5.11457538e-03, 3.71128554e-03, 1.67117527e-04,
          4.25079688e-02, 1.31916106e-01, 1.16039127e-01, 4.01446074e-02,
          9.45563540e-02, 1.45939477e-02, 4.54682633e-02, 4.00155336e-02,
          4.86585237e-02 ]
      - [ 3.17850232e-01, 2.17151374e-01, 1.32299185e-01, 1.25861794e-01,
          1.27033561e-01, 7.11152405e-02, 1.80407286e-01, 1.98212445e-01,
          4.03501809e-01, 2.61781961e-01, 1.17000462e-02, 2.58570939e-01,
          8.49043876e-02, 7.77034834e-03, 8.66632559e-04, 2.84151756e-03,
          1.83287621e-01, 1.59195185e-01, 1.89489633e-01, 6.84947819e-02,
          1.50116801e-01 ]
      - [ 3.43537182e-01, 4.16694582e-01, 1.99904352e-01, 7.51825422e-02,
          1.89890802e-01, 3.40605937e-02, 6.64279312e-02, 2.91303843e-02,
          5.72088063e-02, 1.24826521e-01, 2.29367148e-02, 2.23540813e-02,
          2.90664192e-02, 1.10743858e-03, 2.57976117e-05, 3.07085575e-05,
          2.46045783e-01, 9.26613063e-02, 5.30522950e-02, 1.13368258e-02,
          1.00774057e-01 ]
      - [ 6.27382472e-03, 4.53347117e-02, 3.93334143e-02, 2.87963380e-03,
          2.07195920e-03, 3.16999480e-02, 9.72508863e-02, 2.04408914e-02,
          1.76854543e-02, 3.62690315e-02, 3.60257877e-03, 4.14037239e-03,
          5.72469458e-02, 1.03260398e-01, 9.14944857e-02, 5.36046401e-02,
          2.13451106e-02, 3.99762057e-02, 5.36154583e-02, 3.82105187e-02,
          3.82868238e-02 ]
      - [ 1.03710562e-01, 6.56240135e-02, 1.48817793e-01, 3.19030434e-02,
          1.24547100e-02, 2.22307956e-03, 2.44025444e-03, 2.66417093e-03,
          4.68732864e-02, 5.28857671e-03, 4.72732913e-03, 5.84323294e-02,
          8.17219093e-02, 5.40722907e-02, 8.22999328e-02, 7.61903003e-02,
          4.60030884e-02, 4.64563146e-02, 4.69890162e-02, 5.54124713e-02,
          4.87152226e-02 ]
      - [ 1.12391543e-03, 2.75434013e-02, 3.09574455e-02, 1.14769191e-02,
          2.99645364e-01, 2.51622908e-02, 4.93628383e-01, 4.62485790e-01,
          3.60553920e-01, 4.10380870e-01, 5.12803420e-02, 7.39205023e-03,
          1.58233315e-01, 2.62137294e-01, 2.88446605e-01, 5.12292087e-02,
          8.83687437e-02, 2.49637127e-01, 2.97826350e-01, 9.95870531e-02,
          1.83854818e-01 ]
      - [ 1.40808569e-02, 7.53225107e-03, 2.03106508e-01, 2.38542676e-01,
          9.64297652e-02, 7.45855987e-01, 8.45586881e-03, 1.05665550e-02,
          2.69054562e-01, 3.25414896e-01, 2.44650226e-02, 1.49672311e-02,
          2.12059885e-01, 2.73961008e-01, 4.90089715e-01, 2.16149800e-02,
          2.15974718e-01, 1.15167908e-01, 2.70122588e-01, 1.37784228e-01,
          1.84762359e-01 ]
      - [ 1.65945366e-01, 2.85393924e-01, 8.66588056e-02, 2.64631540e-01,
          1.05026186e-01, 1.65702291e-02, 1.95905734e-02, 5.81245162e-02,
          1.68847889e-01, 1.74953163e-01, 1.46304429e-01, 1.60434142e-01,
          1.89427197e-01, 2.11047053e-01, 2.21072212e-01, 2.12945998e-01,
          1.43233925e-01, 1.07251361e-01, 1.86068833e-01, 1.85189188e-01,
          1.55435830e-01 ]
      - [ 2.73999572e-02, 7.70233631e-01, 7.64056981e-01, 2.99869813e-02,
          6.78061554e-03, 2.92409696e-02, 1.95047587e-01, 7.35653099e-04,
          1.85858663e-02, 6.07145624e-03, 1.29300763e-03, 1.05803162e-02,
          2.27703843e-02, 1.29696010e-02, 9.54068545e-03, 1.09892488e-02,
          2.08413795e-01, 2.47456789e-01, 1.50993271e-02, 8.10081419e-03,
          1.19767673e-01 ]
      - [ 5.21136727e-03, 2.60214601e-03, 1.07572824e-02, 4.73048654e-04,
          5.48395328e-03, 1.98777199e-01, 4.01449442e-01, 2.63551716e-03,
          1.60279572e-02, 2.77418550e-02, 1.02402437e-02, 7.99195841e-03,
          1.44572146e-02, 8.39008857e-03, 7.57106487e-03, 9.36271157e-03,
          5.30186668e-02, 1.03828818e-01, 1.66542791e-02, 8.79149511e-03,
          4.55733128e-02 ]
      - [ 6.90605678e-03, 2.86474884e-01, 4.81473893e-01, 5.35840929e-01,
          2.74378005e-02, 1.27339251e-02, 1.10681772e-01, 3.01311910e-01,
          3.19429114e-02, 7.73048997e-02, 1.04141170e-02, 2.17112675e-02,
          6.63428605e-02, 5.88035919e-02, 6.14884645e-02, 5.87168932e-02,
          8.33881721e-02, 3.57327104e-01, 5.85985631e-02, 3.80826853e-02,
          1.34349123e-01 ]
      - [ 8.17561522e-03, 1.51210189e-01, 6.43989220e-02, 3.34202088e-02,
          9.45101827e-02, 1.55768692e-01, 2.98689632e-03, 4.26977277e-02,
          6.78831264e-02, 2.37826407e-01, 3.83229703e-02, 7.35808983e-02,
          1.56644389e-01, 1.45685866e-01, 1.31405279e-01, 5.30929379e-02,
          1.02416173e-01, 3.58759388e-02, 1.52009949e-01, 7.41005167e-02,
          9.11006406e-02 ]
      - [ 8.20954591e-02, 2.64189363e-01, 3.61908138e-01, 2.52093345e-01,
          5.86653173e-01, 5.55637836e-01, 1.07046649e-01, 5.59555352e-01,
          3.52514684e-01, 2.89126694e-01, 7.93236494e-01, 3.37961465e-01,
          6.19654775e-01, 3.74541104e-01, 3.13787103e-01, 1.06310487e-01,
          3.72143954e-01, 3.20150882e-01, 4.08959329e-01, 3.87823880e-01,
          3.72269511e-01 ]
      - [ 1.05243832e-01, 9.13208500e-02, 3.39678049e-01, 8.70810002e-02,
          2.18414590e-01, 7.34926611e-02, 2.45764889e-02, 4.31985766e-01,
          1.10723071e-01, 2.94276893e-01, 2.16654003e-01, 1.95411921e-01,
          2.12017626e-01, 8.62740278e-01, 3.79717797e-01, 3.17872107e-01,
          1.22117981e-01, 2.20830321e-01, 3.69939476e-01, 2.77413964e-01,
          2.47575432e-01 ]
      - [ 1.65775772e-02, 6.02360032e-02, 9.18337889e-03, 4.70163533e-04,
          1.96884107e-02, 8.45452771e-03, 2.03392152e-02, 1.11592264e-04,
          5.29221296e-01, 3.56141418e-01, 2.85551045e-02, 2.43796855e-01,
          7.93889701e-01, 2.86752015e-01, 2.92176068e-01, 1.48196861e-01,
          2.62391306e-02, 7.52608757e-03, 4.91501093e-01, 1.78181216e-01,
          1.75861880e-01 ]
      - [ 4.25920337e-01, 3.35783839e-01, 3.37714165e-01, 2.83885926e-01,
          3.84580314e-01, 2.64742952e-02, 3.62443745e-01, 1.24568723e-01,
          6.63331151e-02, 7.25516975e-02, 1.81077376e-01, 1.03970103e-01,
          1.42615736e-01, 1.30882710e-01, 1.07601427e-01, 4.81960773e-02,
          2.93189704e-01, 2.77153134e-01, 1.03095815e-01, 1.10211246e-01,
          1.95912480e-01 ]
      - [ 2.09328569e-02, 2.01045759e-02, 1.64522789e-02, 6.00293279e-03,
          4.80059952e-01, 1.84370518e-01, 2.13614106e-01, 1.28262192e-01,
          2.79893950e-02, 1.16121009e-01, 1.78869545e-01, 2.56241858e-02,
          2.64985673e-02, 1.15664452e-02, 5.23842731e-03, 1.49641752e-01,
          1.76366970e-01, 9.10828784e-02, 4.55438569e-02, 8.98434818e-02,
          1.00709297e-01 ]
      - [ 5.95611036e-01, 9.06716406e-01, 9.58536625e-01, 8.65559101e-01,
          2.12298222e-02, 1.36698913e-02, 1.20984979e-01, 9.00818050e-01,
          5.28551638e-02, 5.54615781e-02, 5.45377061e-02, 2.83981487e-02,
          3.40660736e-02, 4.66116033e-02, 5.04904762e-02, 4.09072749e-02,
          3.84306788e-01, 7.11474717e-01, 4.72486056e-02, 4.35834043e-02,
          2.96653390e-01 ]
      - [ 1.24356588e-02, 2.13763840e-03, 1.40979514e-03, 5.03964489e-03,
          2.81745903e-02, 2.01514252e-02, 2.11949851e-02, 1.87874734e-01,
          1.31049782e-01, 5.53427935e-01, 2.31112748e-01, 3.86250280e-02,
          1.36745721e-01, 5.45627363e-02, 1.78337246e-02, 6.14830963e-02,
          1.57248285e-02, 5.38797900e-02, 2.18946531e-01, 8.72636437e-02,
          9.39536989e-02 ]
      - [ 3.47108126e-01, 8.49977493e-01, 9.84777987e-01, 4.71735895e-02,
          2.74841543e-02, 3.67720961e-03, 8.09940137e-03, 3.10784206e-02,
          3.40604633e-02, 8.34565237e-03, 3.68655697e-02, 3.17607410e-02,
          4.07797620e-02, 3.81714217e-02, 8.20400715e-02, 1.22835059e-02,
          3.07061762e-01, 2.67782360e-01, 3.03393267e-02, 4.07374725e-02,
          1.61480218e-01 ]
      - [ 4.84169759e-02, 4.21510518e-01, 2.45292634e-02, 1.51612595e-01,
          1.08980751e-02, 2.36078016e-02, 1.36594504e-01, 2.28953063e-01,
          3.82269733e-02, 1.73315510e-01, 1.12747237e-01, 4.58899839e-03,
          3.66261043e-02, 3.46460044e-02, 1.39027024e-02, 1.34239427e-03,
          1.26108348e-01, 1.35422349e-01, 7.07036480e-02, 3.31453346e-02,
          9.13449228e-02 ]
      - [ 1.58697665e-02, 1.87887907e-01, 2.29849771e-01, 2.61218667e-01,
          4.63815257e-02, 2.32364789e-01, 3.17597273e-03, 4.89422167e-03,
          5.18701226e-03, 2.39439577e-01, 6.77086692e-03, 7.09622055e-02,
          1.08743627e-02, 3.05472255e-01, 3.43745737e-03, 5.73278079e-03,
          1.20626003e-01, 1.24784656e-01, 1.40243292e-01, 2.17258278e-02,
          1.01844944e-01 ]
      - [ 2.08021015e-01, 8.56101066e-02, 9.82670635e-02, 1.02286473e-01,
          2.55020857e-02, 1.13004884e-02, 5.13701513e-02, 7.63462633e-02,
          4.30409648e-02, 3.09929512e-02, 4.68997024e-02, 2.93969568e-02,
          4.54824418e-02, 5.15071228e-02, 1.82763077e-02, 5.13150319e-02,
          8.26084241e-02, 8.20674896e-02, 4.27558720e-02, 3.64720002e-02,
          6.09759465e-02 ]
      - [ 5.17971277e-01, 3.63049768e-02, 1.01689994e-02, 3.89822223e-03,
          1.75103188e-01, 1.35400519e-01, 3.10728908e-01, 6.14710478e-03,
          3.22725112e-03, 3.55976045e-01, 3.90811302e-02, 7.02456087e-02,
          5.16319089e-03, 4.49938737e-02, 1.18993454e-01, 1.47269487e-01,
          2.16194987e-01, 8.27358142e-02, 1.02340095e-01, 9.38974172e-02,
          1.23792082e-01 ]
      - [ 4.51677948e-01, 9.07056313e-03, 3.36596906e-01, 4.27478068e-02,
          2.11738482e-01, 6.50024265e-02, 5.37124723e-02, 7.30774850e-02,
          5.00830673e-02, 7.91208893e-02, 1.21267766e-01, 8.42795968e-02,
          7.72873163e-02, 1.01824276e-01, 1.63547680e-01, 1.46444365e-01,
          1.84372365e-01, 1.26533672e-01, 7.70788863e-02, 1.28884852e-01,
          1.29217446e-01 ]
      - [ 6.03471771e-02, 4.56322879e-02, 5.48451766e-03, 4.24329657e-03,
          2.98467763e-02, 7.70797953e-03, 7.40779117e-02, 8.99239164e-03,
          2.98258811e-01, 2.90628791e-01, 4.00031984e-01, 4.33324754e-01,
          1.11389183e-01, 7.22599387e-01, 7.95312881e-01, 1.60222948e-01,
          3.58835571e-02, 2.31995285e-02, 3.55719030e-01, 4.47223127e-01,
          2.15506315e-01 ]
      - [ 8.66812468e-02, 8.08831453e-02, 4.43993360e-02, 6.43949071e-03,
          1.15009546e-02, 3.72596532e-02, 5.48690110e-02, 2.73411977e-03,
          1.20245479e-02, 9.20682028e-03, 1.84900478e-01, 3.84752154e-01,
          7.53098309e-01, 6.46605622e-03, 3.64239752e-01, 2.94195712e-01,
          5.40812500e-02, 2.71104891e-02, 1.95198923e-01, 3.07022035e-01,
          1.45853177e-01 ]
      - [ 6.32756448e-04, 3.07948925e-02, 1.02549657e-01, 8.48501682e-01,
          1.28847745e-03, 1.73289925e-02, 9.16853964e-01, 7.89603233e-01,
          1.75280459e-02, 2.94572264e-01, 4.78648156e-01, 8.69289134e-03,
          2.20225435e-02, 3.37175503e-02, 3.41451094e-02, 3.11651621e-02,
          1.25112794e-02, 6.64377153e-01, 9.19601023e-02, 1.38162836e-01,
          2.26752847e-01 ]
      - [ 3.15327682e-02, 1.07796855e-01, 4.61286128e-01, 2.30055414e-02,
          1.91532988e-02, 2.51880407e-01, 2.16491997e-01, 3.87191713e-01,
          1.75677426e-02, 2.31630951e-02, 2.90006474e-02, 3.24647613e-02,
          1.96738355e-02, 3.03547010e-02, 3.49513814e-02, 3.30939218e-02,
          1.02590829e-01, 2.71993846e-01, 2.26898436e-02, 3.23776752e-02,
          1.07413054e-01 ]
      - [ 1.74865369e-02, 1.12164253e-02, 9.71718952e-02, 2.57919788e-01,
          1.41746178e-02, 1.75207958e-01, 6.93888187e-01, 7.71812260e-01,
          5.32425195e-03, 4.08594579e-01, 9.84980464e-02, 7.84458816e-02,
          9.48583111e-02, 5.37762456e-02, 9.02914181e-02, 3.37558210e-01,
          5.45213856e-02, 4.55198050e-01, 1.40638351e-01, 1.51198387e-01,
          2.00389042e-01 ]
      - [ 1.72379264e-03, 4.53067392e-01, 5.14790535e-01, 8.13331306e-02,
          6.79992884e-03, 1.55976973e-03, 1.11945018e-01, 9.96813774e-02,
          3.85394283e-02, 1.62252970e-02, 9.24271345e-03, 7.32547417e-03,
          5.48847429e-02, 6.68089762e-02, 5.88916764e-02, 1.80713221e-01,
          1.15787722e-01, 2.01937526e-01, 4.41146120e-02, 6.40432686e-02,
          1.06470779e-01 ]
      - [ 5.75707182e-02, 2.37030927e-02, 1.80366542e-02, 1.36772394e-02,
          1.01930052e-01, 1.33624017e-01, 1.68703467e-01, 9.19568539e-02,
          1.31545305e-01, 5.75882792e-02, 1.67734660e-02, 1.15566768e-01,
          3.56264450e-02, 2.26444528e-02, 3.46280992e-01, 4.82186973e-02,
          7.92069733e-02, 7.30935559e-02, 6.18511215e-02, 1.31709993e-01,
          8.64654109e-02 ]
      - [ 1.99304745e-02, 9.81448740e-02, 1.15995340e-01, 6.65130839e-02,
          6.42566532e-02, 5.60674556e-02, 8.72178376e-03, 6.11279495e-02,
          4.58552748e-01, 2.44217888e-01, 1.40261471e-01, 2.54489779e-01,
          7.85615861e-01, 7.78466046e-01, 5.14950991e-01, 4.68526930e-01,
          5.95998652e-02, 6.30895421e-02, 5.66713154e-01, 3.44557285e-01,
          2.58489966e-01 ]
      - [ 2.43973494e-01, 2.16470391e-01, 2.74467647e-01, 1.14337184e-01,
          5.73682822e-02, 1.54688716e-01, 5.40135875e-02, 9.87776294e-02,
          3.70037206e-03, 2.05994723e-03, 9.33722928e-02, 2.63260640e-02,
          4.75073233e-02, 2.64135841e-02, 1.40160263e-01, 2.39377394e-02,
          1.68125227e-01, 1.35399014e-01, 1.99203063e-02, 7.09490851e-02,
          9.85984132e-02 ]
      - [ 1.83119848e-01, 1.15011953e-01, 6.73080534e-02, 3.47236581e-02,
          1.17194690e-01, 1.17729697e-02, 1.21259829e-02, 6.12920523e-02,
          2.06720427e-01, 1.74773261e-02, 1.24814257e-01, 4.84346300e-02,
          1.24629438e-01, 1.26916230e-01, 3.06139197e-02, 2.47761654e-03,
          1.06774859e-01, 4.38624360e-02, 1.18935853e-01, 5.15851043e-02,
          8.02895650e-02 ]
      - [ 3.99173021e-01, 1.83648199e-01, 5.82080245e-01, 2.58511782e-01,
          1.60089850e-01, 9.56131697e-01, 8.94047379e-01, 5.18731289e-02,
          2.50698686e-01, 9.07137394e-02, 7.38082305e-02, 2.63791412e-01,
          4.63981181e-01, 2.36177981e-01, 9.14052874e-02, 9.08740386e-02,
          4.24760699e-01, 4.46628124e-01, 2.60392904e-01, 1.29969731e-01,
          3.15437853e-01 ]
      - [ 4.33370441e-01, 7.56095350e-02, 4.98540178e-02, 1.71902835e-01,
          2.97660735e-02, 9.64258090e-02, 2.12338343e-01, 2.64908075e-01,
          4.41977382e-03, 4.12707590e-02, 3.39546353e-01, 2.25194901e-01,
          1.37282908e-02, 4.10781093e-02, 1.21726394e-02, 8.57051313e-02,
          1.58792973e-01, 1.74750820e-01, 2.51242332e-02, 1.65654749e-01,
          1.31080687e-01 ]
      - [ 8.50662962e-03, 7.89150596e-03, 3.82161234e-03, 1.28583703e-02,
          4.84726299e-03, 4.26602885e-02, 3.99693362e-02, 9.66992520e-04,
          3.89547586e-01, 5.49800813e-01, 7.93993846e-02, 1.00290619e-01,
          1.53330088e-01, 1.58654660e-01, 1.23257972e-01, 1.02400914e-01,
          1.59764215e-02, 1.44040780e-02, 3.12833309e-01, 1.01337224e-01,
          1.11137755e-01 ]
      - [ 1.79248512e-01, 4.63926122e-02, 7.87344575e-03, 4.43171710e-03,
          8.47838759e-01, 3.26552033e-01, 8.17682408e-03, 1.78743561e-03,
          6.04690425e-03, 1.11366156e-02, 1.16563542e-03, 3.89474398e-03,
          3.06416713e-02, 2.12656166e-02, 7.37300366e-02, 6.00255653e-02,
          3.50007981e-01, 5.56735555e-03, 1.72727015e-02, 3.47039960e-02,
          1.01888008e-01 ]
      - [ 3.01629268e-02, 8.05013478e-02, 1.19956329e-01, 8.06534737e-02,
          2.25758880e-01, 1.83138132e-01, 1.10022344e-01, 3.50464284e-02,
          3.54541659e-01, 1.80741847e-02, 3.00110038e-02, 1.19563609e-01,
          7.57723570e-01, 3.03520977e-01, 9.71289128e-02, 1.90202996e-01,
          1.29890323e-01, 8.64196420e-02, 3.58465075e-01, 1.09226629e-01,
          1.71000421e-01 ]
      - [ 2.44598418e-01, 2.00509518e-01, 3.49986076e-01, 1.41078904e-01,
          2.30979547e-02, 5.96318170e-02, 6.63946569e-02, 1.81623816e-01,
          5.46737341e-03, 3.93441226e-03, 6.29150495e-03, 2.27362484e-01,
          6.50429055e-02, 3.16403270e-01, 4.31163490e-01, 1.27114385e-01,
          1.31959423e-01, 1.84770852e-01, 9.77119878e-02, 1.97982967e-01,
          1.53106302e-01 ]
      - [ 8.18791240e-03, 6.29792106e-04, 7.20841286e-04, 4.86730644e-03,
          8.27842206e-02, 5.83580136e-01, 6.14936114e-04, 4.16489271e-03,
          1.38650173e-02, 3.70501960e-03, 2.41675749e-02, 3.25319022e-02,
          6.90940619e-01, 3.35525215e-01, 6.92699730e-01, 1.77575231e-01,
          1.68795511e-01, 2.59199413e-03, 2.61008978e-01, 2.31743604e-01,
          1.66035026e-01 ]
      - [ 1.09488564e-02, 1.12322252e-02, 2.62116920e-02, 1.52348215e-02,
          4.71651018e-01, 1.09377816e-01, 1.50008798e-01, 2.44598389e-01,
          2.11527854e-01, 6.07934117e-01, 1.64485946e-01, 1.75007433e-01,
          4.39530373e-01, 6.47371888e-01, 2.11436421e-01, 1.10388175e-01,
          1.50802478e-01, 1.09013423e-01, 4.76591051e-01, 1.65329486e-01,
          2.25434095e-01 ]
      - [ 4.30715419e-02, 5.23265451e-02, 3.39568496e-01, 3.00393045e-01,
          1.69512033e-02, 1.51342256e-02, 2.75749773e-01, 5.28708935e-01,
          1.50572360e-02, 1.90847870e-02, 8.41264054e-03, 5.99631131e-01,
          2.72036400e-02, 4.22902443e-02, 2.69083586e-02, 1.66079774e-02,
          3.18708792e-02, 3.61105055e-01, 2.59089768e-02, 1.62890032e-01,
          1.45443738e-01 ]
      - [ 4.40514423e-02, 3.54572423e-02, 6.04932941e-02, 7.48986304e-02,
          5.51067851e-03, 3.27274472e-01, 5.53362444e-03, 4.62220609e-03,
          2.42304150e-03, 5.30647159e-01, 4.69816523e-03, 4.63502621e-03,
          3.90101284e-01, 1.63231522e-01, 1.16644828e-02, 9.59599763e-03,
          1.03073463e-01, 3.63869369e-02, 2.71600753e-01, 7.64841773e-03,
          1.04677394e-01 ]
      - [ 1.34963787e-03, 5.29326871e-03, 1.82996206e-02, 3.59011948e-01,
          1.28538668e-01, 7.23817497e-02, 5.25060296e-01, 8.00386608e-01,
          1.93259001e-01, 5.58025420e-01, 5.27014017e-01, 5.78869104e-01,
          1.98949352e-02, 4.05663811e-03, 8.36322363e-03, 4.65321302e-01,
          5.18908314e-02, 4.25689638e-01, 1.93809003e-01, 3.94891918e-01,
          2.66570330e-01 ]
      - [ 1.55376806e-03, 3.09890276e-03, 2.69993246e-02, 4.02125791e-02,
          1.51490420e-01, 2.53771126e-01, 2.46031642e-01, 2.95787275e-01,
          1.13542721e-01, 5.24872124e-01, 5.18107340e-02, 3.12577665e-01,
          6.81507140e-02, 4.53545213e-01, 6.43332958e-01, 6.47363067e-01,
          1.02478549e-01, 1.52257711e-01, 2.90027678e-01, 4.13771123e-01,
          2.39633769e-01 ]
      - [ 5.66676669e-02, 2.49598995e-02, 5.88294771e-03, 1.63182802e-02,
          3.58278528e-02, 3.75027508e-02, 6.90768752e-03, 8.96415114e-03,
          6.70043100e-03, 5.64569049e-03, 8.28583688e-02, 1.08510302e-02,
          6.09823801e-02, 6.93646595e-02, 6.93843216e-02, 6.50805533e-02,
          3.87395397e-02, 9.51826666e-03, 3.56732905e-02, 5.70435673e-02,
          3.52436677e-02 ]
      - [ 3.27684879e-02, 3.07286866e-02, 3.99405621e-02, 2.32855156e-02,
          4.26219068e-02, 5.96314371e-02, 1.38668835e-01, 5.17839119e-02,
          3.84219885e-01, 2.34280020e-01, 1.21778525e-01, 2.58307606e-02,
          5.61753884e-02, 9.93431807e-02, 7.86211640e-02, 7.04274029e-02,
          4.14376296e-02, 6.34197071e-02, 1.93504617e-01, 7.41644651e-02,
          9.31316018e-02 ]
      - [ 5.55391684e-02, 2.12699082e-02, 5.22733688e-01, 1.53060257e-02,
          9.00258403e-03, 1.69961266e-02, 2.94303477e-01, 3.07631008e-02,
          1.89030301e-02, 1.41365053e-02, 2.49516387e-02, 1.85253285e-02,
          8.50590914e-02, 7.90092424e-02, 5.92275150e-03, 5.23621915e-03,
          2.57019475e-02, 2.15776563e-01, 4.92769703e-02, 1.36589846e-02,
          7.61036128e-02 ]
      - [ 1.60410091e-01, 7.09687471e-01, 2.14802362e-02, 2.68853717e-02,
          2.67654192e-02, 3.88165712e-02, 4.66789603e-02, 6.16754591e-02,
          2.87383124e-02, 2.22045630e-02, 3.94666828e-02, 7.49569293e-03,
          1.33344159e-02, 2.13710759e-02, 1.77969802e-02, 3.40547273e-03,
          2.33919889e-01, 3.91800068e-02, 2.14120913e-02, 1.70412082e-02,
          7.78883025e-02 ]
      - [ 4.35106128e-01, 4.95207131e-01, 4.45133567e-01, 3.37064594e-01,
          6.80132627e-01, 5.05731463e-01, 4.36346740e-01, 3.09599876e-01,
          4.19906139e-01, 3.92856240e-01, 3.10431421e-01, 5.42380214e-02,
          4.18090969e-02, 5.07930033e-02, 3.69356871e-02, 1.85795054e-02,
          5.29044330e-01, 3.82036209e-01, 2.26341113e-01, 1.05046161e-01,
          3.10616940e-01 ]
      - [ 5.34015447e-02, 2.98848867e-01, 2.07365096e-01, 1.14814147e-01,
          9.84019116e-02, 3.90682876e-01, 2.28127211e-01, 1.32238135e-01,
          1.28030032e-01, 2.03026272e-02, 3.36823538e-02, 9.93988439e-02,
          8.23785901e-01, 4.44811672e-01, 3.34499896e-01, 6.08994722e-01,
          2.10333794e-01, 1.70636147e-01, 3.54232550e-01, 2.69143939e-01,
          2.51086593e-01 ]
      - [ 5.88551443e-03, 2.54115969e-01, 2.49618262e-01, 1.87162578e-01,
          2.27294471e-02, 6.07195757e-02, 1.73555747e-01, 1.27815872e-01,
          4.26256135e-02, 7.42240474e-02, 2.64560133e-02, 1.21190026e-02,
          5.87402999e-01, 6.02699518e-01, 1.30519107e-01, 4.79322337e-02,
          8.58626291e-02, 1.84538126e-01, 3.26738060e-01, 5.42565882e-02,
          1.62848860e-01 ]
      - [ 1.69166446e-01, 5.07830322e-01, 4.52605247e-01, 3.23901713e-01,
          1.40863657e-01, 4.01509523e-01, 3.27594459e-01, 2.17228770e-01,
          1.75812058e-02, 2.09306628e-02, 1.67055354e-02, 7.07731023e-02,
          1.77870363e-01, 1.00581095e-01, 1.20690219e-01, 1.08597139e-02,
          3.04842472e-01, 3.30332547e-01, 7.92408288e-02, 5.47571443e-02,
          1.92293227e-01 ]
      - [ 4.06262744e-03, 1.18352371e-04, 6.92744032e-02, 4.35755759e-01,
          2.55733803e-02, 3.96273751e-03, 3.90404135e-01, 1.42946064e-01,
          3.86283509e-02, 2.50070095e-02, 4.13345918e-02, 2.07013652e-01,
          8.24694782e-02, 2.50137985e-01, 2.01533854e-01, 1.83572799e-01,
          8.42927396e-03, 2.59595096e-01, 9.90607068e-02, 1.58363730e-01,
          1.31362200e-01 ]
      - [ 8.20612907e-03, 6.80082710e-03, 1.97059568e-03, 2.71930605e-01,
          5.35011105e-02, 5.48517406e-02, 1.04660407e-01, 6.55034423e-01,
          2.36892514e-02, 1.40428648e-03, 2.42536709e-01, 3.26936603e-01,
          5.86375110e-02, 7.54068941e-02, 2.91869223e-01, 1.82512581e-01,
          3.08399517e-02, 2.58399010e-01, 3.97844836e-02, 2.60963798e-01,
          1.47496819e-01 ]
      - [ 5.78917563e-02, 4.96239066e-02, 7.70937353e-02, 9.66427475e-02,
          3.74700189e-01, 2.14523211e-01, 1.35052681e-01, 1.88113987e-01,
          5.48929453e-01, 1.93558022e-01, 6.31539151e-02, 6.55271709e-02,
          6.64074719e-02, 1.32126689e-01, 8.59451294e-02, 1.07306764e-01,
          1.74184769e-01, 1.24225788e-01, 2.35255420e-01, 8.04832429e-02,
          1.53537318e-01 ]
      - [ 4.54899430e-01, 9.02276516e-01, 8.15052629e-01, 1.72202453e-01,
          6.07544445e-02, 3.64386290e-02, 7.24383116e-01, 5.80798507e-01,
          7.05517173e-01, 3.19435075e-02, 1.49908494e-02, 1.75063461e-01,
          7.30871201e-01, 3.42995882e-01, 1.75408442e-02, 2.04501282e-02,
          3.63592237e-01, 5.73109150e-01, 4.52831924e-01, 5.70113212e-02,
          3.61636162e-01 ]
      - [ 4.20030616e-02, 2.22600624e-02, 4.54198539e-01, 6.53899074e-01,
          4.01355885e-02, 1.35411378e-02, 1.60257909e-02, 4.21960860e-01,
          4.90987271e-01, 1.99424420e-02, 1.15004666e-02, 1.16184838e-02,
          4.99992102e-01, 1.04622126e-01, 3.48834321e-02, 6.42732605e-02,
          2.94849630e-02, 3.86521041e-01, 2.78885990e-01, 3.05689108e-02,
          1.81365222e-01 ]
      - [ 1.11738212e-01, 1.79154694e-01, 8.55353177e-02, 4.62759510e-02,
          9.32788700e-02, 1.42494053e-01, 1.67340726e-01, 8.80981833e-02,
          2.45375022e-01, 2.99363256e-01, 1.09069087e-01, 1.46851271e-01,
          5.29234409e-01, 3.44869077e-01, 9.95340943e-02, 9.36981440e-02,
          1.31666452e-01, 9.68125463e-02, 3.54710460e-01, 1.12288147e-01,
          1.73869401e-01 ]
      - [ 4.86077159e-04, 7.51208793e-03, 6.24396503e-02, 2.15341691e-02,
          1.10535482e-02, 1.66439801e-03, 2.74621439e-03, 7.87820965e-02,
          2.54140258e-01, 1.73122346e-01, 2.90428922e-02, 4.45838794e-02,
          1.21529713e-01, 1.05972067e-01, 8.36736038e-02, 1.76138639e-01,
          5.17902756e-03, 4.13755327e-02, 1.63691089e-01, 8.33597556e-02,
          7.34013543e-02 ]
      - [ 7.67389452e-03, 1.27006816e-02, 8.94163176e-03, 3.46086361e-02,
          3.55822034e-02, 6.24885745e-02, 1.13787666e-01, 1.56743750e-02,
          2.15886738e-02, 3.45278345e-02, 5.98607957e-03, 4.51012328e-03,
          4.57252935e-02, 2.97610462e-02, 5.35375774e-02, 4.65203524e-02,
          2.96113379e-02, 4.32530791e-02, 3.29007134e-02, 2.76385322e-02,
          3.33509147e-02 ]
      - [ 9.74240620e-03, 2.76506320e-02, 4.15045440e-01, 7.34126568e-01,
          1.27622876e-02, 3.07759307e-02, 1.11272372e-02, 2.71660667e-02,
          1.21725295e-02, 2.83834748e-02, 4.14455757e-02, 3.20881605e-03,
          6.20431602e-02, 6.61624521e-02, 2.97569521e-02, 5.02594896e-02,
          2.02328153e-02, 2.96866328e-01, 4.21904027e-02, 3.11677083e-02,
          9.76143181e-02 ]
      - [ 1.13283746e-01, 8.83766562e-02, 5.31476140e-02, 9.10360292e-02,
          5.45423478e-02, 1.22352198e-01, 9.23091769e-02, 2.76849389e-01,
          8.56079757e-02, 3.16677630e-01, 3.15972984e-01, 3.63982245e-02,
          3.56863260e-01, 1.50467902e-01, 2.33361945e-01, 6.37306124e-02,
          9.46387351e-02, 1.28335550e-01, 2.27404177e-01, 1.62365943e-01,
          1.53186113e-01 ]
      - [ 7.23402854e-03, 1.12395525e-01, 1.81524202e-01, 2.01596133e-02,
          4.95290160e-02, 2.65676454e-02, 8.50804336e-03, 3.39949369e-01,
          1.53245002e-01, 7.84709334e-01, 6.60725236e-02, 2.33395010e-01,
          4.28754330e-01, 3.35338637e-02, 2.14108583e-02, 1.31517909e-02,
          4.89315540e-02, 1.37535304e-01, 3.50060612e-01, 8.35075453e-02,
          1.55008748e-01 ]
      - [ 4.82683256e-02, 5.08711785e-02, 2.47648209e-02, 3.35028698e-03,
          8.94313097e-01, 2.13536732e-02, 8.62224922e-02, 2.60202795e-01,
          6.10268891e-01, 2.71830074e-02, 6.81078248e-03, 6.95976838e-02,
          2.50225980e-02, 1.65206399e-02, 1.45822484e-02, 1.56371463e-02,
          2.53701568e-01, 9.36350971e-02, 1.69748783e-01, 2.66569648e-02,
          1.35935605e-01 ]
      - [ 1.48530938e-02, 6.83193207e-01, 1.39958402e-02, 2.81951688e-02,
          2.05793045e-02, 7.42242485e-02, 7.18520433e-02, 9.91313607e-02,
          4.61070500e-02, 2.47259103e-02, 1.13476962e-02, 1.00179151e-01,
          8.49261433e-02, 7.20738322e-02, 2.78061051e-02, 2.43762434e-02,
          1.98212460e-01, 5.32936044e-02, 5.69582321e-02, 4.09272984e-02,
          8.73478949e-02 ]
      - [ 7.71538634e-03, 1.77428611e-02, 2.63558868e-02, 6.75106887e-03,
          8.27690065e-02, 5.78300357e-01, 1.59403741e-01, 1.58416852e-02,
          2.04428419e-01, 2.68258527e-03, 3.00466381e-02, 1.19174113e-02,
          3.18427891e-01, 3.60974133e-01, 3.33046913e-01, 1.36628430e-02,
          1.71631902e-01, 5.20880967e-02, 2.21628264e-01, 9.71684530e-02,
          1.35629177e-01 ]
      - [ 8.72439705e-03, 5.89633465e-01, 6.88888907e-01, 5.55102944e-01,
          5.38185723e-02, 1.70910521e-03, 1.15903541e-02, 1.09637883e-02,
          4.04207334e-02, 2.13871300e-02, 7.63418078e-02, 1.04858823e-01,
          7.23863766e-02, 6.54110461e-02, 1.86336115e-02, 9.21497643e-02,
          1.63471386e-01, 3.16636503e-01, 4.99013215e-02, 7.29959980e-02,
          1.50751308e-01 ]
      - [ 1.40321543e-02, 3.65129650e-01, 1.66768849e-01, 2.24214107e-01,
          2.43447106e-02, 1.33511662e-01, 1.22338906e-02, 3.84763628e-02,
          3.23110670e-02, 1.28427163e-01, 1.34017784e-02, 6.38957776e-04,
          1.11669693e-02, 3.06913145e-02, 1.60780661e-02, 1.48475673e-02,
          1.34254545e-01, 1.10423297e-01, 5.06491289e-02, 1.12415925e-02,
          7.66421407e-02 ]
      - [ 1.65855065e-02, 4.86713685e-02, 3.47012579e-02, 7.88185477e-01,
          6.78786170e-03, 1.11576185e-01, 3.95592041e-02, 3.32844079e-01,
          6.71941228e-03, 4.23078723e-02, 2.98446659e-02, 9.35901627e-02,
          1.58847794e-02, 9.73054171e-02, 6.46765232e-02, 5.57993054e-02,
          4.59052324e-02, 2.98822492e-01, 4.05543707e-02, 6.09776638e-02,
          1.11564942e-01 ]
      - [ 3.83699103e-03, 4.48359968e-03, 1.70790998e-03, 5.83587913e-03,
          1.89081002e-02, 2.75250734e-03, 1.29333301e-07, 2.30357889e-03,
          1.60299897e-01, 2.46677995e-01, 2.20578294e-02, 1.33271469e-02,
          3.11465025e-01, 1.70552060e-01, 5.47537744e-01, 3.32354605e-01,
          7.49529945e-03, 2.46187439e-03, 2.22248748e-01, 2.28819326e-01,
          1.15256310e-01 ]
      - [ 1.38233334e-01, 3.01126689e-01, 4.81511295e-01, 8.53210747e-01,
          1.93045055e-03, 7.91839957e-02, 1.36714540e-02, 8.73024315e-02,
          1.26449704e-01, 1.96311235e-01, 1.22300535e-02, 1.76439777e-01,
          9.61913466e-02, 8.66539553e-02, 1.55022919e-01, 1.48656309e-01,
          1.30118608e-01, 3.58923972e-01, 1.26401559e-01, 1.23087265e-01,
          1.84632853e-01 ]
      - [ 2.75822505e-02, 3.09781339e-02, 8.40798318e-02, 1.00539379e-01,
          6.67042732e-01, 8.63037482e-02, 5.76520897e-02, 6.87483698e-02,
          3.00564349e-01, 2.11742729e-01, 2.49081597e-01, 1.48790911e-01,
          1.79263875e-01, 2.54177563e-02, 1.09511971e-01, 2.20054269e-01,
          2.02976719e-01, 7.77549148e-02, 1.79247171e-01, 1.81859687e-01,
          1.60459623e-01 ]
      - [ 1.57860562e-01, 1.36720926e-01, 1.14921071e-01, 1.00348152e-01,
          4.57434282e-02, 1.86886281e-01, 1.00605175e-01, 8.69495571e-02,
          2.05955282e-02, 1.60984516e-01, 1.75773829e-01, 3.76547687e-02,
          1.70711558e-02, 9.49792191e-02, 1.06043406e-02, 2.72953906e-03,
          1.31802797e-01, 1.00705989e-01, 7.34076053e-02, 5.66906184e-02,
          9.06517506e-02 ]
      - [ 4.87678796e-02, 9.68240649e-02, 1.69025995e-02, 8.01857840e-03,
          3.61243188e-01, 1.10851437e-01, 7.30861351e-02, 1.68872229e-03,
          1.31535353e-02, 1.91682614e-02, 1.35666486e-02, 3.94100770e-02,
          2.20616404e-02, 5.85196838e-02, 9.04422440e-03, 1.50184259e-02,
          1.54421628e-01, 2.49240082e-02, 2.82257795e-02, 1.92598440e-02,
          5.67078143e-02 ]
      - [ 9.59500790e-01, 6.87480509e-01, 1.08861476e-01, 1.01285189e-01,
          5.56690693e-01, 2.21568644e-01, 1.15242615e-01, 2.29676157e-01,
          2.77161181e-01, 1.57048732e-01, 5.86623922e-02, 1.49019957e-01,
          9.00129899e-02, 1.66942254e-02, 2.74112206e-02, 2.14869887e-01,
          6.06310129e-01, 1.38766348e-01, 1.35229290e-01, 1.12490863e-01,
          2.48199165e-01 ]
      - [ 1.60447240e-01, 4.00037646e-01, 8.06489587e-02, 2.17775419e-01,
          2.52055585e-01, 4.49593455e-01, 6.48022965e-02, 2.61891067e-01,
          2.85657138e-01, 1.18354954e-01, 9.85990018e-02, 3.41069788e-01,
          2.59858053e-02, 5.49754221e-03, 4.11883965e-02, 9.81268734e-02,
          3.15533489e-01, 1.56279430e-01, 1.08873859e-01, 1.44746006e-01,
          1.81358188e-01 ]
      - [ 6.54623866e-01, 5.30974627e-01, 2.30651230e-01, 6.04097266e-03,
          1.05355959e-02, 8.04517418e-03, 3.43649578e-03, 5.53870015e-03,
          5.83144985e-02, 1.59569196e-02, 1.60212331e-02, 8.26664343e-02,
          4.20866050e-02, 3.44982333e-02, 6.26334175e-02, 4.39357199e-02,
          3.01044822e-01, 6.14168495e-02, 3.77140641e-02, 5.13141975e-02,
          1.12872489e-01 ]
      - [ 4.54876088e-02, 7.20167207e-03, 8.72898459e-01, 6.76486874e-04,
          8.14292207e-02, 4.68864255e-02, 1.38685375e-01, 4.03127121e-03,
          6.44668490e-02, 2.19754707e-02, 1.88343059e-02, 1.45272166e-03,
          1.64193027e-02, 4.29075153e-04, 6.43476960e-04, 6.75263628e-03,
          4.52512316e-02, 2.54072905e-01, 2.58226749e-02, 6.92078518e-03,
          8.30168948e-02 ]
      - [ 3.04153282e-03, 3.40498239e-03, 1.39712691e-02, 4.49282303e-02,
          6.23367429e-02, 1.08753704e-02, 2.69858586e-03, 4.29379055e-03,
          8.06564987e-02, 2.47996002e-02, 3.68427753e-01, 3.13424170e-02,
          6.36426546e-03, 9.49853659e-02, 2.91760778e-03, 1.73900207e-03,
          1.99146569e-02, 1.64729692e-02, 5.17014340e-02, 1.01106696e-01,
          4.72989380e-02 ]
      - [ 2.00625524e-01, 7.74573565e-01, 2.04048470e-01, 1.22564957e-01,
          5.96698327e-03, 3.12762111e-02, 5.00791008e-03, 1.77416168e-02,
          1.93550326e-02, 3.33927898e-03, 4.98941354e-03, 1.00663714e-02,
          2.17977688e-02, 1.71187986e-02, 1.64848305e-02, 3.79702896e-02,
          2.53110558e-01, 8.73407423e-02, 1.54027194e-02, 1.73777267e-02,
          9.33079422e-02 ]
      - [ 4.52951938e-02, 4.57046516e-02, 3.66685688e-01, 5.15611432e-02,
          3.01205158e-01, 5.42755201e-02, 1.14610538e-01, 1.05573989e-01,
          4.57941979e-01, 7.83600062e-02, 2.30267599e-01, 6.82625771e-02,
          4.11737859e-01, 2.80955374e-01, 1.87935438e-02, 3.06573343e-02,
          1.11620128e-01, 1.59607843e-01, 3.07248801e-01, 8.69952589e-02,
          1.66368008e-01 ]
      - [ 5.40529415e-02, 2.72485077e-01, 1.85346425e-01, 1.60308927e-01,
          3.69931370e-01, 2.23038316e-01, 1.42714411e-01, 8.89975280e-02,
          1.26256153e-01, 1.72895804e-01, 3.90793160e-02, 3.81676257e-02,
          2.01038904e-02, 2.84568332e-02, 1.49016511e-02, 1.74377095e-02,
          2.29876935e-01, 1.44341826e-01, 8.69281739e-02, 2.73965765e-02,
          1.22135885e-01 ]
      - [ 2.16392204e-01, 6.11752830e-03, 5.01930481e-03, 7.36589804e-02,
          2.94623524e-01, 2.85664976e-01, 1.67180806e-01, 1.51869923e-01,
          5.18708304e-02, 3.35926935e-02, 3.74600142e-02, 2.35738438e-02,
          2.61701941e-01, 2.72519559e-01, 2.70781010e-01, 3.06056470e-01,
          2.00699553e-01, 9.94322523e-02, 1.54921263e-01, 1.59467846e-01,
          1.53630227e-01 ]
      - [ 3.13289881e-01, 1.60227090e-01, 1.83923841e-01, 1.92897543e-01,
          3.42105366e-02, 2.80577242e-02, 3.56338755e-03, 2.67086402e-02,
          2.05268294e-01, 2.65936315e-01, 7.16066957e-02, 2.30372939e-02,
          2.73252487e-01, 3.21988940e-01, 1.70608908e-01, 1.20916821e-01,
          1.33946300e-01, 1.01773351e-01, 2.66611516e-01, 9.65424255e-02,
          1.49718389e-01 ]
      - [ 2.06446275e-01, 2.86883622e-01, 3.33558470e-01, 1.34826675e-02,
          1.98206753e-02, 9.08861831e-02, 1.33147836e-01, 1.14533678e-01,
          5.77301435e-05, 2.36140825e-02, 3.26424977e-03, 2.44901460e-02,
          4.47257310e-01, 1.37956619e-01, 1.28526792e-01, 1.33483872e-01,
          1.51009187e-01, 1.48680657e-01, 1.52221441e-01, 7.24412650e-02,
          1.31088138e-01 ]
      - [ 9.50935602e-01, 7.19014406e-01, 5.71027935e-01, 2.79737473e-01,
          9.23233330e-02, 3.67911831e-02, 2.32849307e-02, 3.19456682e-03,
          4.95325029e-01, 3.29641104e-02, 1.56393707e-01, 1.54712349e-01,
          3.23465586e-01, 2.58828640e-01, 2.11453184e-01, 1.16425410e-01,
          4.49766129e-01, 2.19311222e-01, 2.77645826e-01, 1.59746155e-01,
          2.76617318e-01 ]
      - [ 7.82107655e-03, 2.66231090e-01, 1.20329380e-01, 7.21810609e-02,
          5.90334535e-01, 3.16366851e-02, 3.12281370e-01, 4.51609224e-01,
          2.18208879e-01, 5.48435301e-02, 1.01729944e-01, 1.53097853e-01,
          1.50756329e-01, 2.18623325e-01, 2.54111111e-01, 2.86920875e-01,
          2.24005848e-01, 2.39100248e-01, 1.60608009e-01, 1.98964953e-01,
          2.05669761e-01 ]
      - [ 2.15866476e-01, 1.86116457e-01, 1.08262897e-01, 2.47242510e-01,
          1.07052095e-01, 2.06029147e-01, 2.00549334e-01, 8.64697397e-02,
          1.44994497e-01, 1.85931921e-01, 1.92832738e-01, 2.67437398e-01,
          1.73969537e-01, 2.06166506e-01, 1.84789419e-01, 2.65336215e-01,
          1.78766042e-01, 1.60631120e-01, 1.77765608e-01, 2.27598950e-01,
          1.86190441e-01 ]
      - [ 1.29786432e-01, 1.07596867e-01, 1.11922566e-02, 2.97303367e-02,
          9.04783458e-02, 7.60408044e-02, 4.71356101e-02, 2.30434835e-02,
          1.28322784e-02, 1.41820060e-02, 1.35606630e-02, 4.54393029e-02,
          1.80736184e-02, 9.06123966e-03, 9.46647301e-03, 1.47742648e-02,
          1.00975618e-01, 2.77754217e-02, 1.35372858e-02, 2.08101757e-02,
          4.07746248e-02 ]
      - [ 3.65538849e-03, 1.86890438e-02, 4.96729910e-01, 1.14035662e-02,
          7.82713890e-02, 7.92966783e-02, 1.66392028e-02, 9.16044787e-03,
          1.03135873e-02, 1.26444563e-01, 5.21863066e-02, 1.47257121e-02,
          8.47357810e-02, 6.82196692e-02, 2.55658943e-02, 5.40877320e-03,
          4.49781269e-02, 1.33483276e-01, 7.24283978e-02, 2.44716704e-02,
          6.88403696e-02 ]
      - [ 1.45527795e-02, 6.48752437e-04, 4.32742247e-03, 3.70872417e-03,
          4.66763228e-03, 6.82677850e-02, 1.30072488e-02, 5.04114386e-03,
          2.56331172e-04, 1.63556993e-01, 4.44715656e-02, 2.63349991e-02,
          8.66957158e-02, 6.80300891e-02, 2.25350782e-02, 4.25224155e-02,
          2.20342372e-02, 6.52113464e-03, 7.96347782e-02, 3.39660123e-02,
          3.55390385e-02 ]
      - [ 2.31510550e-02, 8.00487250e-02, 7.91845202e-01, 1.27797946e-01,
          5.87851927e-02, 9.99820754e-02, 8.08980688e-03, 8.52121972e-03,
          8.03056806e-02, 5.97319379e-02, 1.18106388e-01, 1.06429584e-01,
          1.98157161e-01, 2.16213018e-01, 8.03398043e-02, 3.47373843e-01,
          6.54917657e-02, 2.34063536e-01, 1.38601959e-01, 1.63062409e-01,
          1.50304914e-01 ]
      - [ 4.63520130e-03, 3.54468776e-03, 2.95073204e-02, 2.96173058e-02,
          3.91837746e-01, 2.39145141e-02, 2.57912427e-02, 1.03674680e-01,
          4.31488715e-02, 6.39752150e-01, 1.64194368e-02, 9.41436887e-02,
          2.55699456e-02, 3.05376977e-01, 7.09624290e-02, 8.47587287e-02,
          1.05983041e-01, 4.71476391e-02, 2.53461987e-01, 6.65710717e-02,
          1.18290931e-01 ]
      - [ 2.45271949e-03, 9.63825546e-03, 9.44599330e-01, 1.95528984e-01,
          4.48544435e-02, 2.92672366e-02, 1.49452593e-03, 1.14678489e-02,
          3.52023020e-02, 1.54585809e-01, 1.89160064e-01, 1.06516860e-01,
          8.64658356e-02, 7.62867928e-02, 9.59005505e-02, 6.65569454e-02,
          2.15531643e-02, 2.88272679e-01, 8.81351829e-02, 1.14533603e-01,
          1.28123656e-01 ]
      - [ 1.94243416e-01, 5.98840714e-01, 1.74029455e-01, 2.23849248e-02,
          4.75648344e-02, 3.75394933e-02, 3.99954431e-02, 6.67657852e-02,
          6.36715174e-01, 8.64186734e-02, 3.67550775e-02, 5.64299971e-02,
          4.08767127e-02, 2.36982018e-01, 4.12235498e-01, 9.13093910e-02,
          2.19547123e-01, 7.57939070e-02, 2.50248134e-01, 1.49182484e-01,
          1.73692912e-01 ]
      - [ 3.91893566e-01, 9.48312342e-01, 9.04262781e-01, 6.37788773e-01,
          1.29463166e-01, 6.59276009e-01, 9.28901196e-01, 2.35009249e-02,
          1.51531905e-01, 6.82094991e-02, 1.95409238e-01, 2.78396606e-01,
          1.72038049e-01, 3.23988199e-02, 1.61576211e-01, 2.39468470e-01,
          5.32236278e-01, 6.23613417e-01, 1.06044568e-01, 2.18712628e-01,
          3.70151699e-01 ]
      - [ 1.48073941e-01, 7.75896162e-02, 6.80386186e-01, 5.18161893e-01,
          1.43870413e-01, 1.80120263e-02, 2.42045224e-02, 3.23048562e-01,
          2.15408921e-01, 1.10388529e-02, 3.32341433e-01, 1.93857521e-01,
          1.55675754e-01, 1.30872671e-02, 4.96578217e-02, 4.46725860e-02,
          9.68864933e-02, 3.86450291e-01, 9.88027006e-02, 1.55132353e-01,
          1.84317961e-01 ]
      - [ 8.00520837e-01, 8.08338583e-01, 5.09013515e-03, 1.08406693e-01,
          5.93119599e-02, 1.20739885e-01, 3.13911512e-02, 3.63582969e-02,
          1.96818948e-01, 7.52376914e-01, 1.27731711e-01, 4.80641648e-02,
          6.33086860e-02, 9.97511670e-03, 6.90672576e-01, 1.51442178e-02,
          4.47227836e-01, 4.53115702e-02, 2.55619913e-01, 2.20403165e-01,
          2.42140621e-01 ]
      - [ 1.61901070e-03, 3.51315103e-02, 4.46973778e-02, 3.98011543e-02,
          3.13795567e-01, 2.61474073e-01, 1.30151376e-01, 3.95453237e-02,
          2.98307896e-01, 4.25724894e-01, 2.57091045e-01, 2.11465638e-02,
          2.81243682e-01, 8.44004452e-01, 5.12473099e-02, 3.76624763e-02,
          1.53005034e-01, 6.35488108e-02, 4.62320209e-01, 9.17868465e-02,
          1.92665219e-01 ]
      - [ 6.75468266e-01, 7.92695820e-01, 5.93380392e-01, 2.71748155e-01,
          4.52194273e-01, 4.40663069e-01, 1.78611532e-01, 2.28819042e-01,
          4.91476387e-01, 1.93104386e-01, 2.16171920e-01, 1.56100333e-01,
          3.45966905e-01, 1.20133273e-01, 6.74135163e-02, 1.91838354e-01,
          5.90255380e-01, 3.18139762e-01, 2.87670255e-01, 1.57881021e-01,
          3.38486612e-01 ]
      - [ 1.83086663e-01, 2.15012312e-01, 1.90777466e-01, 1.97921947e-01,
          2.48782679e-01, 2.33611643e-01, 1.79104209e-01, 1.97757930e-01,
          3.87679935e-02, 7.51983328e-03, 1.35808304e-01, 1.29842937e-01,
          9.17033255e-02, 8.94042253e-02, 2.70319104e-01, 1.76775113e-01,
          2.20123321e-01, 1.91390395e-01, 5.68488464e-02, 1.78186357e-01,
          1.61637232e-01 ]
      - [ 8.39627743e-01, 6.17972732e-01, 1.74961295e-02, 6.08417951e-03,
          3.37636992e-02, 1.70670152e-01, 6.21181875e-02, 7.51117319e-02,
          2.13145595e-02, 2.01389492e-02, 1.73753984e-02, 2.96048932e-02,
          4.87107597e-02, 4.89100069e-02, 5.66442274e-02, 3.87405865e-02,
          4.15508568e-01, 4.02025580e-02, 3.47685702e-02, 3.55912782e-02,
          1.31517753e-01 ]
      - [ 8.49211589e-03, 1.39962807e-02, 1.07157715e-02, 1.86464172e-02,
          1.73273147e-03, 1.97900599e-03, 1.01263085e-02, 1.87271833e-01,
          1.52204256e-03, 2.11322218e-01, 2.78254628e-01, 3.42732489e-01,
          3.02601256e-04, 2.67425831e-03, 2.83884592e-02, 1.04912976e-03,
          6.55003358e-03, 5.66900820e-02, 5.39552793e-02, 1.62606165e-01,
          6.99503869e-02 ]
      - [ 3.31205457e-01, 3.08273762e-01, 6.31938353e-02, 6.64104521e-02,
          3.39245141e-01, 1.57890901e-01, 1.12384915e-01, 5.09572588e-02,
          1.48431763e-01, 1.08730413e-01, 2.16307249e-02, 2.07070652e-02,
          2.57030576e-02, 2.01019831e-02, 3.13611999e-02, 2.36909911e-02,
          2.84153819e-01, 7.32366145e-02, 7.57418051e-02, 2.43474953e-02,
          1.14369929e-01 ]
      - [ 2.13227188e-03, 4.52239811e-03, 4.10984159e-02, 6.42111572e-03,
          6.73601776e-02, 8.92664343e-02, 1.60856992e-01, 7.81537965e-03,
          5.83132625e-01, 3.22241277e-01, 1.65366396e-01, 6.81862712e-01,
          2.61090815e-01, 3.69432390e-01, 1.87952578e-01, 3.75828207e-01,
          4.08203229e-02, 5.40479757e-02, 3.83974314e-01, 3.52752507e-01,
          2.07898781e-01 ]
      - [ 2.00200155e-02, 1.50167858e-02, 1.32102044e-02, 4.35264176e-03,
          1.80908725e-01, 7.07823336e-01, 9.29277018e-03, 1.18186772e-02,
          2.08857153e-02, 2.32124120e-01, 1.51713848e-01, 1.11755040e-02,
          4.98386957e-02, 2.23097891e-01, 2.50301152e-01, 8.16851616e-01,
          2.30942219e-01, 9.66857374e-03, 1.31486595e-01, 3.07510525e-01,
          1.69901967e-01 ]
      - [ 2.38116801e-01, 8.96770120e-01, 7.29803324e-01, 2.40003228e-01,
          1.58907585e-02, 3.20423930e-03, 7.47994846e-03, 6.14450499e-03,
          1.97562072e-02, 3.94724309e-01, 7.88227562e-03, 2.11369283e-02,
          1.63219944e-01, 8.06289166e-02, 1.33164180e-02, 4.60749120e-02,
          2.88495481e-01, 2.45857760e-01, 1.64582342e-01, 2.21026335e-02,
          1.80259570e-01 ]
      - [ 4.70009772e-03, 4.91573364e-02, 1.51747435e-01, 3.15198570e-01,
          1.31181115e-03, 5.17520402e-03, 2.10838988e-02, 3.08150705e-03,
          3.45173150e-01, 3.17083836e-01, 8.63988549e-02, 4.06697750e-01,
          5.16002625e-02, 2.38818526e-02, 2.64159478e-02, 2.77267098e-02,
          1.50861125e-02, 1.22777849e-01, 1.84434772e-01, 1.36809811e-01,
          1.14777133e-01 ]
      - [ 3.45796980e-02, 2.30304912e-01, 2.98536807e-01, 3.23496044e-01,
          2.71809828e-02, 4.09856020e-03, 3.70546407e-03, 1.55466408e-01,
          1.15185371e-02, 6.47734944e-03, 9.02191387e-04, 1.84215698e-02,
          2.47942999e-01, 2.89891809e-01, 1.36299923e-01, 1.33119628e-01,
          7.40410388e-02, 1.95301175e-01, 1.38957679e-01, 7.21858293e-02,
          1.20121434e-01 ]
      - [ 7.90466070e-02, 3.26943666e-01, 2.16019084e-03, 1.25312775e-01,
          1.01139650e-01, 9.92471948e-02, 1.64837718e-01, 1.54506981e-01,
          2.32659668e-01, 2.41108704e-02, 2.14586213e-01, 1.16954502e-02,
          4.49136943e-02, 1.47843715e-02, 1.37581341e-02, 7.32968934e-03,
          1.51594281e-01, 1.11704417e-01, 7.91171566e-02, 6.18423708e-02,
          1.01064555e-01 ]
      - [ 1.70830801e-01, 3.05620432e-01, 3.59652890e-03, 3.87643099e-01,
          4.21220660e-02, 1.76649779e-01, 4.08613920e-01, 9.08090889e-01,
          1.87117308e-02, 1.25501268e-02, 1.94094088e-02, 3.42071623e-01,
          6.00300403e-03, 4.34340984e-02, 4.10145819e-01, 8.11892841e-03,
          1.73805773e-01, 4.26986098e-01, 2.01747399e-02, 1.94936439e-01,
          2.03975767e-01 ]
      - [ 8.95761251e-02, 1.36472970e-01, 1.70207635e-01, 3.15929353e-01,
          2.74532717e-02, 2.08146945e-01, 9.08237547e-02, 2.66913056e-01,
          2.02344870e-03, 3.86273256e-03, 1.75560582e-02, 1.79281402e-02,
          1.24678155e-03, 6.66538440e-03, 1.29889874e-02, 3.25204711e-03,
          1.15412325e-01, 2.10968450e-01, 3.44958669e-03, 1.29313087e-02,
          8.56904238e-02 ]
      - [ 2.13459656e-01, 2.25438103e-01, 1.77573845e-01, 1.52824879e-01,
          2.55589455e-01, 1.64128333e-01, 2.02456981e-01, 1.62980005e-01,
          6.74780384e-02, 1.61139086e-01, 1.51909083e-01, 1.41308889e-01,
          2.06387509e-02, 7.00221956e-02, 8.54176097e-03, 2.40503112e-03,
          2.14653879e-01, 1.73958942e-01, 7.98195153e-02, 7.60411844e-02,
          1.36118367e-01 ]
      - [ 5.14099970e-02, 1.09827057e-01, 1.00618050e-01, 3.07122134e-02,
          1.57324672e-01, 2.31536865e-01, 2.38223106e-01, 2.17921883e-01,
          2.75135674e-02, 3.02932233e-01, 3.81210372e-02, 2.08595395e-02,
          3.01631074e-02, 2.35101879e-02, 4.26862016e-02, 3.75628173e-02,
          1.37524650e-01, 1.46868825e-01, 9.60297734e-02, 3.48073989e-02,
          1.03807658e-01 ]
      - [ 9.64207761e-03, 7.37617463e-02, 2.75103331e-01, 2.02856943e-01,
          2.20391545e-02, 1.05782039e-01, 1.59414425e-01, 5.07269084e-01,
          9.43217659e-04, 5.55901565e-02, 7.62626678e-02, 1.09311484e-01,
          2.68003740e-03, 5.17284088e-02, 3.76478434e-01, 6.14002109e-01,
          5.28062545e-02, 2.86160946e-01, 2.77354550e-02, 2.94013679e-01,
          1.65179074e-01 ]
      - [ 5.15118660e-03, 7.75787830e-02, 3.34874660e-01, 3.24759376e-03,
          3.17077972e-02, 1.64199760e-03, 1.70509669e-03, 2.46966958e-01,
          1.01797216e-01, 2.11808786e-01, 1.60603791e-01, 1.54668033e-01,
          4.36120257e-02, 6.09987006e-02, 1.31483063e-01, 1.73113719e-01,
          2.90199425e-02, 1.46698579e-01, 1.04554184e-01, 1.54967144e-01,
          1.08809963e-01 ]
      - [ 5.89628339e-01, 4.34196830e-01, 9.53069270e-01, 8.04638028e-01,
          5.63203134e-02, 9.77817364e-03, 4.99520153e-02, 2.75175959e-01,
          1.48621360e-02, 2.75432356e-02, 1.00519862e-02, 6.79792762e-02,
          9.00098234e-02, 7.72730261e-02, 8.48225355e-02, 7.77426511e-02,
          2.72480905e-01, 5.20708859e-01, 5.24220541e-02, 6.01491146e-02,
          2.26440236e-01 ]
      - [ 4.30489741e-02, 5.20533621e-02, 1.83484517e-02, 6.81401929e-03,
          1.28012434e-01, 2.50588477e-01, 2.81649023e-01, 1.61290526e-01,
          1.48236394e-01, 2.61201002e-02, 3.98369059e-02, 2.47737076e-02,
          2.23523006e-02, 2.15980206e-02, 3.93781960e-02, 2.19605759e-01,
          1.18425816e-01, 1.17025502e-01, 5.45767061e-02, 8.08986425e-02,
          9.27316621e-02 ]
      - [ 1.56383038e-01, 7.56045505e-02, 5.83698303e-02, 6.06738888e-02,
          3.20851058e-01, 4.03542757e-01, 1.65677816e-01, 1.07425973e-01,
          3.97903025e-01, 2.65566893e-02, 8.19338262e-01, 1.63011327e-01,
          1.10398203e-01, 9.50162765e-03, 1.09491451e-02, 1.22060105e-02,
          2.39095360e-01, 9.80368853e-02, 1.36089891e-01, 2.51376182e-01,
          1.81149572e-01 ]
      - [ 3.74719918e-01, 3.00961077e-01, 1.94571353e-02, 3.32745492e-01,
          3.69352281e-01, 2.47687340e-01, 2.17829365e-02, 2.56149352e-01,
          4.04446758e-02, 1.65837839e-01, 5.29011153e-02, 6.14885725e-02,
          2.74946205e-02, 1.46592870e-01, 1.38021633e-02, 8.33004117e-02,
          3.23180139e-01, 1.57533735e-01, 9.50925052e-02, 5.28730676e-02,
          1.57169864e-01 ]
      - [ 6.63611144e-02, 1.20499760e-01, 3.82801294e-01, 8.39685380e-01,
          3.15243378e-02, 8.64563230e-03, 5.62793836e-02, 1.32384658e-01,
          1.61423758e-01, 7.97509332e-04, 6.21037185e-02, 4.51198220e-02,
          1.92424595e-01, 2.33121127e-01, 1.27887592e-01, 1.53040260e-01,
          5.67577146e-02, 3.52787703e-01, 1.46941751e-01, 9.70378518e-02,
          1.63381264e-01 ]
      - [ 4.13356572e-02, 1.86264068e-01, 7.24375367e-01, 5.95602036e-01,
          8.38806480e-02, 1.05779395e-01, 3.45036797e-02, 3.16444561e-02,
          2.96445899e-02, 4.79843616e-02, 5.09304330e-02, 2.43948363e-02,
          3.14216688e-02, 1.39455661e-01, 1.14439264e-01, 5.84560484e-02,
          1.04314938e-01, 3.46531391e-01, 6.21265694e-02, 6.20551445e-02,
          1.43757015e-01 ]
      - [ 2.60487124e-02, 2.32884232e-02, 2.46620446e-01, 1.08971052e-01,
          1.18724063e-01, 6.54514879e-02, 1.08827293e-01, 7.38113597e-02,
          1.40185863e-01, 2.66159084e-02, 2.16319054e-01, 6.91231266e-02,
          3.71105582e-01, 5.42373843e-02, 1.88251540e-01, 1.76248159e-02,
          5.83781712e-02, 1.34557545e-01, 1.48036182e-01, 1.22829638e-01,
          1.15950383e-01 ]
      - [ 1.11223059e-02, 1.03587601e-02, 3.67173739e-03, 2.24684048e-02,
          1.02968113e-02, 1.54156849e-01, 8.70572031e-02, 2.09494885e-02,
          1.97185054e-02, 7.83232157e-04, 6.34286646e-03, 2.82663405e-02,
          6.96373824e-03, 1.36281282e-01, 1.14252605e-01, 2.87537538e-02,
          4.64836806e-02, 3.35367061e-02, 4.09366898e-02, 4.44038920e-02,
          4.13402431e-02 ]
      - [ 7.81762958e-01, 8.91560733e-01, 8.75196636e-01, 6.01653278e-01,
          2.63198286e-01, 4.85515222e-02, 8.81587267e-02, 1.00745454e-01,
          5.72411902e-03, 6.03545876e-03, 3.52024846e-02, 8.40402544e-02,
          5.00043780e-02, 1.54952817e-02, 5.59297763e-03, 1.02271020e-01,
          4.96268362e-01, 4.16438520e-01, 1.93148106e-02, 5.67766875e-02,
          2.47199595e-01 ]
      - [ 6.69745728e-03, 2.09840074e-01, 7.41814852e-01, 7.76110351e-01,
          4.45487201e-02, 2.44146049e-01, 4.82396126e-01, 7.71934271e-01,
          9.23274606e-02, 1.77040659e-02, 1.29602905e-02, 7.64798075e-02,
          3.97526845e-03, 9.01937205e-03, 1.49164442e-03, 2.29693443e-01,
          1.26308084e-01, 6.93063915e-01, 3.07565443e-02, 8.01562965e-02,
          2.32571214e-01 ]
      - [ 2.85526216e-01, 5.12535870e-01, 7.37179995e-01, 8.18348765e-01,
          1.60707310e-01, 4.76831019e-01, 4.05048072e-01, 5.21307826e-01,
          6.87932298e-02, 1.18038341e-01, 2.62922165e-03, 5.82580781e-03,
          7.37447441e-02, 9.50575918e-02, 3.20992433e-02, 4.65444010e-03,
          3.58900100e-01, 6.20471120e-01, 8.89084786e-02, 1.13021787e-02,
          2.69895464e-01 ]
      - [ 4.89970818e-02, 1.95389286e-01, 1.56018719e-01, 6.07269928e-02,
          1.35787338e-01, 4.63639274e-02, 6.71762452e-02, 1.10903226e-01,
          1.15044191e-01, 1.38262557e-02, 2.39229333e-02, 3.35489213e-02,
          1.95703357e-02, 5.83310612e-03, 1.85530055e-02, 4.12686020e-02,
          1.06634408e-01, 9.87062976e-02, 3.85684706e-02, 2.93233655e-02,
          6.83081374e-02 ]
      - [ 3.28427166e-01, 2.26823390e-02, 6.27301447e-03, 1.78735261e-03,
          7.36633718e-01, 5.51815510e-01, 2.85782039e-01, 1.49295293e-03,
          8.30816925e-02, 6.38659205e-03, 5.12407869e-02, 4.61695774e-04,
          1.14290426e-02, 9.75975674e-03, 8.26306641e-03, 3.33095959e-04,
          4.09889698e-01, 7.38338381e-02, 2.76642703e-02, 1.50746619e-02,
          1.31615609e-01 ]
      - [ 3.33964705e-01, 2.55893081e-01, 2.60495186e-01, 9.82267410e-02,
          2.30716228e-01, 1.39987409e-01, 2.84223378e-01, 3.45828347e-02,
          8.34633708e-02, 1.17424332e-01, 1.11980684e-01, 2.55870149e-02,
          1.67995691e-02, 5.53131849e-02, 3.75036150e-02, 1.68681927e-02,
          2.40140364e-01, 1.69382036e-01, 6.82501197e-02, 4.79848757e-02,
          1.31439358e-01 ]
      - [ 3.07931416e-02, 1.33729011e-01, 2.30454177e-01, 1.16601679e-02,
          2.25529745e-02, 1.01358384e-01, 2.68203989e-02, 1.23702120e-02,
          5.57357669e-01, 7.40784705e-02, 8.17998871e-02, 4.80910957e-01,
          4.80210960e-01, 4.59267855e-01, 5.12769707e-02, 4.26769018e-01,
          7.21083805e-02, 7.03262389e-02, 3.92728746e-01, 2.60189205e-01,
          1.98838145e-01 ]
      - [ 2.22269267e-01, 5.70960999e-01, 1.66636974e-01, 4.18389402e-03,
          9.55476761e-02, 4.18223552e-02, 2.75937676e-01, 1.37190036e-02,
          1.00766763e-01, 2.22863387e-02, 1.32131815e-01, 8.10830072e-02,
          8.54436383e-02, 1.53205857e-01, 2.62716055e-01, 4.10048544e-01,
          2.32650086e-01, 1.15119383e-01, 9.04256552e-02, 2.21494853e-01,
          1.64922491e-01 ]
      - [ 4.31305580e-02, 4.66905758e-02, 1.50159627e-01, 4.13326025e-02,
          5.64590916e-02, 9.84216947e-03, 1.29740732e-03, 8.19001198e-01,
          8.27545486e-03, 6.76005036e-02, 2.33437344e-02, 7.63139725e-02,
          4.61320579e-02, 5.42953163e-02, 1.02465905e-01, 9.01936144e-02,
          3.90306003e-02, 2.52947718e-01, 4.40758318e-02, 7.30793029e-02,
          1.02283359e-01 ]
      - [ 3.01495939e-01, 1.13469005e-01, 1.12846963e-01, 3.54939327e-02,
          4.65216577e-01, 2.01750711e-01, 1.76946104e-01, 3.94128375e-02,
          2.27829307e-01, 2.44159754e-02, 3.09541188e-02, 5.23878559e-02,
          7.33375788e-01, 6.07617259e-01, 3.75059515e-01, 1.99690044e-01,
          2.70483077e-01, 9.11749527e-02, 3.98309588e-01, 1.64522886e-01,
          2.31122628e-01 ]
      - [ 1.44004226e-01, 9.72592682e-02, 1.02591552e-01, 6.85616359e-02,
          2.13705301e-02, 1.90442186e-02, 1.33808032e-02, 5.54716326e-02,
          1.27980681e-02, 8.23121425e-03, 1.21120531e-02, 9.69590992e-03,
          3.71907912e-02, 5.37258536e-02, 5.47930062e-01, 2.78146505e-01,
          7.04195648e-02, 6.00014031e-02, 2.79864818e-02, 2.11971134e-01,
          9.25946459e-02 ]
      - [ 4.96639172e-03, 3.82238301e-03, 7.83003308e-03, 4.23672702e-03,
          1.18439430e-02, 7.78472517e-03, 1.09742284e-02, 3.80628109e-01,
          4.63230461e-02, 6.07467629e-03, 3.25507578e-03, 1.37990359e-02,
          3.53056416e-02, 6.36661500e-02, 6.06603734e-02, 6.57139206e-03,
          7.10436050e-03, 1.00917272e-01, 3.78423780e-02, 2.10714694e-02,
          4.17338684e-02 ]
      - [ 8.80878419e-03, 1.90482661e-02, 1.55851394e-02, 2.58463901e-02,
          2.56642350e-03, 1.50586655e-02, 1.04381092e-01, 3.33128035e-01,
          1.36907697e-01, 2.67668933e-01, 1.47313312e-01, 2.56414294e-01,
          2.88665563e-01, 4.23126072e-01, 1.39758721e-01, 4.27354991e-01,
          1.13705350e-02, 1.19735166e-01, 2.79092073e-01, 2.42710322e-01,
          1.63227022e-01 ]
      - [ 2.21312344e-02, 1.67227343e-01, 1.13048509e-01, 8.25211033e-02,
          5.37159517e-02, 4.60873365e-01, 3.87538403e-01, 2.36427099e-01,
          5.94058111e-02, 6.30366504e-02, 2.07247555e-01, 2.97742561e-02,
          1.38217017e-01, 7.59107769e-02, 4.48123552e-02, 2.43379116e-01,
          1.75986975e-01, 2.04883784e-01, 8.41425657e-02, 1.31303310e-01,
          1.49079159e-01 ]
      - [ 8.43335867e-01, 5.57247400e-01, 1.91393554e-01, 8.11801478e-03,
          2.68688440e-01, 2.00978629e-02, 1.12644412e-01, 1.13380328e-01,
          1.55816302e-02, 4.40523587e-03, 1.82308123e-01, 1.92291945e-01,
          8.82339180e-02, 8.97787511e-02, 1.92755386e-01, 1.39454275e-01,
          4.22342390e-01, 1.06384084e-01, 4.94998842e-02, 1.76702440e-01,
          1.88732192e-01 ]
      - [ 1.91631019e-02, 1.32645816e-01, 1.69884302e-02, 3.95538332e-03,
          3.63150313e-02, 7.08539069e-01, 2.77004205e-02, 8.54225550e-03,
          2.09299520e-01, 2.22093798e-02, 1.40566425e-02, 8.93725269e-03,
          2.72256076e-01, 2.26700053e-01, 1.62858412e-01, 1.35676071e-01,
          2.24165753e-01, 1.42966220e-02, 1.82616264e-01, 8.03820938e-02,
          1.25365183e-01 ]
      - [ 4.00216341e-01, 4.92204905e-01, 5.00848055e-01, 1.23952039e-01,
          1.03449062e-01, 4.97933328e-01, 8.87062848e-02, 3.33487652e-02,
          3.82096097e-02, 4.65651453e-02, 9.66299474e-02, 1.26305401e-01,
          3.12051866e-02, 4.34719324e-02, 3.01920678e-02, 2.93149650e-02,
          3.73450905e-01, 1.86713770e-01, 3.98629680e-02, 7.06105977e-02,
          1.67659566e-01 ]
      - [ 4.33898531e-02, 3.05832922e-02, 5.13831340e-02, 4.59836610e-03,
          5.91445938e-02, 4.20028120e-02, 2.44350675e-02, 7.81769156e-02,
          1.07461773e-02, 5.88077717e-02, 6.52329531e-03, 3.67933959e-02,
          3.03712308e-01, 4.03504193e-01, 2.15450779e-01, 9.70332175e-02,
          4.37801369e-02, 3.96483690e-02, 1.94192618e-01, 8.89501721e-02,
          9.16428268e-02 ]
      - [ 1.90255307e-02, 1.43138692e-01, 4.43742126e-02, 2.25340128e-02,
          7.95367062e-01, 4.00320664e-02, 3.41679975e-02, 7.90598094e-02,
          1.26974910e-01, 1.85280349e-02, 5.21289855e-02, 9.41089392e-02,
          8.39550048e-03, 4.37173434e-02, 1.01870894e-02, 3.09966505e-02,
          2.49390841e-01, 4.50340062e-02, 4.94039468e-02, 4.68554161e-02,
          9.76710469e-02 ]
      - [ 9.14230645e-02, 2.26511195e-01, 2.30777487e-01, 1.39072597e-01,
          2.74956226e-01, 1.38184190e-01, 1.36936009e-01, 1.18888520e-01,
          7.95294344e-02, 2.72443295e-01, 1.62630752e-01, 1.01727761e-01,
          1.46536410e-01, 1.41908646e-01, 9.66997817e-02, 3.46632698e-03,
          1.82768673e-01, 1.56418651e-01, 1.60104454e-01, 9.11311582e-02,
          1.47605732e-01 ]
      - [ 9.00551230e-02, 1.99793041e-01, 8.38210657e-02, 1.92974180e-01,
          3.31037156e-02, 2.30473563e-01, 1.67202488e-01, 1.54669434e-02,
          2.85576433e-01, 1.94045395e-01, 2.30986565e-01, 2.66874880e-02,
          2.51024783e-01, 1.40841886e-01, 5.61240576e-02, 1.45407049e-02,
          1.38356358e-01, 1.14866167e-01, 2.17872128e-01, 8.20847005e-02,
          1.38294846e-01 ]
      - [ 2.45124497e-03, 3.63028888e-03, 9.60789919e-02, 3.73702273e-02,
          4.94593172e-04, 1.05177350e-02, 6.56260103e-02, 2.32802033e-01,
          2.35782471e-02, 1.90295465e-02, 1.90431178e-02, 7.69458665e-03,
          3.12963650e-02, 6.30891845e-02, 7.87122026e-02, 3.92248929e-02,
          4.27346537e-03, 1.07969314e-01, 3.42483371e-02, 3.61687019e-02,
          4.56649512e-02 ]
      - [ 3.20417732e-01, 2.21630692e-01, 7.31230617e-01, 2.92326771e-02,
          2.19760463e-02, 1.78489871e-02, 2.52670255e-02, 1.43488437e-01,
          6.08860962e-02, 2.75621694e-02, 1.75298983e-03, 9.68210399e-03,
          1.57490410e-02, 1.58532634e-02, 3.91443074e-02, 6.96901008e-02,
          1.45468369e-01, 2.32304692e-01, 3.00126430e-02, 3.00673749e-02,
          1.09463267e-01 ]
      - [ 1.17831767e-01, 8.38514268e-02, 3.43339920e-01, 9.29333568e-02,
          4.00460839e-01, 1.17886320e-01, 2.76047677e-01, 1.39883474e-01,
          3.01268905e-01, 3.55308242e-02, 4.85373512e-02, 3.77580635e-02,
          1.53935447e-01, 9.45342332e-02, 2.74929795e-02, 1.38635677e-03,
          1.80007577e-01, 2.13051096e-01, 1.46317348e-01, 2.87936870e-02,
          1.42042428e-01 ]
      - [ 5.55015728e-02, 9.28043872e-02, 1.03464924e-01, 7.86338598e-02,
          2.80036498e-03, 9.76223499e-03, 1.69413406e-02, 4.22671065e-02,
          3.61007065e-01, 1.51866615e-01, 2.95876950e-01, 4.49377373e-02,
          9.74857509e-02, 5.68679720e-02, 2.00058445e-02, 1.71961058e-02,
          4.02171388e-02, 6.03268072e-02, 1.66806847e-01, 9.45041627e-02,
          9.04637426e-02 ]
      - [ 2.23749548e-01, 2.33656511e-01, 1.89423352e-01, 7.05621839e-02,
          5.18140346e-02, 2.39659697e-01, 1.22016169e-01, 9.69538018e-02,
          2.81656310e-02, 1.05152845e-01, 2.32257899e-02, 7.70862401e-02,
          2.23157525e-01, 1.56559005e-01, 9.01374295e-02, 1.76340826e-02,
          1.87219948e-01, 1.19738877e-01, 1.28258750e-01, 5.20208851e-02,
          1.21809609e-01 ]
      - [ 2.78722253e-02, 1.79417789e-01, 6.92502737e-01, 8.74060333e-01,
          1.44137025e-01, 5.21642566e-02, 2.55603474e-02, 6.62263751e-01,
          1.32302297e-02, 4.48433310e-02, 1.07634719e-02, 5.60864992e-02,
          1.41192088e-02, 2.51831617e-02, 2.15279348e-02, 2.54862420e-02,
          1.00897819e-01, 5.63596845e-01, 2.43439842e-02, 2.84660384e-02,
          1.79326162e-01 ]
      - [ 4.28156972e-01, 2.56606281e-01, 3.33310366e-01, 9.13429633e-02,
          8.00447986e-02, 3.63758445e-01, 2.85192728e-01, 6.23606592e-02,
          2.29332268e-01, 5.37583157e-02, 1.26600564e-01, 3.80383097e-02,
          1.30638584e-01, 2.39500403e-02, 2.27921709e-01, 1.59302987e-02,
          2.82141626e-01, 1.93051666e-01, 1.09419808e-01, 1.02122724e-01,
          1.71683952e-01 ]
      - [ 3.41687500e-02, 2.69941911e-02, 1.09946817e-01, 9.88469422e-02,
          2.32215688e-01, 5.46217971e-02, 1.93250179e-02, 4.35117865e-03,
          8.80459189e-01, 1.65547915e-02, 4.13502842e-01, 2.39520203e-02,
          7.85784051e-02, 4.24948782e-02, 2.95104161e-02, 3.81459226e-03,
          8.70001018e-02, 5.81174903e-02, 2.54521817e-01, 1.17694959e-01,
          1.29333600e-01 ]
      - [ 3.66726518e-02, 1.48981567e-02, 1.12972133e-01, 8.82284064e-03,
          1.98700905e-01, 9.23393488e-01, 2.80968118e-02, 3.23084950e-01,
          2.36959726e-01, 1.67774901e-01, 5.33899665e-03, 2.37349376e-01,
          8.10321048e-03, 1.09482214e-01, 1.41888067e-01, 4.28678021e-02,
          2.93416291e-01, 1.18244186e-01, 1.30580008e-01, 1.06861062e-01,
          1.62275389e-01 ]
      - [ 3.85919027e-02, 6.30294457e-02, 7.87403584e-02, 4.26294133e-02,
          3.31742465e-02, 3.59558612e-02, 1.98348105e-01, 2.33091433e-02,
          1.76367369e-02, 1.47333031e-03, 3.15125304e-04, 2.52094842e-03,
          1.90517791e-02, 2.30863839e-02, 6.77248895e-01, 1.24567943e-02,
          4.26878631e-02, 8.57567564e-02, 1.53120570e-02, 1.73135430e-01,
          7.92230219e-02 ]
      - [ 8.04560900e-01, 9.16810870e-01, 8.37921143e-01, 6.10004008e-01,
          2.50820909e-02, 4.20944870e-01, 8.89527276e-02, 5.91403961e-01,
          2.25004852e-01, 1.22309446e-01, 1.01669831e-03, 1.37149215e-01,
          1.67859912e-01, 4.50292751e-02, 1.03742287e-01, 1.10240504e-01,
          5.41849673e-01, 5.32070458e-01, 1.40050873e-01, 8.80371779e-02,
          3.25502038e-01 ]
      - [ 1.07954983e-02, 1.23852454e-02, 1.70413405e-02, 6.81715906e-02,
          4.12040614e-02, 3.95345390e-02, 6.60382062e-02, 1.97811410e-01,
          5.55437012e-03, 4.83670205e-01, 4.03999016e-02, 6.83178067e-01,
          1.55336335e-02, 5.00288680e-02, 4.66931686e-02, 1.76474601e-02,
          2.59798355e-02, 8.72656405e-02, 1.38696775e-01, 1.96979642e-01,
          1.12230472e-01 ]
      - [ 6.87881978e-03, 8.83629918e-02, 1.41198054e-01, 1.85260996e-01,
          6.15724502e-03, 8.84129852e-03, 4.20251995e-01, 3.40057984e-02,
          2.25817487e-02, 3.67891565e-02, 1.57779858e-01, 2.05202311e-01,
          8.64341855e-03, 2.97017824e-02, 4.50645462e-02, 4.38968763e-02,
          2.75600888e-02, 1.95179209e-01, 2.44290270e-02, 1.12985894e-01,
          9.00385529e-02 ]
      - [ 1.46778151e-02, 1.15900207e-02, 1.02526173e-02, 1.67022981e-02,
          1.09665319e-01, 1.36142829e-02, 2.88762413e-02, 3.01048774e-02,
          2.48106122e-01, 1.51829317e-01, 1.73248276e-01, 9.14777219e-02,
          5.48503920e-02, 1.39748067e-01, 2.75270566e-02, 1.13304175e-01,
          3.73868607e-02, 2.14840081e-02, 1.48633480e-01, 1.01389304e-01,
          7.72234127e-02 ]
      - [ 2.15722453e-02, 1.89873166e-02, 9.18669626e-03, 9.45689529e-03,
          4.06024642e-02, 2.23002061e-01, 7.63185835e-03, 6.07281774e-02,
          9.94434655e-02, 2.79443204e-01, 1.22015759e-01, 5.36094755e-02,
          1.14937007e-01, 3.96121681e-01, 1.76535353e-01, 3.45293507e-02,
          7.60410205e-02, 2.17509065e-02, 2.22486347e-01, 9.66724828e-02,
          1.04237691e-01 ]
      - [ 4.96760979e-02, 1.26835639e-02, 3.14392388e-01, 4.50573027e-01,
          9.11563262e-03, 1.18329339e-02, 3.78895923e-02, 1.85016692e-02,
          1.49365831e-02, 1.92563608e-02, 3.83083560e-02, 1.62276756e-02,
          3.62892300e-02, 5.37018627e-02, 1.71866007e-02, 2.26973444e-02,
          2.08270587e-02, 2.05339164e-01, 3.10460087e-02, 2.36049928e-02,
          7.02043027e-02 ]
      - [ 1.07210740e-01, 1.41196072e-01, 2.58214742e-01, 2.81586617e-01,
          1.53276235e-01, 1.63373157e-01, 3.38043630e-01, 3.47524047e-01,
          2.63774320e-02, 3.29555459e-02, 4.37091477e-02, 1.62407562e-01,
          4.09386540e-03, 2.53819278e-03, 1.53778754e-02, 1.71026215e-02,
          1.41264051e-01, 3.06342244e-01, 1.64912585e-02, 5.96493036e-02,
          1.30936712e-01 ]
      - [ 2.46484280e-01, 1.43512204e-01, 4.58935983e-02, 5.09074703e-02,
          2.31638670e-01, 2.89660603e-01, 8.42086300e-02, 8.07802528e-02,
          1.29537866e-01, 1.80057436e-01, 6.79384917e-02, 2.09121555e-01,
          6.60672784e-02, 6.40689135e-02, 1.73319712e-01, 7.60167688e-02,
          2.27823943e-01, 6.54474944e-02, 1.09932870e-01, 1.31599128e-01,
          1.33700848e-01 ]
      - [ 5.88418730e-02, 4.13059860e-01, 2.72171646e-01, 4.16162938e-01,
          1.02245063e-01, 8.22419748e-02, 7.49285100e-03, 4.10270512e-01,
          2.60797497e-02, 2.31793802e-02, 2.97389567e-01, 2.11516872e-01,
          1.77743420e-01, 2.01567188e-01, 1.96179792e-01, 2.08082557e-01,
          1.64097190e-01, 2.76524484e-01, 1.07142434e-01, 2.28292197e-01,
          1.94014072e-01 ]
      - [ 4.77782190e-01, 4.77079660e-01, 4.18836117e-01, 3.59529316e-01,
          1.63992662e-02, 8.96547269e-03, 1.89443827e-02, 1.69647306e-01,
          6.36029392e-02, 6.23822734e-02, 2.95450818e-02, 8.89498889e-02,
          9.80669707e-02, 7.86267892e-02, 1.07128724e-01, 3.64356264e-02,
          2.45056659e-01, 2.41739273e-01, 7.56697431e-02, 6.55148327e-02,
          1.56995118e-01 ]
      - [ 4.46035117e-01, 4.20606136e-01, 3.94480079e-01, 3.41727555e-01,
          1.73968803e-02, 2.31907479e-02, 1.17901936e-02, 1.07682832e-02,
          1.40104620e-02, 7.04380199e-02, 9.48947743e-02, 7.99031705e-02,
          1.81912817e-02, 2.45627016e-02, 7.52905011e-02, 8.67152587e-02,
          2.26807222e-01, 1.89691529e-01, 3.18006165e-02, 8.42009261e-02,
          1.33125082e-01 ]
      - [ 6.47294641e-01, 1.32210851e-01, 9.00427103e-02, 3.87666076e-02,
          5.67976952e-01, 3.74554515e-01, 4.16699976e-01, 1.48497134e-01,
          1.04545336e-02, 3.93205136e-02, 3.89381826e-01, 1.10403724e-01,
          4.34290946e-01, 3.84927630e-01, 2.98197091e-01, 4.25239019e-02,
          4.30509239e-01, 1.73501611e-01, 2.17248410e-01, 2.10126638e-01,
          2.57846475e-01 ]
      - [ 2.21633703e-01, 3.81905347e-01, 2.48642787e-01, 1.10130571e-01,
          1.59368411e-01, 3.79817843e-01, 1.37289464e-01, 9.37865153e-02,
          1.56314909e-01, 4.69726890e-01, 1.61898285e-01, 9.73319635e-02,
          1.61968410e-01, 4.22543168e-01, 7.45019466e-02, 2.61083413e-02,
          2.85681307e-01, 1.47462338e-01, 3.02638352e-01, 8.99601355e-02,
          2.06435546e-01 ]
      - [ 1.09982371e-01, 1.81456164e-01, 4.09823209e-02, 5.89539260e-02,
          1.82852060e-01, 1.59948662e-01, 8.77853855e-02, 2.62838662e-01,
          6.81729555e-01, 2.77563244e-01, 1.03358617e-02, 6.86267912e-02,
          4.08302933e-01, 2.32556909e-01, 8.24605227e-02, 1.96233228e-01,
          1.58559814e-01, 1.12640075e-01, 4.00038153e-01, 8.94141048e-02,
          1.90163046e-01 ]
      - [ 3.19831550e-01, 3.71142268e-01, 4.60154533e-01, 4.93305683e-01,
          6.35910630e-01, 1.27863914e-01, 3.27790342e-02, 5.27867116e-02,
          5.99284880e-02, 3.47368233e-02, 4.38342690e-02, 1.85317189e-01,
          3.57640207e-01, 4.34159100e-01, 4.21884060e-01, 2.31110498e-01,
          3.63687098e-01, 2.59756505e-01, 2.21616149e-01, 2.20536515e-01,
          2.66399056e-01 ]
      - [ 1.18107066e-01, 6.24072328e-02, 3.07084490e-02, 1.05161350e-02,
          2.24279035e-02, 3.58239822e-02, 7.23158941e-02, 8.87906998e-02,
          8.91912729e-02, 1.75378565e-02, 3.12896252e-01, 2.84376115e-01,
          1.85706332e-01, 5.53845823e-01, 2.96981215e-01, 4.28705782e-01,
          5.96915483e-02, 5.05827963e-02, 2.11570323e-01, 3.30739856e-01,
          1.63146138e-01 ]
      - [ 1.30559178e-03, 4.51465108e-04, 6.08983857e-04, 1.15773384e-03,
          3.62322346e-04, 9.96254478e-03, 2.22463742e-01, 7.49419094e-04,
          1.09914113e-02, 1.26212221e-02, 1.74139012e-02, 3.14423174e-04,
          9.21249203e-03, 1.73566900e-02, 2.54486222e-02, 4.15158495e-02,
          3.02048097e-03, 5.62449694e-02, 1.25454543e-02, 2.11731996e-02,
          2.32460257e-02 ]
      - [ 1.60375088e-01, 7.54852533e-01, 8.36263657e-01, 8.06053281e-01,
          6.48679435e-02, 2.66202658e-01, 7.98986927e-02, 1.06826611e-01,
          2.26386070e-01, 5.48950322e-02, 2.59967409e-02, 1.71880741e-02,
          1.42193481e-01, 1.23829413e-02, 8.28503445e-02, 5.70103526e-03,
          3.11574578e-01, 4.57260579e-01, 1.08964391e-01, 3.29340473e-02,
          2.27683410e-01 ]
      - [ 4.31977119e-03, 1.06163900e-02, 7.25763571e-03, 1.09724570e-02,
          4.04709019e-03, 1.47308335e-01, 5.06405085e-02, 6.31047087e-03,
          8.60102624e-02, 7.03317821e-02, 1.06882103e-01, 1.95504725e-02,
          1.02173373e-01, 7.08379373e-02, 5.09394854e-02, 6.84883446e-02,
          4.15728986e-02, 1.87952686e-02, 8.23383406e-02, 6.14650995e-02,
          5.10429032e-02 ]
      - [ 1.17545035e-02, 3.11431326e-02, 4.36049812e-02, 5.19101396e-02,
          5.01869805e-02, 8.25626329e-02, 4.83150370e-02, 3.51500437e-02,
          3.69520038e-02, 1.28013954e-01, 4.97486174e-01, 5.79787850e-01,
          8.93318281e-03, 2.03666519e-02, 5.02336351e-03, 1.06238816e-02,
          4.39118147e-02, 4.47450504e-02, 4.85664494e-02, 2.73230344e-01,
          1.02613419e-01 ]
      - [ 4.49379444e-01, 5.57093441e-01, 1.67135149e-01, 9.15523022e-02,
          3.67824793e-01, 1.19313143e-01, 3.53440195e-02, 4.99663465e-02,
          6.91323817e-01, 7.17015505e-01, 7.34214112e-02, 9.28041413e-02,
          7.31991768e-01, 7.48322308e-01, 4.25027497e-02, 1.00638181e-01,
          3.73402685e-01, 8.59994441e-02, 7.22163320e-01, 7.73416162e-02,
          3.14726770e-01 ]
      - [ 2.83283851e-04, 3.34952883e-02, 3.00010983e-02, 6.93505928e-02,
          8.74076504e-03, 3.91993746e-02, 5.97688593e-02, 7.77596757e-02,
          4.65416238e-02, 2.12233394e-01, 2.69693434e-01, 4.68706861e-02,
          2.45216742e-01, 2.78448462e-01, 2.47059196e-01, 3.47027555e-02,
          2.04296783e-02, 5.92200533e-02, 1.95610061e-01, 1.49581522e-01,
          1.06210329e-01 ]
      - [ 1.08029582e-01, 2.78198086e-02, 2.27942858e-02, 1.69334784e-02,
          4.09258306e-02, 1.99515559e-02, 1.32353172e-01, 5.76008111e-02,
          3.33970159e-01, 1.82188928e-01, 4.55125839e-01, 1.25589281e-01,
          1.76895916e-01, 3.17340881e-01, 3.38165879e-01, 3.51857096e-01,
          4.91816923e-02, 5.74204363e-02, 2.52598971e-01, 3.17684531e-01,
          1.69221401e-01 ]
      - [ 1.35587603e-01, 9.84319448e-02, 1.89164609e-01, 9.15967822e-02,
          2.18252212e-01, 9.70685706e-02, 1.81035206e-01, 1.18790135e-01,
          5.16316712e-01, 3.21504831e-01, 8.74640271e-02, 1.04257487e-01,
          3.43891025e-01, 2.26907223e-01, 6.11963719e-02, 7.75106251e-02,
          1.37335077e-01, 1.45146683e-01, 3.52154970e-01, 8.26071277e-02,
          1.79310977e-01 ]
      - [ 2.67027244e-02, 3.81140321e-01, 3.40108611e-02, 1.49506941e-01,
          1.11496851e-01, 1.93417311e-01, 6.66384101e-02, 6.41991258e-01,
          3.99794042e-01, 6.65785789e-01, 2.96787232e-01, 1.76588729e-01,
          1.54554024e-01, 2.50521779e-01, 3.45719695e-01, 3.92004251e-01,
          1.78189307e-01, 2.23036870e-01, 3.67663920e-01, 3.02774966e-01,
          2.67916262e-01 ]
      - [ 1.91502571e-01, 7.69103020e-02, 2.08782940e-03, 7.07375884e-01,
          2.57028967e-01, 6.83211863e-01, 5.94791025e-02, 4.06224132e-01,
          4.83325869e-02, 4.21515573e-03, 1.46174014e-01, 4.17927206e-02,
          1.92146972e-02, 2.61775814e-02, 2.26337701e-01, 1.10051580e-01,
          3.02163422e-01, 2.93791741e-01, 2.44850069e-02, 1.31089002e-01,
          1.87882274e-01 ]
      - [ 6.03017569e-01, 6.02309071e-02, 1.14937895e-03, 1.34623665e-02,
          7.07013249e-01, 6.64044082e-01, 7.68163428e-03, 2.13552117e-01,
          5.96274197e-01, 5.82382858e-01, 5.51798604e-02, 8.83562714e-02,
          1.59622386e-01, 8.39164481e-02, 5.77565916e-02, 2.57130861e-02,
          5.08576453e-01, 5.89613728e-02, 3.55548978e-01, 5.67514524e-02,
          2.44959563e-01 ]
      - [ 2.92446136e-01, 2.74057686e-01, 2.73209214e-01, 1.71203807e-01,
          3.18230013e-03, 2.09422097e-01, 1.58869982e-01, 6.51212111e-02,
          4.37079277e-03, 1.22863203e-01, 9.08513069e-02, 1.95666309e-02,
          8.22315142e-02, 7.56220222e-02, 3.97083163e-02, 1.44309485e-02,
          1.94777057e-01, 1.67101055e-01, 7.12718815e-02, 4.11393009e-02,
          1.18572325e-01 ]
      - [ 3.74219149e-01, 7.55546212e-01, 9.16755870e-02, 2.09307810e-03,
          4.26446944e-01, 5.52091777e-01, 1.47783965e-01, 1.50152463e-02,
          4.48974557e-02, 2.21889094e-02, 2.08444968e-02, 3.52718518e-03,
          7.92838454e-01, 2.16568932e-01, 7.91562572e-02, 2.07649022e-02,
          5.27076006e-01, 6.41419664e-02, 2.69123435e-01, 3.10732108e-02,
          2.22853661e-01 ]
      - [ 4.82594550e-01, 7.67310381e-01, 6.25801861e-01, 4.95552450e-01,
          9.83148217e-02, 4.04583439e-02, 3.05131339e-02, 3.26368846e-02,
          4.51247990e-02, 1.38362171e-02, 1.36919310e-02, 1.48733398e-02,
          2.39405409e-01, 6.38337135e-01, 2.15262994e-02, 4.63225506e-02,
          3.47169489e-01, 2.96126097e-01, 2.34175891e-01, 2.41035298e-02,
          2.25393742e-01 ]
      - [ 9.21060681e-01, 7.09016204e-01, 5.74452691e-02, 4.33115847e-02,
          4.50965524e-01, 5.25004029e-01, 1.89599413e-02, 2.65234709e-02,
          5.22394329e-02, 1.32415324e-01, 1.97946757e-01, 1.75538063e-01,
          1.63342908e-01, 2.63401866e-01, 1.62502065e-01, 1.61505461e-01,
          6.51511550e-01, 3.65600660e-02, 1.52849883e-01, 1.74373090e-01,
          2.53823638e-01 ]
      - [ 2.90361531e-02, 9.18849930e-02, 1.14239685e-01, 2.97781341e-02,
          1.50562838e-01, 1.58042744e-01, 2.26824194e-01, 1.87212244e-01,
          1.24974392e-01, 1.93078473e-01, 2.00740129e-01, 1.63126066e-01,
          1.54721797e-01, 1.72137782e-01, 1.44251212e-01, 1.19476452e-01,
          1.07381687e-01, 1.39513567e-01, 1.61228105e-01, 1.56898469e-01,
          1.41255468e-01 ]
      - [ 8.25255990e-01, 2.81696413e-02, 3.52702290e-02, 6.41687289e-02,
          5.76843739e-01, 7.43669510e-01, 8.36100698e-01, 6.46337450e-01,
          7.36029893e-02, 5.12860827e-02, 5.15673459e-02, 6.99906647e-02,
          1.29084751e-01, 1.11707416e-03, 1.88139355e-04, 6.41613454e-02,
          5.43484688e-01, 3.95469278e-01, 6.37727305e-02, 4.64768745e-02,
          2.62300879e-01 ]
      - [ 8.58474255e-01, 1.41977876e-01, 3.21143210e-01, 2.14517683e-01,
          7.30220303e-02, 7.84599632e-02, 3.57947685e-02, 1.04333937e-01,
          3.40615124e-01, 3.45534906e-02, 7.08883405e-02, 1.66248396e-01,
          4.85750958e-02, 9.10605565e-02, 1.38505965e-01, 9.04067159e-02,
          2.87983537e-01, 1.68947399e-01, 1.28701076e-01, 1.16512358e-01,
          1.75536096e-01 ]
      - [ 2.85901099e-01, 2.45782465e-01, 9.54025146e-03, 2.64807511e-02,
          2.92372972e-01, 4.94764537e-01, 3.30841005e-01, 1.40540823e-02,
          2.30247766e-01, 5.07397473e-01, 2.45950952e-01, 3.70032340e-03,
          4.59318655e-03, 5.10440096e-02, 1.48258350e-05, 1.29239440e-01,
          3.29705268e-01, 9.52290222e-02, 1.98320612e-01, 9.47263837e-02,
          1.79495320e-01 ]
      - [ 1.28344254e-04, 2.07747042e-04, 8.84606130e-03, 3.60193267e-03,
          9.82651301e-03, 3.32529724e-01, 7.89241433e-01, 2.76217572e-02,
          2.95645604e-03, 1.15476642e-02, 8.73162597e-03, 3.99484783e-02,
          3.27919051e-03, 9.16694105e-03, 1.08152768e-02, 3.02812532e-02,
          8.56730789e-02, 2.07327798e-01, 6.73756283e-03, 2.24441588e-02,
          8.05456489e-02 ]
      - [ 5.85570931e-03, 2.84374878e-02, 2.55712122e-02, 8.11410621e-02,
          6.01597503e-03, 1.76843423e-02, 2.20324360e-02, 1.79347079e-02,
          4.58756499e-02, 3.51318009e-02, 3.72156650e-02, 6.96235448e-02,
          5.94904907e-02, 5.06162569e-02, 2.24319790e-02, 4.10944633e-02,
          1.44983791e-02, 3.66698541e-02, 4.77785468e-02, 4.25914153e-02,
          3.53845507e-02 ]
      - [ 5.64413005e-03, 1.08023931e-03, 3.69872898e-03, 9.26766265e-03,
          5.00762388e-02, 7.47509524e-02, 6.15880676e-02, 7.88351774e-01,
          1.33439805e-02, 1.02633409e-01, 2.90746819e-02, 4.07235278e-03,
          5.21726161e-03, 2.69082794e-03, 1.26623996e-02, 1.36189051e-02,
          3.28878909e-02, 2.15726554e-01, 3.09713706e-02, 1.48570845e-02,
          7.36107230e-02 ]
      - [ 2.89420895e-02, 1.19271595e-02, 2.58319117e-02, 8.56990665e-02,
          1.26386504e-03, 6.79476652e-03, 3.72249745e-02, 4.68164310e-02,
          8.50064971e-04, 2.93412656e-01, 1.01351263e-02, 6.13814313e-03,
          5.30052967e-02, 6.85618520e-02, 3.35412100e-02, 4.21243832e-02,
          1.22319702e-02, 4.88930941e-02, 1.03957467e-01, 2.29847152e-02,
          4.70168106e-02 ]
      - [ 4.39549059e-01, 3.89003485e-01, 3.57976437e-01, 8.92682839e-03,
          3.05167645e-01, 2.62377083e-01, 1.50996596e-01, 1.42886974e-02,
          9.73312929e-02, 1.53175175e-01, 1.62181199e-01, 3.74888331e-01,
          1.32702723e-01, 2.24171460e-01, 1.18520997e-01, 2.27825582e-01,
          3.49024296e-01, 1.33047149e-01, 1.51845157e-01, 2.20854029e-01,
          2.13692665e-01 ]
      - [ 4.55293506e-01, 3.74992788e-01, 5.06015837e-01, 1.03973478e-01,
          3.86837751e-01, 6.61631525e-02, 1.67679429e-01, 8.36739391e-02,
          1.26675749e-03, 3.58038880e-02, 1.93052995e-03, 5.81291097e-04,
          2.07879413e-02, 4.82045896e-02, 2.77160872e-02, 5.68376388e-03,
          3.20821792e-01, 2.15335667e-01, 2.65157931e-02, 8.97791795e-03,
          1.42912790e-01 ]
      - [ 2.44324394e-02, 6.30829632e-02, 4.52711023e-02, 1.70270924e-03,
          1.87816724e-01, 6.45341575e-02, 1.69028684e-01, 1.36004955e-01,
          7.98672289e-02, 5.83642304e-01, 6.39887989e-01, 3.99740130e-01,
          2.44205326e-01, 1.75438747e-01, 1.94509804e-01, 1.37006715e-01,
          8.49665701e-02, 8.80018622e-02, 2.70788401e-01, 3.42786193e-01,
          1.96635753e-01 ]
      - [ 7.31917620e-02, 2.90132407e-02, 1.76032573e-01, 1.96146667e-01,
          6.07988201e-02, 2.75261179e-02, 1.66873679e-01, 1.57836676e-01,
          2.03526527e-01, 3.90614271e-02, 2.88396835e-01, 1.43093467e-01,
          5.53222150e-02, 2.21418008e-01, 2.35128880e-01, 1.63142100e-01,
          4.76324856e-02, 1.74222395e-01, 1.29832044e-01, 2.07440317e-01,
          1.39781803e-01 ]
      - [ 1.39641380e-02, 9.53815728e-02, 5.07549524e-01, 6.12126887e-01,
          1.70315076e-02, 8.77362210e-03, 3.01338620e-02, 7.82778561e-02,
          3.79311107e-02, 5.58471680e-03, 1.07709076e-02, 7.53786135e-03,
          1.04207143e-01, 1.39670342e-01, 1.79779053e-01, 1.36675179e-01,
          3.37877125e-02, 3.07022005e-01, 7.18483329e-02, 8.36907476e-02,
          1.24087200e-01 ]
      - [ 1.52976692e-01, 1.76428333e-01, 6.83326796e-02, 5.35673462e-02,
          1.93382099e-01, 2.82248080e-01, 9.14435908e-02, 1.02470726e-01,
          1.04002975e-01, 2.80514121e-01, 1.92416221e-01, 2.82958627e-01,
          2.80530632e-01, 2.28022665e-01, 2.36408815e-01, 9.96166244e-02,
          2.01258793e-01, 7.89535865e-02, 2.23267615e-01, 2.02850074e-01,
          1.76582515e-01 ]
      - [ 5.22215962e-01, 2.15316266e-01, 5.63016050e-02, 6.63979212e-03,
          8.93430471e-01, 6.63582861e-01, 2.75691971e-03, 1.54700354e-01,
          6.48687184e-02, 5.54059781e-02, 8.95330217e-03, 2.03512218e-02,
          1.09038176e-03, 1.09834909e-01, 8.28016996e-02, 1.50972642e-02,
          5.73636413e-01, 5.50996661e-02, 5.77999949e-02, 3.18008699e-02,
          1.79584235e-01 ]
      - [ 8.10021996e-01, 7.97723174e-01, 3.56782402e-04, 4.49842401e-02,
          3.24082561e-02, 8.98202416e-03, 1.84869254e-03, 4.32692803e-02,
          3.23275886e-02, 1.00886464e-01, 1.87054321e-01, 7.08824992e-02,
          1.55820400e-02, 1.26580238e-01, 2.90535577e-02, 4.96586636e-02,
          4.12283868e-01, 2.26147491e-02, 6.88440800e-02, 8.41622651e-02,
          1.46976233e-01 ]
      - [ 1.06172636e-01, 6.97792098e-02, 5.12255132e-02, 5.10613248e-02,
          1.03130072e-01, 2.71189749e-01, 2.11606294e-01, 4.98342425e-01,
          4.84890863e-02, 5.61741665e-02, 5.29524013e-02, 4.71188575e-02,
          1.20663755e-01, 7.75270443e-03, 8.93717166e-03, 2.04113647e-02,
          1.37567908e-01, 2.03058898e-01, 5.82699291e-02, 3.23549509e-02,
          1.07812919e-01 ]
      - [ 8.43926519e-02, 3.44069451e-02, 1.16304874e-01, 1.36013508e-01,
          7.71614075e-01, 6.06382728e-01, 7.69381076e-02, 5.71071327e-01,
          1.95492327e-01, 1.76227726e-02, 1.49138302e-01, 1.65727139e-01,
          2.36036684e-02, 2.14957874e-02, 7.60607272e-02, 2.61713956e-02,
          3.74199092e-01, 2.25081950e-01, 6.45536333e-02, 1.04274392e-01,
          1.92027271e-01 ]
      - [ 2.93332189e-02, 3.26282471e-01, 1.77369043e-01, 3.52434397e-01,
          7.99125284e-02, 1.83736175e-01, 1.44442081e-01, 3.11618987e-02,
          1.89278554e-02, 1.81577340e-01, 5.31290174e-02, 3.28769870e-02,
          3.22407447e-02, 6.90283999e-02, 4.26542312e-02, 8.13043118e-03,
          1.54816091e-01, 1.76351860e-01, 7.54435882e-02, 3.41976658e-02,
          1.10202298e-01 ]
      - [ 1.05536491e-01, 1.09135397e-01, 8.48751515e-02, 1.27738386e-01,
          1.86188206e-01, 1.78794965e-01, 2.82077342e-01, 2.95760095e-01,
          1.29671723e-01, 3.34104598e-01, 2.00807840e-01, 1.58083111e-01,
          4.58760560e-02, 8.86081159e-02, 9.43452865e-02, 3.37803066e-02,
          1.44913763e-01, 1.97612748e-01, 1.49565130e-01, 1.21754132e-01,
          1.53461441e-01 ]
      - [ 4.04549167e-02, 3.64514254e-03, 2.94247270e-01, 9.01727140e-01,
          3.58778201e-02, 7.16645718e-02, 1.80961028e-01, 2.05167294e-01,
          6.41216189e-02, 3.52059677e-02, 2.52287358e-01, 3.35134864e-02,
          5.69592789e-02, 6.25253692e-02, 2.78661884e-02, 2.17815936e-02,
          3.79106142e-02, 3.95525664e-01, 5.47030568e-02, 8.38621557e-02,
          1.43000364e-01 ]
      - [ 4.53067034e-01, 1.88042462e-01, 3.97165447e-01, 4.35007483e-01,
          2.19574720e-01, 6.74844682e-02, 7.17920288e-02, 5.56199104e-02,
          1.34638585e-02, 5.31822145e-02, 8.36700276e-02, 4.88649495e-02,
          1.30258903e-01, 1.28211543e-01, 1.65919662e-01, 2.07295045e-02,
          2.32042164e-01, 2.39896208e-01, 8.12791288e-02, 7.97960386e-02,
          1.58253387e-01 ]
      - [ 6.52261138e-01, 9.72912669e-01, 1.57469004e-01, 4.94047813e-02,
          8.02240223e-02, 8.07541481e-04, 3.13013280e-03, 1.25985884e-03,
          4.49069478e-02, 8.26987922e-02, 5.80834784e-02, 3.52752060e-02,
          6.49086311e-02, 1.36345223e-01, 7.52482265e-02, 5.61132208e-02,
          4.26551342e-01, 5.28159477e-02, 8.22148919e-02, 5.61800301e-02,
          1.54440552e-01 ]
      - [ 5.43129519e-02, 7.71714747e-02, 1.48913771e-01, 1.44297034e-01,
          3.02518010e-01, 3.81846070e-01, 3.51766109e-01, 1.55827954e-01,
          8.47828984e-01, 1.83819067e-02, 1.37634933e-01, 1.38830870e-01,
          2.98737083e-03, 3.12663279e-02, 9.73516144e-03, 4.03378345e-02,
          2.03962117e-01, 2.00201213e-01, 2.25116149e-01, 8.16347003e-02,
          1.77728549e-01 ]
      - [ 1.16371550e-02, 6.36135459e-01, 4.94435549e-01, 3.29124182e-02,
          4.07610349e-02, 1.33306556e-03, 1.54763833e-03, 6.68015331e-02,
          1.00175142e-02, 2.54905876e-02, 1.31900050e-02, 1.08362902e-02,
          9.60396230e-03, 1.28892809e-02, 2.72123031e-02, 9.98140685e-03,
          1.72466680e-01, 1.48924291e-01, 1.45003367e-02, 1.53050013e-02,
          8.77990872e-02 ]
      - [ 3.61482322e-01, 3.02792370e-01, 3.04241389e-01, 2.53193021e-01,
          3.83228272e-01, 4.99728322e-01, 2.95706242e-01, 1.69531196e-01,
          4.37792242e-01, 3.42560232e-01, 2.61099219e-01, 1.29141688e-01,
          1.74806401e-01, 2.14081049e-01, 1.57867655e-01, 3.94057855e-02,
          3.86807829e-01, 2.55667984e-01, 2.92309999e-01, 1.46878585e-01,
          2.70416111e-01 ]
      - [ 2.80886352e-01, 6.00225866e-01, 3.27764064e-01, 1.42805785e-01,
          5.87809458e-02, 8.89092684e-02, 9.57435519e-02, 7.53289759e-02,
          1.91566914e-01, 1.97469175e-01, 8.50276947e-01, 4.67038810e-01,
          3.97657640e-02, 2.21718386e-01, 1.61547810e-01, 1.62717387e-01,
          2.57200599e-01, 1.60410583e-01, 1.62630066e-01, 4.10395235e-01,
          2.47659117e-01 ]
      - [ 1.25140563e-01, 1.12089187e-01, 7.22067356e-02, 4.02702957e-01,
          6.68799281e-02, 6.15203157e-02, 6.70555234e-02, 1.00583255e-01,
          2.00153902e-01, 1.67519480e-01, 2.69935429e-01, 5.82705379e-01,
          1.32559195e-01, 1.31289661e-01, 1.14354767e-01, 3.19623232e-01,
          9.14075002e-02, 1.60637125e-01, 1.57880560e-01, 3.21654707e-01,
          1.82894975e-01 ]
      - [ 2.40993038e-01, 4.58139956e-01, 7.49185026e-01, 7.46502042e-01,
          9.54924244e-03, 4.68477560e-03, 3.68961915e-02, 7.63700083e-02,
          7.22934073e-03, 1.47477798e-02, 6.97891985e-04, 1.15861229e-04,
          2.12032143e-02, 7.59677961e-02, 3.65561619e-02, 3.96263367e-03,
          1.78341746e-01, 4.02238309e-01, 2.97870338e-02, 1.03331367e-02,
          1.55175045e-01 ]
      - [ 7.71038711e-01, 3.94481748e-01, 2.82650173e-01, 2.37464413e-01,
          1.87771499e-01, 2.29463801e-01, 2.57884204e-01, 2.30222464e-01,
          8.44068050e-01, 7.40557194e-01, 3.16238642e-01, 1.13223903e-01,
          1.77986920e-01, 2.12359905e-01, 1.80035919e-01, 1.30779356e-01,
          3.95688951e-01, 2.52055317e-01, 4.93743002e-01, 1.85069472e-01,
          3.31639200e-01 ]
      - [ 6.36096478e-01, 3.43422949e-01, 3.15092206e-01, 3.89565915e-01,
          7.85098910e-01, 4.61183846e-01, 2.64113963e-01, 2.38298148e-01,
          1.72204137e-01, 2.28943527e-01, 1.50637567e-01, 1.41746134e-01,
          3.83059643e-02, 3.06074973e-02, 1.55498430e-01, 1.49841368e-01,
          5.56450546e-01, 3.01767558e-01, 1.17515281e-01, 1.49430871e-01,
          2.81291068e-01 ]
      - [ 2.10388169e-01, 7.41298020e-01, 1.90031668e-03, 6.85426034e-03,
          1.20405480e-02, 1.07844099e-01, 4.81329439e-03, 6.87332032e-03,
          7.50765810e-03, 9.48248617e-03, 6.04677480e-03, 8.72327294e-03,
          7.24658044e-03, 5.51720196e-03, 6.45138696e-03, 1.03998501e-02,
          2.67892718e-01, 5.11029828e-03, 7.43848132e-03, 7.90532120e-03,
          7.20867068e-02 ]
      - [ 8.84229481e-01, 4.81469750e-01, 3.35859209e-01, 5.56024253e-01,
          5.70113510e-02, 3.23775470e-01, 1.40390903e-01, 4.11570556e-02,
          9.41547528e-02, 5.11672832e-02, 6.71763420e-02, 1.92585923e-02,
          3.59148979e-02, 2.08961219e-02, 2.67795101e-02, 8.90121460e-02,
          4.36621547e-01, 2.68357843e-01, 5.05332649e-02, 5.05566448e-02,
          2.01517344e-01 ]
      - [ 1.93588585e-02, 3.81991267e-01, 2.91275352e-01, 4.37080674e-02,
          3.98245156e-02, 1.69813968e-02, 2.09495071e-02, 3.50997150e-02,
          8.43694881e-02, 3.47865112e-02, 3.66451358e-03, 7.69374985e-03,
          5.61940596e-02, 5.65669052e-02, 1.03603736e-01, 8.73953328e-02,
          1.14539012e-01, 9.77581590e-02, 5.79792447e-02, 5.05893305e-02,
          8.02164376e-02 ]
      - [ 8.92170310e-01, 2.51786888e-01, 4.81776118e-01, 2.97954567e-02,
          4.41281497e-01, 3.42212945e-01, 1.43968791e-01, 1.02932537e-02,
          1.15342632e-01, 2.41064742e-01, 1.02171734e-01, 3.98306176e-02,
          4.79859971e-02, 7.85466731e-02, 2.87524574e-02, 5.91754653e-02,
          4.81862903e-01, 1.66458398e-01, 1.20735012e-01, 5.74825667e-02,
          2.06634700e-01 ]
      - [ 8.09068512e-03, 2.21045554e-01, 7.53850758e-01, 2.81769931e-01,
          1.49439454e-01, 1.48718625e-01, 8.58831778e-02, 2.67782569e-01,
          1.71104357e-01, 1.48765087e-01, 1.50323063e-01, 2.31624737e-01,
          1.21689975e-01, 8.64862874e-02, 2.08109289e-01, 4.74108756e-01,
          1.31823570e-01, 3.47321600e-01, 1.32011428e-01, 2.66041458e-01,
          2.19299510e-01 ]
      - [ 1.83371045e-02, 1.79209225e-02, 1.92914866e-02, 1.10259518e-01,
          2.91949157e-02, 2.80986540e-03, 1.96723416e-02, 4.44326773e-02,
          1.58969015e-02, 2.39725932e-02, 5.91083914e-02, 1.72786057e-01,
          2.01938748e-02, 2.58518867e-02, 2.90300362e-02, 4.36389148e-02,
          1.70657020e-02, 4.84140068e-02, 2.14788131e-02, 7.61408508e-02,
          4.07748446e-02 ]
      - [ 9.10662949e-01, 6.27329588e-01, 6.55357718e-01, 1.72372550e-01,
          4.52649146e-01, 3.52302790e-02, 2.63256788e-01, 2.87090940e-03,
          5.81773400e-01, 4.44899142e-01, 2.72795469e-01, 1.41615227e-01,
          1.95383251e-01, 1.22823730e-01, 1.81129664e-01, 1.11682788e-01,
          5.06467938e-01, 2.73464501e-01, 3.36219907e-01, 1.76805794e-01,
          3.23239505e-01 ]
      - [ 1.39785782e-01, 1.48608536e-01, 3.55283797e-01, 2.99256980e-01,
          6.55631796e-02, 9.91320983e-02, 3.06738112e-02, 4.71510649e-01,
          4.06897485e-01, 3.91360104e-01, 1.49269611e-01, 4.25079733e-01,
          6.17344320e-01, 2.07678944e-01, 3.00317466e-01, 1.09547988e-01,
          1.13272399e-01, 2.89181292e-01, 4.05820221e-01, 2.46053696e-01,
          2.63581902e-01 ]
      - [ 2.92477285e-04, 8.08419310e-04, 1.79162234e-01, 6.19897470e-02,
          6.56930450e-03, 5.67476936e-02, 5.77262342e-02, 3.31818163e-02,
          3.36364985e-01, 3.74518454e-01, 2.23001137e-01, 2.62102932e-01,
          9.64323938e-01, 1.18207291e-01, 2.64909655e-01, 5.10409027e-02,
          1.61044747e-02, 8.30150098e-02, 4.48353678e-01, 2.00263649e-01,
          1.86934203e-01 ]
      - [ 7.23845363e-01, 4.37060833e-01, 3.01418722e-01, 1.66759595e-01,
          5.42403221e-01, 3.49374622e-01, 2.22181231e-01, 1.59669712e-01,
          2.77011335e-01, 1.03133380e-01, 3.44974250e-01, 1.34894431e-01,
          1.74267206e-03, 1.32183114e-03, 1.66517013e-04, 7.11944140e-03,
          5.13171017e-01, 2.12507322e-01, 9.58022997e-02, 1.21788658e-01,
          2.35817328e-01 ]
      - [ 1.12410545e-01, 1.10194214e-01, 1.68439671e-01, 1.61281720e-01,
          9.25043225e-01, 4.14755270e-02, 6.33938462e-02, 7.83968531e-03,
          4.95467097e-01, 1.37712330e-01, 1.04793467e-01, 2.14606583e-01,
          3.18277031e-02, 1.20616890e-01, 3.75364482e-01, 2.52753615e-01,
          2.97280878e-01, 1.00238726e-01, 1.96406007e-01, 2.36879528e-01,
          2.07701281e-01 ]
      - [ 8.80564898e-02, 1.14074592e-02, 1.05263107e-02, 6.87454268e-03,
          4.47482049e-01, 4.22522239e-02, 1.26287594e-01, 8.43627900e-02,
          2.32783780e-01, 2.72659838e-01, 2.47874185e-01, 1.73761114e-01,
          3.95604610e-01, 3.45373303e-01, 2.77554542e-01, 2.18212679e-01,
          1.47299558e-01, 5.70128076e-02, 3.11605394e-01, 2.29350626e-01,
          1.86317101e-01 ]
      - [ 7.62429237e-02, 2.97827180e-03, 1.10356305e-02, 7.31050083e-03,
          1.67485625e-01, 5.28298318e-04, 5.66812232e-04, 1.38375373e-03,
          2.70223796e-01, 4.11478758e-01, 6.21743798e-01, 4.35129255e-02,
          2.99455404e-01, 1.02447912e-01, 1.09193653e-01, 8.60880315e-02,
          6.18087798e-02, 5.07417414e-03, 2.70901471e-01, 2.15134621e-01,
          1.38229758e-01 ]
      - [ 6.51088893e-01, 2.12247193e-01, 2.39806548e-01, 2.85000801e-02,
          5.14051057e-02, 8.84825289e-02, 1.92692075e-02, 7.76435714e-03,
          1.01352237e-01, 1.01570643e-01, 7.54932091e-02, 2.02980898e-02,
          1.69544097e-03, 2.27201334e-03, 1.49225853e-02, 1.00800255e-02,
          2.50805944e-01, 7.38350451e-02, 5.17225824e-02, 3.01984772e-02,
          1.01640515e-01 ]
      - [ 8.08892608e-01, 9.32857692e-01, 2.84281433e-01, 9.24170986e-02,
          2.46384621e-01, 2.80506194e-01, 5.65130524e-02, 8.15404207e-02,
          2.56557167e-01, 6.53031468e-02, 5.44748008e-02, 1.82561830e-01,
          9.36317593e-02, 7.26514310e-02, 3.64725068e-02, 1.59011811e-01,
          5.67160249e-01, 1.28687993e-01, 1.22035876e-01, 1.08130239e-01,
          2.31503576e-01 ]
      - [ 7.97438920e-02, 5.17508686e-02, 1.01197101e-01, 1.07640930e-01,
          4.43528533e-01, 3.87042165e-02, 1.32086262e-01, 2.04907313e-01,
          8.48596543e-02, 1.37992471e-01, 4.01380360e-01, 1.98828310e-01,
          5.23234233e-02, 1.10305898e-01, 3.40775773e-02, 1.17418885e-01,
          1.53431877e-01, 1.36457905e-01, 9.63703617e-02, 1.87926278e-01,
          1.43546611e-01 ]
      - [ 1.96067557e-01, 2.47477293e-01, 1.56018540e-01, 1.51122630e-01,
          2.08458938e-02, 7.21302256e-02, 1.65862873e-01, 4.99951839e-01,
          1.04296729e-02, 5.30341528e-02, 6.01458512e-02, 5.20053282e-02,
          1.08369300e-02, 1.59326307e-02, 5.62092401e-02, 2.73754150e-02,
          1.34130239e-01, 2.43238971e-01, 2.25583464e-02, 4.89339568e-02,
          1.12215377e-01 ]
      - [ 3.75005254e-03, 3.01825032e-02, 3.07266749e-02, 4.37278412e-02,
          4.80295569e-02, 7.98294768e-02, 1.70954719e-01, 2.24313065e-01,
          3.02295014e-02, 1.38870314e-01, 2.30284259e-02, 4.51580584e-01,
          2.78753005e-02, 9.77426246e-02, 8.49973410e-02, 1.50356218e-02,
          4.04478982e-02, 1.17430575e-01, 7.36794323e-02, 1.43660501e-01,
          9.38045979e-02 ]
      - [ 8.86287093e-02, 1.38321510e-02, 7.37802088e-01, 1.44037038e-01,
          2.19103955e-02, 3.40971984e-02, 1.07044671e-02, 4.99326214e-02,
          6.28128797e-02, 6.09828271e-02, 3.29092517e-02, 1.07341863e-01,
          2.17088163e-02, 3.96291874e-02, 2.25501042e-02, 9.07268375e-02,
          3.96171138e-02, 2.35619053e-01, 4.62834276e-02, 6.33820146e-02,
          9.62253958e-02 ]
      - [ 2.83891439e-01, 6.58105254e-01, 1.31062288e-02, 3.76908598e-03,
          9.41161215e-02, 4.32339609e-02, 3.93954664e-02, 9.71147604e-03,
          5.06153852e-02, 1.28762662e-01, 1.78912692e-02, 5.76529354e-02,
          4.09537479e-02, 4.22064602e-01, 1.51775253e-03, 8.87241587e-02,
          2.69836694e-01, 1.64955650e-02, 1.60599098e-01, 4.14465293e-02,
          1.22094475e-01 ]
      - [ 4.41889390e-02, 8.10343772e-02, 1.20003849e-01, 1.55588821e-01,
          3.27423634e-03, 5.21393120e-02, 1.88617501e-03, 1.13127697e-02,
          4.97626722e-01, 4.02886778e-01, 4.18350369e-01, 2.06031464e-02,
          4.96247023e-01, 3.33025187e-01, 9.15876180e-02, 4.50396650e-02,
          4.51592132e-02, 7.21979141e-02, 4.32446450e-01, 1.43895194e-01,
          1.73424691e-01 ]
      - [ 4.16005030e-03, 1.53161911e-02, 9.26430672e-02, 6.38522208e-02,
          1.24777377e-01, 5.96436262e-02, 5.20986952e-02, 7.83145986e-03,
          3.92144136e-02, 4.46374118e-02, 2.47838378e-01, 6.14400767e-02,
          2.26875301e-02, 4.51869257e-02, 2.99522392e-02, 1.31056756e-02,
          5.09743094e-02, 5.41063584e-02, 3.79315726e-02, 8.80840868e-02,
          5.77740818e-02 ]
      - [ 6.18048131e-01, 1.68103337e-01, 1.93338469e-01, 1.47973731e-01,
          8.66920203e-02, 1.24232613e-01, 9.02658328e-02, 6.17814250e-02,
          1.70307308e-02, 1.11282459e-02, 3.34284501e-03, 1.36501268e-02,
          5.69871366e-02, 4.95110676e-02, 9.10645816e-03, 9.52125527e-03,
          2.49269024e-01, 1.23339869e-01, 3.36642936e-02, 8.90517049e-03,
